{"learner":{"attributes":{"scikit_learn":"{\"_estimator_type\": \"regressor\"}"},"feature_names":["Tire Width (mm)","Aspect Ratio (%)","Rim Diameter (inches)","Load Index","Material Hardness","Tensile Strength","Tire Type_LT","Tire Type_P","Tire Type_ST","Tire Type_T","Construction_B","Construction_D","Construction_R","Speed Rating_H","Speed Rating_S","Speed Rating_T","Speed Rating_U","Speed Rating_V","Season_All-Season","Season_Summer","Season_Winter"],"feature_types":["int","int","int","int","float","float","i","i","i","i","i","i","i","i","i","i","i","i","i","i","i"],"gradient_booster":{"model":{"gbtree_model_param":{"num_parallel_tree":"1","num_trees":"50"},"iteration_indptr":[0,1,2,3,4,5,6,7,8,9,10,11,12,13,14,15,16,17,18,19,20,21,22,23,24,25,26,27,28,29,30,31,32,33,34,35,36,37,38,39,40,41,42,43,44,45,46,47,48,49,50],"tree_info":[0,0,0,0,0,0,0,0,0,0,0,0,0,0,0,0,0,0,0,0,0,0,0,0,0,0,0,0,0,0,0,0,0,0,0,0,0,0,0,0,0,0,0,0,0,0,0,0,0,0],"trees":[{"base_weights":[7.58133E-2,2.9312274E-1,-3.16418E-1,-3.0601682E-2,1.0027308E0,1.0194246E0,-4.9685907E-1,3.031929E-1,-7.1100706E-1,6.56949E0,9.105593E-1,2.3762445E0,-1.5411814E0,2.3288132E-1,-9.6837026E-1,7.0820414E-3,-9.386563E-3,1.2372505E-3,-1.3631844E-2,-2.2966728E-2,7.226127E-2,5.567885E-3,2.2807155E-2,4.292444E-2,1.3857722E-2,-6.910272E-2,-6.120227E-3,-6.726227E-3,8.908416E-3,-3.7619893E-2,-7.3862826E-3],"categories":[],"categories_nodes":[],"categories_segments":[],"categories_sizes":[],"default_left":[0,0,0,0,0,0,0,0,0,0,0,0,0,0,0,0,0,0,0,0,0,0,0,0,0,0,0,0,0,0,0],"id":0,"left_children":[1,3,5,7,9,11,13,15,17,19,21,23,25,27,29,-1,-1,-1,-1,-1,-1,-1,-1,-1,-1,-1,-1,-1,-1,-1,-1],"loss_changes":[4.714454E2,8.1759534E2,4.758391E2,5.555133E2,5.661212E2,8.2011835E2,5.982379E2,8.2602686E2,4.3840536E2,1.21389465E2,5.3095404E2,2.863349E2,4.0484717E2,4.075208E2,6.749743E2,0E0,0E0,0E0,0E0,0E0,0E0,0E0,0E0,0E0,0E0,0E0,0E0,0E0,0E0,0E0,0E0],"parents":[2147483647,0,0,1,1,2,2,3,3,4,4,5,5,6,6,7,7,8,8,9,9,10,10,11,11,12,12,13,13,14,14],"right_children":[2,4,6,8,10,12,14,16,18,20,22,24,26,28,30,-1,-1,-1,-1,-1,-1,-1,-1,-1,-1,-1,-1,-1,-1,-1,-1],"split_conditions":[1.6454422E1,7.070152E1,4.6E1,1E0,1.0125629E1,1.9E1,6.180491E1,1.4906378E1,5.995807E1,7.106548E1,1.5252133E1,4.2E1,4.1E1,8.8E1,6.300747E1,7.0820414E-3,-9.386563E-3,1.2372505E-3,-1.3631844E-2,-2.2966728E-2,7.226127E-2,5.567885E-3,2.2807155E-2,4.292444E-2,1.3857722E-2,-6.910272E-2,-6.120227E-3,-6.726227E-3,8.908416E-3,-3.7619893E-2,-7.3862826E-3],"split_indices":[5,4,1,10,5,2,4,5,4,4,5,1,1,3,4,0,0,0,0,0,0,0,0,0,0,0,0,0,0,0,0],"split_type":[0,0,0,0,0,0,0,0,0,0,0,0,0,0,0,0,0,0,0,0,0,0,0,0,0,0,0,0,0,0,0],"sum_hessian":[5.529E3,3.558E3,1.971E3,2.444E3,1.114E3,2.34E2,1.737E3,1.64E3,8.04E2,1.7E1,1.097E3,1.53E2,8.1E1,6.82E2,1.055E3,1.237E3,4.03E2,3.53E2,4.51E2,1E0,1.6E1,8.73E2,2.24E2,5.1E1,1.02E2,1.1E1,7E1,2.87E2,3.95E2,7.9E1,9.76E2],"tree_param":{"num_deleted":"0","num_feature":"21","num_nodes":"31","size_leaf_vector":"1"}},{"base_weights":[1.219503E-2,8.5979617E-1,-4.1181847E-2,1.5288372E0,-1.7318665E0,-2.270224E-1,2.726863E-1,1.0311457E0,3.6582417E0,-3.4790606E0,1.4823575E0,-2.0060134E-1,-2.7101548E0,8.8932323E-1,-2.9043835E-1,1.7322833E-2,-1.171097E-2,5.6656145E-2,-1.9082613E-2,-4.453087E-2,2.4446674E-2,3.7955977E-2,-1.806821E-2,-2.633436E-3,1.3182394E-2,-7.939951E-2,-1.5738567E-2,1.3556452E-2,-2.3508007E-3,-9.560865E-3,5.23279E-3],"categories":[],"categories_nodes":[],"categories_segments":[],"categories_sizes":[],"default_left":[0,0,0,0,0,0,0,0,0,0,0,0,0,0,0,0,0,0,0,0,0,0,0,0,0,0,0,0,0,0,0],"id":1,"left_children":[1,3,5,7,9,11,13,15,17,19,21,23,25,27,29,-1,-1,-1,-1,-1,-1,-1,-1,-1,-1,-1,-1,-1,-1,-1,-1],"loss_changes":[2.5506627E2,5.8177997E2,3.0944116E2,2.7813104E2,3.926524E2,2.1805882E2,6.853696E2,3.3709308E2,5.6951385E2,2.705304E2,1.9707446E2,3.1463184E2,1.954949E2,4.942412E2,5.5948254E2,0E0,0E0,0E0,0E0,0E0,0E0,0E0,0E0,0E0,0E0,0E0,0E0,0E0,0E0,0E0,0E0],"parents":[2147483647,0,0,1,1,2,2,3,3,4,4,5,5,6,6,7,7,8,8,9,9,10,10,11,11,12,12,13,13,14,14],"right_children":[2,4,6,8,10,12,14,16,18,20,22,24,26,28,30,-1,-1,-1,-1,-1,-1,-1,-1,-1,-1,-1,-1,-1,-1,-1,-1],"split_conditions":[1.58E2,8E1,7.1E1,1E0,1.9E1,3.53E2,8E1,1E0,1E0,1.55E2,8.9E1,3.45E2,1.5E1,9.7E1,2.62E2,1.7322833E-2,-1.171097E-2,5.6656145E-2,-1.9082613E-2,-4.453087E-2,2.4446674E-2,3.7955977E-2,-1.806821E-2,-2.633436E-3,1.3182394E-2,-7.939951E-2,-1.5738567E-2,1.3556452E-2,-2.3508007E-3,-9.560865E-3,5.23279E-3],"split_indices":[0,1,1,14,2,0,1,8,7,0,3,0,2,3,0,0,0,0,0,0,0,0,0,0,0,0,0,0,0,0,0],"split_type":[0,0,0,0,0,0,0,0,0,0,0,0,0,0,0,0,0,0,0,0,0,0,0,0,0,0,0,0,0,0,0],"sum_hessian":[5.636E3,3.33E2,5.303E3,2.65E2,6.8E1,3.331E3,1.972E3,2.16E2,4.9E1,4.4E1,2.4E1,3.297E3,3.4E1,9.41E2,1.031E3,1.64E2,5.2E1,3.6E1,1.3E1,3.8E1,6E0,1.4E1,1E1,3.167E3,1.3E2,5E0,2.9E1,6.65E2,2.76E2,5.67E2,4.64E2],"tree_param":{"num_deleted":"0","num_feature":"21","num_nodes":"31","size_leaf_vector":"1"}},{"base_weights":[1.9543529E-2,1.8198192E-1,-4.0965742E-1,1.207589E-1,1.5090603E0,-6.5126973E-1,4.898633E-1,1.2984662E0,6.282711E-2,5.2770915E0,6.2123764E-1,-8.9149946E-1,8.4689283E-1,1.4499012E0,-1.6631906E0,2.2507463E-2,-1.5659E-2,9.11411E-4,-2.9062748E-2,6.51059E-2,1.6656348E-2,-9.6449815E-2,8.30803E-3,-3.0967223E-2,-7.5877435E-3,1.9830134E-2,-5.5450317E-3,-9.909436E-3,2.2790084E-2,-6.939978E-2,-9.41139E-3],"categories":[],"categories_nodes":[],"categories_segments":[],"categories_sizes":[],"default_left":[0,0,0,0,0,0,0,0,0,0,0,0,0,0,0,0,0,0,0,0,0,0,0,0,0,0,0,0,0,0,0],"id":2,"left_children":[1,3,5,7,9,11,13,15,17,19,21,23,25,27,29,-1,-1,-1,-1,-1,-1,-1,-1,-1,-1,-1,-1,-1,-1,-1,-1],"loss_changes":[3.9029022E2,3.297649E2,3.3436337E2,2.6484265E2,5.955382E2,4.3695758E2,6.762578E2,4.9996204E2,3.1148145E2,1.406164E2,3.2212396E2,3.0350958E2,2.6858157E2,4.5961957E2,3.7828992E2,0E0,0E0,0E0,0E0,0E0,0E0,0E0,0E0,0E0,0E0,0E0,0E0,0E0,0E0,0E0,0E0],"parents":[2147483647,0,0,1,1,2,2,3,3,4,4,5,5,6,6,7,7,8,8,9,9,10,10,11,11,12,12,13,13,14,14],"right_children":[2,4,6,8,10,12,14,16,18,20,22,24,26,28,30,-1,-1,-1,-1,-1,-1,-1,-1,-1,-1,-1,-1,-1,-1,-1,-1],"split_conditions":[9.7E1,9.6E1,1E0,7.6E1,1.94E2,1.04E2,1E0,7.266578E1,3.53E2,1E0,5.0114407E1,5.158617E1,2.55E2,1.98E2,1.66E2,2.2507463E-2,-1.5659E-2,9.11411E-4,-2.9062748E-2,6.51059E-2,1.6656348E-2,-9.6449815E-2,8.30803E-3,-3.0967223E-2,-7.5877435E-3,1.9830134E-2,-5.5450317E-3,-9.909436E-3,2.2790084E-2,-6.939978E-2,-9.41139E-3],"split_indices":[3,3,13,3,0,3,11,4,0,12,4,4,0,0,0,0,0,0,0,0,0,0,0,0,0,0,0,0,0,0,0],"split_type":[0,0,0,0,0,0,0,0,0,0,0,0,0,0,0,0,0,0,0,0,0,0,0,0,0,0,0,0,0,0,0],"sum_hessian":[5.596E3,4.06E3,1.536E3,3.882E3,1.78E2,1.211E3,3.25E2,1.81E2,3.701E3,3.3E1,1.45E2,1.044E3,1.67E2,2.25E2,1E2,1.36E2,4.5E1,3.667E3,3.4E1,2.4E1,9E0,2E0,1.43E2,5.8E1,9.86E2,9.2E1,7.5E1,5.7E1,1.68E2,1.1E1,8.9E1],"tree_param":{"num_deleted":"0","num_feature":"21","num_nodes":"31","size_leaf_vector":"1"}},{"base_weights":[-1.0389703E-1,5.2877467E-2,-8.762975E-1,-5.6371845E-2,6.696124E-1,-2.1875162E-1,-1.650708E0,-9.455E-1,6.1033312E-2,5.438353E0,5.226545E-1,-5.9446055E-1,2.5934126E0,-1.4283112E0,-8.268244E0,-1.010124E-1,-8.038101E-3,1.5145993E-3,-1.1179984E-2,3.8607635E-3,6.604414E-2,-9.033237E-2,6.2025534E-3,9.663034E-3,-1.1422015E-2,8.6958654E-2,1.8932674E-2,-9.82957E-3,-2.939699E-2,-9.274203E-2,-1.4883245E-2],"categories":[],"categories_nodes":[],"categories_segments":[],"categories_sizes":[],"default_left":[0,0,0,0,0,0,0,0,0,0,0,0,0,0,0,0,0,0,0,0,0,0,0,0,0,0,0,0,0,0,0],"id":3,"left_children":[1,3,5,7,9,11,13,15,17,19,21,23,25,27,29,-1,-1,-1,-1,-1,-1,-1,-1,-1,-1,-1,-1,-1,-1,-1,-1],"loss_changes":[6.832513E2,3.1610736E2,4.8440723E2,4.161492E2,4.9192557E2,5.467242E2,6.3133105E2,5.951139E2,3.7567035E2,1.2116669E2,6.454099E2,3.9093555E2,2.4416516E2,2.8250616E2,8.168164E1,0E0,0E0,0E0,0E0,0E0,0E0,0E0,0E0,0E0,0E0,0E0,0E0,0E0,0E0,0E0,0E0],"parents":[2147483647,0,0,1,1,2,2,3,3,4,4,5,5,6,6,7,7,8,8,9,9,10,10,11,11,12,12,13,13,14,14],"right_children":[2,4,6,8,10,12,14,16,18,20,22,24,26,28,30,-1,-1,-1,-1,-1,-1,-1,-1,-1,-1,-1,-1,-1,-1,-1,-1],"split_conditions":[1.8340021E1,7.537538E1,6.678151E1,1.0982133E1,1.0243761E1,1.02E2,3.49E2,5.036854E1,3.41E2,8E1,1.0300217E1,1.98E2,5.0923435E1,1E0,1.9828869E1,-1.010124E-1,-8.038101E-3,1.5145993E-3,-1.1179984E-2,3.8607635E-3,6.604414E-2,-9.033237E-2,6.2025534E-3,9.663034E-3,-1.1422015E-2,8.6958654E-2,1.8932674E-2,-9.82957E-3,-2.939699E-2,-9.274203E-2,-1.4883245E-2],"split_indices":[5,4,4,5,5,3,0,4,0,3,5,0,4,8,5,0,0,0,0,0,0,0,0,0,0,0,0,0,0,0,0],"split_type":[0,0,0,0,0,0,0,0,0,0,0,0,0,0,0,0,0,0,0,0,0,0,0,0,0,0,0,0,0,0,0],"sum_hessian":[5.641E3,4.69E3,9.51E2,3.985E3,7.05E2,5.15E2,4.36E2,4.64E2,3.521E3,2E1,6.85E2,4.55E2,6E1,4.23E2,1.3E1,6E0,4.58E2,3.271E3,2.5E2,4E0,1.6E1,6E0,6.79E2,1.18E2,3.37E2,5E0,5.5E1,3.28E2,9.5E1,1.1E1,2E0],"tree_param":{"num_deleted":"0","num_feature":"21","num_nodes":"31","size_leaf_vector":"1"}},{"base_weights":[-5.7348628E-2,7.2376005E-2,-5.372054E-1,-1.3094218E-1,5.278452E-1,-1.7867555E-1,-1.1229905E0,6.712423E-2,-1.2143524E0,7.181779E-1,-1.1764982E0,-7.1203756E-1,8.324934E-1,-1.6487919E0,8.4403133E-1,-5.564988E-4,1.7121967E-2,-6.9117704E-3,-2.7053112E-2,3.136267E-3,1.4835014E-2,-5.5737633E-2,1.620772E-3,-2.2740038E-3,-2.6235394E-2,2.4334017E-2,3.4068124E-3,-2.1246994E-2,-1.4741613E-3,1.639157E-2,-1.3597359E-2],"categories":[],"categories_nodes":[],"categories_segments":[],"categories_sizes":[],"default_left":[0,0,0,0,0,0,0,0,0,0,0,0,0,0,0,0,0,0,0,0,0,0,0,0,0,0,0,0,0,0,0],"id":4,"left_children":[1,3,5,7,9,11,13,15,17,19,21,23,25,27,29,-1,-1,-1,-1,-1,-1,-1,-1,-1,-1,-1,-1,-1,-1,-1,-1],"loss_changes":[3.4838565E2,4.080875E2,2.499349E2,6.539286E2,4.4201834E2,3.996889E2,4.6887848E2,5.20578E2,3.6552563E2,3.785005E2,8.072951E2,4.4870004E2,2.0073163E2,2.5476886E2,1.704469E2,0E0,0E0,0E0,0E0,0E0,0E0,0E0,0E0,0E0,0E0,0E0,0E0,0E0,0E0,0E0,0E0],"parents":[2147483647,0,0,1,1,2,2,3,3,4,4,5,5,6,6,7,7,8,8,9,9,10,10,11,11,12,12,13,13,14,14],"right_children":[2,4,6,8,10,12,14,16,18,20,22,24,26,28,30,-1,-1,-1,-1,-1,-1,-1,-1,-1,-1,-1,-1,-1,-1,-1,-1],"split_conditions":[9.9E1,7.0875854E1,6.845528E1,6.7798706E1,7.9038734E1,1E0,1.04E2,6.666983E1,1E0,1E0,8.3E1,1E0,1.6E1,1E0,2E1,-5.564988E-4,1.7121967E-2,-6.9117704E-3,-2.7053112E-2,3.136267E-3,1.4835014E-2,-5.5737633E-2,1.620772E-3,-2.2740038E-3,-2.6235394E-2,2.4334017E-2,3.4068124E-3,-2.1246994E-2,-1.4741613E-3,1.639157E-2,-1.3597359E-2],"split_indices":[3,4,4,4,4,12,3,4,7,10,3,16,2,16,2,0,0,0,0,0,0,0,0,0,0,0,0,0,0,0,0],"split_type":[0,0,0,0,0,0,0,0,0,0,0,0,0,0,0,0,0,0,0,0,0,0,0,0,0,0,0,0,0,0,0],"sum_hessian":[5.595E3,4.405E3,1.19E3,3.046E3,1.359E3,7.39E2,4.51E2,2.576E3,4.7E2,1.223E3,1.36E2,4.84E2,2.55E2,3.56E2,9.5E1,2.398E3,1.78E2,3.49E2,1.21E2,8.01E2,4.22E2,3.1E1,1.05E2,3.87E2,9.7E1,5.9E1,1.96E2,2.7E2,8.6E1,7E1,2.5E1],"tree_param":{"num_deleted":"0","num_feature":"21","num_nodes":"31","size_leaf_vector":"1"}},{"base_weights":[1.5132971E-1,1.0214617E0,9.2185E-2,6.332101E-1,2.311068E0,-3.696285E-1,2.1696198E-1,2.0780036E0,3.4149835E-1,4.8195715E0,9.211112E-1,-1.5726492E-1,-1.3404055E0,4.57162E-1,-1.6800974E-1,4.4415973E-2,-4.2635497E-2,-5.928172E-3,1.3661408E-2,6.2117033E-2,-3.1050002E-2,-2.5862337E-3,3.7391447E-2,-5.1979227E-3,9.851617E-3,-6.638926E-3,-4.302776E-2,3.184523E-3,1.03564765E-2,-3.3402615E-3,5.002651E-3],"categories":[],"categories_nodes":[],"categories_segments":[],"categories_sizes":[],"default_left":[0,0,0,0,0,0,0,0,0,0,0,0,0,0,0,0,0,0,0,0,0,0,0,0,0,0,0,0,0,0,0],"id":5,"left_children":[1,3,5,7,9,11,13,15,17,19,21,23,25,27,29,-1,-1,-1,-1,-1,-1,-1,-1,-1,-1,-1,-1,-1,-1,-1,-1],"loss_changes":[2.8784528E2,1.767829E2,3.0202838E2,1.1519277E2,2.8147104E2,2.29655E2,3.816089E2,7.084243E2,2.2099794E2,3.3921667E2,1.8049174E2,3.798834E2,3.979598E2,2.0356403E2,1.7612521E2,0E0,0E0,0E0,0E0,0E0,0E0,0E0,0E0,0E0,0E0,0E0,0E0,0E0,0E0,0E0,0E0],"parents":[2147483647,0,0,1,1,2,2,3,3,4,4,5,5,6,6,7,7,8,8,9,9,10,10,11,11,12,12,13,13,14,14],"right_children":[2,4,6,8,10,12,14,16,18,20,22,24,26,28,30,-1,-1,-1,-1,-1,-1,-1,-1,-1,-1,-1,-1,-1,-1,-1,-1],"split_conditions":[7.7E1,1E0,8.3E1,4.7E1,7.6E1,1E0,9.7E1,1E0,7.1E1,1E0,1E0,1E0,1E0,1E0,1E0,4.4415973E-2,-4.2635497E-2,-5.928172E-3,1.3661408E-2,6.2117033E-2,-3.1050002E-2,-2.5862337E-3,3.7391447E-2,-5.1979227E-3,9.851617E-3,-6.638926E-3,-4.302776E-2,3.184523E-3,1.03564765E-2,-3.3402615E-3,5.002651E-3],"split_indices":[3,16,3,1,3,14,3,6,1,9,6,9,9,15,13,0,0,0,0,0,0,0,0,0,0,0,0,0,0,0,0],"split_type":[0,0,0,0,0,0,0,0,0,0,0,0,0,0,0,0,0,0,0,0,0,0,0,0,0,0,0,0,0,0,0],"sum_hessian":[5.594E3,3.55E2,5.239E3,2.74E2,8.1E1,1.114E3,4.125E3,4.5E1,2.29E2,2.8E1,5.3E1,9.15E2,1.99E2,2.54E3,1.585E3,3.3E1,1.2E1,1.2E2,1.09E2,2.4E1,4E0,3.8E1,1.5E1,6.95E2,2.2E2,1.63E2,3.6E1,2.05E3,4.9E2,1.27E3,3.15E2],"tree_param":{"num_deleted":"0","num_feature":"21","num_nodes":"31","size_leaf_vector":"1"}},{"base_weights":[1.45484675E-2,4.298172E-2,-3.2184353E0,1.5533353E-1,-5.465356E-1,3.8308165E0,-4.6873336E0,-1.7637884E-2,8.5094994E-1,3.221126E0,-6.9047314E-1,6.0655313E0,-4.7896004E-1,-5.543532E0,2.5859985E0,5.3377345E-4,-1.7218858E-2,4.735166E-2,7.474602E-3,5.5837862E-2,-3.841836E-3,-5.765823E-3,-4.3215655E-2,-1.393795E-2,7.8361556E-2,-2.7589034E-2,3.180435E-2,-4.1709308E-2,-1.083026E-1,-3.866994E-2,8.176991E-2],"categories":[],"categories_nodes":[],"categories_segments":[],"categories_sizes":[],"default_left":[0,0,0,0,0,0,0,0,0,0,0,0,0,0,0,0,0,0,0,0,0,0,0,0,0,0,0,0,0,0,0],"id":6,"left_children":[1,3,5,7,9,11,13,15,17,19,21,23,25,27,29,-1,-1,-1,-1,-1,-1,-1,-1,-1,-1,-1,-1,-1,-1,-1,-1],"loss_changes":[5.1666064E2,3.6907083E2,5.253334E2,5.6312085E2,4.8596286E2,8.958525E1,2.6965936E2,4.538242E2,3.711026E2,2.8324316E2,3.5315973E2,9.016797E1,4.214737E1,2.233208E2,2.1201358E2,0E0,0E0,0E0,0E0,0E0,0E0,0E0,0E0,0E0,0E0,0E0,0E0,0E0,0E0,0E0,0E0],"parents":[2147483647,0,0,1,1,2,2,3,3,4,4,5,5,6,6,7,7,8,8,9,9,10,10,11,11,12,12,13,13,14,14],"right_children":[2,4,6,8,10,12,14,16,18,20,22,24,26,28,30,-1,-1,-1,-1,-1,-1,-1,-1,-1,-1,-1,-1,-1,-1,-1,-1],"split_conditions":[3.53E2,1.8340021E1,1.2018624E1,7.391581E1,1.51E2,1E0,1.03E2,7.302706E1,1.0243761E1,7.106548E1,3.48E2,8.8E1,6.563528E1,7.252891E1,1.4269208E1,5.3377345E-4,-1.7218858E-2,4.735166E-2,7.474602E-3,5.5837862E-2,-3.841836E-3,-5.765823E-3,-4.3215655E-2,-1.393795E-2,7.8361556E-2,-2.7589034E-2,3.180435E-2,-4.1709308E-2,-1.083026E-1,-3.866994E-2,8.176991E-2],"split_indices":[0,5,5,4,0,18,3,4,5,4,0,3,4,4,5,0,0,0,0,0,0,0,0,0,0,0,0,0,0,0,0],"split_type":[0,0,0,0,0,0,0,0,0,0,0,0,0,0,0,0,0,0,0,0,0,0,0,0,0,0,0,0,0,0,0],"sum_hessian":[5.618E3,5.57E3,4.8E1,4.679E3,8.91E2,8E0,4E1,3.748E3,9.31E2,3.2E1,8.59E2,5E0,3E0,3.6E1,4E0,3.599E3,1.49E2,2.3E1,9.08E2,1.9E1,1.3E1,8.34E2,2.5E1,1E0,4E0,2E0,1E0,3E1,6E0,2E0,2E0],"tree_param":{"num_deleted":"0","num_feature":"21","num_nodes":"31","size_leaf_vector":"1"}},{"base_weights":[-1.0178196E-1,-1.8471852E-1,4.9153298E-1,3.693497E-2,-4.003093E-1,9.215349E-1,-8.997172E-1,-2.5192522E-3,3.8057032E0,-2.921937E-1,-1.1703393E0,1.6691208E0,3.3051807E-2,-2.643584E0,2.1369364E-2,-7.3460466E-3,1.2056965E-3,-2.720643E-2,7.036962E-2,-4.840175E-3,2.6355418E-3,-9.624323E-3,-5.76622E-2,2.2663103E-2,4.7601685E-3,-1.0424687E-2,1.4025067E-2,-4.345506E-2,-1.9329166E-3,6.740602E-2,-2.3726814E-3],"categories":[],"categories_nodes":[],"categories_segments":[],"categories_sizes":[],"default_left":[0,0,0,0,0,0,0,0,0,0,0,0,0,0,0,0,0,0,0,0,0,0,0,0,0,0,0,0,0,0,0],"id":7,"left_children":[1,3,5,7,9,11,13,15,17,19,21,23,25,27,29,-1,-1,-1,-1,-1,-1,-1,-1,-1,-1,-1,-1,-1,-1,-1,-1],"loss_changes":[2.744226E2,2.337861E2,4.1002548E2,3.5880777E2,2.061236E2,3.4733057E2,2.602694E2,2.1536516E2,5.4635297E2,2.3210153E2,2.8588287E2,2.012738E2,3.5495255E2,2.3269165E2,1.8754883E2,0E0,0E0,0E0,0E0,0E0,0E0,0E0,0E0,0E0,0E0,0E0,0E0,0E0,0E0,0E0,0E0],"parents":[2147483647,0,0,1,1,2,2,3,3,4,4,5,5,6,6,7,7,8,8,9,9,10,10,11,11,12,12,13,13,14,14],"right_children":[2,4,6,8,10,12,14,16,18,20,22,24,26,28,30,-1,-1,-1,-1,-1,-1,-1,-1,-1,-1,-1,-1,-1,-1,-1,-1],"split_conditions":[7.629167E1,6.311966E1,1E0,6.300747E1,1.8700624E1,7.835394E1,7.774458E1,5.185418E1,1.2576415E1,1E0,7.597724E1,1E0,1.5134299E1,1E0,1.0340831E1,-7.3460466E-3,1.2056965E-3,-2.720643E-2,7.036962E-2,-4.840175E-3,2.6355418E-3,-9.624323E-3,-5.76622E-2,2.2663103E-2,4.7601685E-3,-1.0424687E-2,1.4025067E-2,-4.345506E-2,-1.9329166E-3,6.740602E-2,-2.3726814E-3],"split_indices":[4,4,8,4,5,4,4,4,5,9,4,19,5,10,5,0,0,0,0,0,0,0,0,0,0,0,0,0,0,0,0],"split_type":[0,0,0,0,0,0,0,0,0,0,0,0,0,0,0,0,0,0,0,0,0,0,0,0,0,0,0,0,0,0,0],"sum_hessian":[5.574E3,4.891E3,6.83E2,2.412E3,2.479E3,5.22E2,1.61E2,2.388E3,2.4E1,2.175E3,3.04E2,2.83E2,2.39E2,5.5E1,1.06E2,3.43E2,2.045E3,8E0,1.6E1,1.617E3,5.58E2,2.92E2,1.2E1,1.88E2,9.5E1,1.34E2,1.05E2,3.2E1,2.3E1,3E0,1.03E2],"tree_param":{"num_deleted":"0","num_feature":"21","num_nodes":"31","size_leaf_vector":"1"}},{"base_weights":[7.252174E-2,1.8494923E-1,-4.8355725E-1,1.21323E-1,1.165745E0,-7.3069465E-1,6.2707907E-1,2.1698442E-1,-2.0013933E0,4.9206195E0,6.91832E-1,-2.3160338E0,-5.1533526E-1,1.41066E0,-1.2903936E0,-3.6394857E-3,2.9817543E-3,-2.3610847E-2,3.56076E-2,6.071403E-2,-2.5078932E-2,1.1121454E-2,-6.134479E-3,-6.1593805E-2,-1.3115057E-2,2.5205348E-2,-6.2412554E-3,6.2700617E-3,2.9257221E-2,1.1546279E-4,-3.483742E-2],"categories":[],"categories_nodes":[],"categories_segments":[],"categories_sizes":[],"default_left":[0,0,0,0,0,0,0,0,0,0,0,0,0,0,0,0,0,0,0,0,0,0,0,0,0,0,0,0,0,0,0],"id":8,"left_children":[1,3,5,7,9,11,13,15,17,19,21,23,25,27,29,-1,-1,-1,-1,-1,-1,-1,-1,-1,-1,-1,-1,-1,-1,-1,-1],"loss_changes":[3.542571E2,2.9397025E2,2.6203748E2,8.9939014E2,5.073076E2,2.651122E2,2.6325446E2,1.9995312E2,3.9053302E2,2.8878192E2,1.4113068E2,3.5097174E2,2.2880112E2,1.4538878E2,1.4567622E2,0E0,0E0,0E0,0E0,0E0,0E0,0E0,0E0,0E0,0E0,0E0,0E0,0E0,0E0,0E0,0E0],"parents":[2147483647,0,0,1,1,2,2,3,3,4,4,5,5,6,6,7,7,8,8,9,9,10,10,11,11,12,12,13,13,14,14],"right_children":[2,4,6,8,10,12,14,16,18,20,22,24,26,28,30,-1,-1,-1,-1,-1,-1,-1,-1,-1,-1,-1,-1,-1,-1,-1,-1],"split_conditions":[1.8305912E1,8.7E1,1E2,8.5E1,7.8E1,1.8485481E1,1E0,1.5E1,1.7664307E1,1E0,1E0,4.8E1,4.2E1,1E0,7.2E1,-3.6394857E-3,2.9817543E-3,-2.3610847E-2,3.56076E-2,6.071403E-2,-2.5078932E-2,1.1121454E-2,-6.134479E-3,-6.1593805E-2,-1.3115057E-2,2.5205348E-2,-6.2412554E-3,6.2700617E-3,2.9257221E-2,1.1546279E-4,-3.483742E-2],"split_indices":[5,1,3,1,3,5,9,2,5,13,7,1,1,19,1,0,0,0,0,0,0,0,0,0,0,0,0,0,0,0,0],"split_type":[0,0,0,0,0,0,0,0,0,0,0,0,0,0,0,0,0,0,0,0,0,0,0,0,0,0,0,0,0,0,0],"sum_hessian":[5.664E3,4.712E3,9.52E2,4.426E3,2.86E2,7.79E2,1.73E2,4.236E3,1.9E2,3.1E1,2.55E2,9.2E1,6.87E2,1.23E2,5E1,5.19E2,3.717E3,1.79E2,1.1E1,2.7E1,4E0,1.93E2,6.2E1,1.8E1,7.4E1,2.3E1,6.64E2,8.2E1,4.1E1,3.2E1,1.8E1],"tree_param":{"num_deleted":"0","num_feature":"21","num_nodes":"31","size_leaf_vector":"1"}},{"base_weights":[2.1535985E-2,2.2711608E-1,-5.1009107E-1,-4.7268093E-2,5.532825E-1,-3.277744E-1,-1.4974772E0,2.2342578E-1,-8.302103E-1,1.017907E0,-6.0440354E-2,-4.7937888E-1,1.6352808E0,-4.8898683E0,-1.2667135E0,-9.060745E-3,4.5758816E-3,-4.6267617E-3,-2.2608247E-2,5.566332E-3,1.7409032E-2,5.917998E-3,-2.148675E-2,-7.5692213E-3,3.3683826E-3,2.635831E-2,-2.4529882E-2,-3.0502103E-2,-7.140986E-2,-8.171948E-3,-2.5930466E-2],"categories":[],"categories_nodes":[],"categories_segments":[],"categories_sizes":[],"default_left":[0,0,0,0,0,0,0,0,0,0,0,0,0,0,0,0,0,0,0,0,0,0,0,0,0,0,0,0,0,0,0],"id":9,"left_children":[1,3,5,7,9,11,13,15,17,19,21,23,25,27,29,-1,-1,-1,-1,-1,-1,-1,-1,-1,-1,-1,-1,-1,-1,-1,-1],"loss_changes":[6.0668604E2,3.5827426E2,2.7817532E2,4.611499E2,5.21602E2,3.900551E2,1.8247052E2,4.280894E2,2.9287598E2,3.462036E2,1.0759137E3,2.7549567E2,3.9097443E2,4.033777E1,1.3322101E2,0E0,0E0,0E0,0E0,0E0,0E0,0E0,0E0,0E0,0E0,0E0,0E0,0E0,0E0,0E0,0E0],"parents":[2147483647,0,0,1,1,2,2,3,3,4,4,5,5,6,6,7,7,8,8,9,9,10,10,11,11,12,12,13,13,14,14],"right_children":[2,4,6,8,10,12,14,16,18,20,22,24,26,28,30,-1,-1,-1,-1,-1,-1,-1,-1,-1,-1,-1,-1,-1,-1,-1,-1],"split_conditions":[9.7E1,6.7E1,8.2E1,2E1,8E1,7.9E1,8.3E1,1.5E1,1E0,8.8E1,1E0,1E0,2.1E1,1E0,1.03E2,-9.060745E-3,4.5758816E-3,-4.6267617E-3,-2.2608247E-2,5.566332E-3,1.7409032E-2,5.917998E-3,-2.148675E-2,-7.5692213E-3,3.3683826E-3,2.635831E-2,-2.4529882E-2,-3.0502103E-2,-7.140986E-2,-8.171948E-3,-2.5930466E-2],"split_indices":[3,1,1,2,1,1,1,2,14,3,7,9,2,10,3,0,0,0,0,0,0,0,0,0,0,0,0,0,0,0,0],"split_type":[0,0,0,0,0,0,0,0,0,0,0,0,0,0,0,0,0,0,0,0,0,0,0,0,0,0,0,0,0,0,0],"sum_hessian":[5.549E3,4.002E3,1.547E3,2.174E3,1.828E3,1.307E3,2.4E2,1.616E3,5.58E2,1.04E3,7.88E2,1.214E3,9.3E1,1.4E1,2.26E2,2.77E2,1.339E3,4.45E2,1.13E2,6.36E2,4.04E2,6.01E2,1.87E2,9.06E2,3.08E2,7.5E1,1.8E1,9E0,5E0,1.7E2,5.6E1],"tree_param":{"num_deleted":"0","num_feature":"21","num_nodes":"31","size_leaf_vector":"1"}},{"base_weights":[2.7389219E-2,-6.2160856E-1,1.1463504E-1,-2.6542423E-2,-1.8224396E0,-8.108523E-2,5.0517523E-1,-1.1133306E0,7.2278327E-1,2.7162048E-1,-2.4240801E0,1.6544398E0,-1.5069994E-1,1.9927293E0,3.294709E-1,-2.386346E-2,1.7202359E-2,-1.6522983E-2,1.2854298E-2,-2.6128829E-2,4.0615737E-2,-3.163006E-2,-8.501604E-3,7.942415E-3,4.9654316E-2,-3.2543263E-3,3.436779E-3,2.5495438E-2,-8.79259E-3,6.067718E-3,-4.9808784E-3],"categories":[],"categories_nodes":[],"categories_segments":[],"categories_sizes":[],"default_left":[0,0,0,0,0,0,0,0,0,0,0,0,0,0,0,0,0,0,0,0,0,0,0,0,0,0,0,0,0,0,0],"id":10,"left_children":[1,3,5,7,9,11,13,15,17,19,21,23,25,27,29,-1,-1,-1,-1,-1,-1,-1,-1,-1,-1,-1,-1,-1,-1,-1,-1],"loss_changes":[3.1726962E2,4.7442862E2,3.775615E2,3.6319412E2,2.7783026E2,3.9786166E2,4.3034204E2,6.606108E2,3.5491547E2,5.572191E2,1.9618567E2,3.577661E2,2.735171E2,2.8049646E2,3.3901886E2,0E0,0E0,0E0,0E0,0E0,0E0,0E0,0E0,0E0,0E0,0E0,0E0,0E0,0E0,0E0,0E0],"parents":[2147483647,0,0,1,1,2,2,3,3,4,4,5,5,6,6,7,7,8,8,9,9,10,10,11,11,12,12,13,13,14,14],"right_children":[2,4,6,8,10,12,14,16,18,20,22,24,26,28,30,-1,-1,-1,-1,-1,-1,-1,-1,-1,-1,-1,-1,-1,-1,-1,-1],"split_conditions":[1.5E1,2.87E2,2.84E2,2.09E2,5E1,1.51E2,2.92E2,1E0,5E1,4.5E1,9.6E1,1E0,1E0,1E0,1E0,-2.386346E-2,1.7202359E-2,-1.6522983E-2,1.2854298E-2,-2.6128829E-2,4.0615737E-2,-3.163006E-2,-8.501604E-3,7.942415E-3,4.9654316E-2,-3.2543263E-3,3.436779E-3,2.5495438E-2,-8.79259E-3,6.067718E-3,-4.9808784E-3],"split_indices":[2,0,0,0,1,0,0,20,1,1,3,14,7,15,7,0,0,0,0,0,0,0,0,0,0,0,0,0,0,0,0],"split_type":[0,0,0,0,0,0,0,0,0,0,0,0,0,0,0,0,0,0,0,0,0,0,0,0,0,0,0,0,0,0,0],"sum_hessian":[5.601E3,6.63E2,4.938E3,4.44E2,2.19E2,3.29E3,1.648E3,1.81E2,2.63E2,4.9E1,1.7E2,1.26E2,3.164E3,1.73E2,1.475E3,1.25E2,5.6E1,5E1,2.13E2,2.8E1,2.1E1,1.15E2,5.5E1,1.01E2,2.5E1,2.338E3,8.26E2,1.45E2,2.8E1,1.105E3,3.7E2],"tree_param":{"num_deleted":"0","num_feature":"21","num_nodes":"31","size_leaf_vector":"1"}},{"base_weights":[1.1213217E-1,-3.254698E-1,2.8230107E-1,8.9358366E-1,-6.6899097E-1,4.9838376E-1,-6.9364674E-2,3.164438E-1,2.792101E0,-6.1747135E-4,-1.1366674E0,6.552545E-2,8.2028425E-1,-2.744624E-1,5.4876494E-1,-1.8892556E-2,1.619719E-2,3.6915105E-2,-1.0924711E-2,4.284239E-3,-1.2292312E-2,-4.292127E-3,-2.3298899E-2,-2.6832086E-3,1.0768218E-2,1.0978241E-2,1.9272162E-3,-5.752526E-3,3.5171642E-3,1.8459737E-3,1.8759718E-2],"categories":[],"categories_nodes":[],"categories_segments":[],"categories_sizes":[],"default_left":[0,0,0,0,0,0,0,0,0,0,0,0,0,0,0,0,0,0,0,0,0,0,0,0,0,0,0,0,0,0,0],"id":11,"left_children":[1,3,5,7,9,11,13,15,17,19,21,23,25,27,29,-1,-1,-1,-1,-1,-1,-1,-1,-1,-1,-1,-1,-1,-1,-1,-1],"loss_changes":[4.204538E2,6.626742E2,3.0892935E2,3.8042346E2,3.8572614E2,3.5079755E2,1.9640138E2,7.7346185E2,2.8703253E2,2.6883386E2,6.118536E2,3.6322778E2,2.5129535E2,2.1925159E2,1.862174E2,0E0,0E0,0E0,0E0,0E0,0E0,0E0,0E0,0E0,0E0,0E0,0E0,0E0,0E0,0E0,0E0],"parents":[2147483647,0,0,1,1,2,2,3,3,4,4,5,5,6,6,7,7,8,8,9,9,10,10,11,11,12,12,13,13,14,14],"right_children":[2,4,6,8,10,12,14,16,18,20,22,24,26,28,30,-1,-1,-1,-1,-1,-1,-1,-1,-1,-1,-1,-1,-1,-1,-1,-1],"split_conditions":[2.02E2,1.58E2,9.4E1,1E0,8.7E1,8.3E1,1E0,8.6E1,1E0,1E0,1E0,1E0,3.07E2,1E0,1E0,-1.8892556E-2,1.619719E-2,3.6915105E-2,-1.0924711E-2,4.284239E-3,-1.2292312E-2,-4.292127E-3,-2.3298899E-2,-2.6832086E-3,1.0768218E-2,1.0978241E-2,1.9272162E-3,-5.752526E-3,3.5171642E-3,1.8459737E-3,1.8759718E-2],"split_indices":[0,0,3,9,3,3,9,3,17,9,12,9,0,19,13,0,0,0,0,0,0,0,0,0,0,0,0,0,0,0,0],"split_type":[0,0,0,0,0,0,0,0,0,0,0,0,0,0,0,0,0,0,0,0,0,0,0,0,0,0,0,0,0,0,0],"sum_hessian":[5.644E3,1.58E3,4.064E3,3.47E2,1.233E3,2.517E3,1.547E3,2.67E2,8E1,5.08E2,7.25E2,1.074E3,1.443E3,1.162E3,3.85E2,9.9E1,1.68E2,6.5E1,1.5E1,3.77E2,1.31E2,4.56E2,2.69E2,8.08E2,2.66E2,1E3,4.43E2,7.85E2,3.77E2,3.03E2,8.2E1],"tree_param":{"num_deleted":"0","num_feature":"21","num_nodes":"31","size_leaf_vector":"1"}},{"base_weights":[1.4109717E-1,2.1749768E-1,-5.339754E-1,8.3965585E-2,7.747041E-1,-2.2631385E0,5.470388E-1,-8.64406E-1,2.1655571E-1,1.2024784E0,1.2447502E-1,-2.9608371E0,3.8282728E-1,2.0207655E0,-3.816199E-1,-3.5027051E-3,-1.9815726E-2,1.2267282E-4,6.9069765E-3,4.1255634E-2,9.128198E-3,-2.6611868E-2,5.800909E-3,-3.511995E-2,-1.13188345E-2,5.449962E-2,-7.9632765E-3,8.859622E-3,4.1749425E-2,3.7899076E-3,-3.485942E-2],"categories":[],"categories_nodes":[],"categories_segments":[],"categories_sizes":[],"default_left":[0,0,0,0,0,0,0,0,0,0,0,0,0,0,0,0,0,0,0,0,0,0,0,0,0,0,0,0,0,0,0],"id":12,"left_children":[1,3,5,7,9,11,13,15,17,19,21,23,25,27,29,-1,-1,-1,-1,-1,-1,-1,-1,-1,-1,-1,-1,-1,-1,-1,-1],"loss_changes":[2.9115884E2,3.7716803E2,1.0741875E3,5.146088E2,2.724386E2,4.0911865E2,4.852517E2,2.8764218E2,3.4772513E2,4.9663196E2,4.9652853E2,1.7243225E2,2.8516202E2,3.3120685E2,5.1605853E2,0E0,0E0,0E0,0E0,0E0,0E0,0E0,0E0,0E0,0E0,0E0,0E0,0E0,0E0,0E0,0E0],"parents":[2147483647,0,0,1,1,2,2,3,3,4,4,5,5,6,6,7,7,8,8,9,9,10,10,11,11,12,12,13,13,14,14],"right_children":[2,4,6,8,10,12,14,16,18,20,22,24,26,28,30,-1,-1,-1,-1,-1,-1,-1,-1,-1,-1,-1,-1,-1,-1,-1,-1],"split_conditions":[8.5E1,1E0,8.7E1,1.5E1,1.9E1,1E0,8.8E1,1E0,7.1E1,4.4E1,4.6E1,1E0,1.5E1,1E0,1E0,-3.5027051E-3,-1.9815726E-2,1.2267282E-4,6.9069765E-3,4.1255634E-2,9.128198E-3,-2.6611868E-2,5.800909E-3,-3.511995E-2,-1.13188345E-2,5.449962E-2,-7.9632765E-3,8.859622E-3,4.1749425E-2,3.7899076E-3,-3.485942E-2],"split_indices":[1,13,1,2,2,15,1,19,1,1,1,8,2,10,7,0,0,0,0,0,0,0,0,0,0,0,0,0,0,0,0],"split_type":[0,0,0,0,0,0,0,0,0,0,0,0,0,0,0,0,0,0,0,0,0,0,0,0,0,0,0,0,0,0,0],"sum_hessian":[5.642E3,5.069E3,5.73E2,4.09E3,9.79E2,2.2E2,3.53E2,5.01E2,3.589E3,5.9E2,3.89E2,1.74E2,4.6E1,1.36E2,2.17E2,3.44E2,1.57E2,2.509E3,1.08E3,5.2E1,5.38E2,5.4E1,3.35E2,1.33E2,4.1E1,8E0,3.8E1,9E1,4.6E1,1.75E2,4.2E1],"tree_param":{"num_deleted":"0","num_feature":"21","num_nodes":"31","size_leaf_vector":"1"}},{"base_weights":[1.3050772E-1,1.3134674E0,5.0978914E-2,1.6287352E0,-5.4877706E0,-4.4334465E-1,1.8740566E-1,3.3772683E0,3.940492E-1,-6.550876E0,5.2294083E-2,-1.0577613E-1,-1.1371034E0,3.2059944E-1,-8.745219E-1,9.524201E-2,2.9850835E-2,-8.311496E-3,2.1104706E-2,-9.1123566E-2,3.945572E-3,-1.8276159E-2,1.443662E-3,-1.8494535E-2,9.52429E-3,-1.8138596E-3,5.3193998E-3,-4.945635E-2,-6.30861E-3],"categories":[],"categories_nodes":[],"categories_segments":[],"categories_sizes":[],"default_left":[0,0,0,0,0,0,0,0,0,0,0,0,0,0,0,0,0,0,0,0,0,0,0,0,0,0,0,0,0],"id":13,"left_children":[1,3,5,7,9,11,13,15,17,19,-1,21,23,25,27,-1,-1,-1,-1,-1,-1,-1,-1,-1,-1,-1,-1,-1,-1],"loss_changes":[5.316697E2,7.7227747E2,3.5730725E2,7.3485034E2,2.1655313E2,2.6826276E2,5.875482E2,3.114829E2,4.2444864E2,2.7045435E2,0E0,3.3276813E2,5.5994104E2,3.9156808E2,4.5616257E2,0E0,0E0,0E0,0E0,0E0,0E0,0E0,0E0,0E0,0E0,0E0,0E0,0E0,0E0],"parents":[2147483647,0,0,1,1,2,2,3,3,4,4,5,5,6,6,7,7,8,8,9,9,11,11,12,12,13,13,14,14],"right_children":[2,4,6,8,10,12,14,16,18,20,-1,22,24,26,28,-1,-1,-1,-1,-1,-1,-1,-1,-1,-1,-1,-1,-1,-1],"split_conditions":[1.59E2,7.8603165E1,2E2,1.415036E1,1E0,1E0,1.02E2,5.1181465E1,1.7279623E1,1.02E2,5.2294083E-2,1.1224753E1,9.6E1,8.3E1,1.0618313E1,9.524201E-2,2.9850835E-2,-8.311496E-3,2.1104706E-2,-9.1123566E-2,3.945572E-3,-1.8276159E-2,1.443662E-3,-1.8494535E-2,9.52429E-3,-1.8138596E-3,5.3193998E-3,-4.945635E-2,-6.30861E-3],"split_indices":[0,4,0,5,15,19,3,4,5,3,0,5,3,3,5,0,0,0,0,0,0,0,0,0,0,0,0,0,0],"split_type":[0,0,0,0,0,0,0,0,0,0,0,0,0,0,0,0,0,0,0,0,0,0,0,0,0,0,0,0,0],"sum_hessian":[5.651E3,3.55E2,5.296E3,3.4E2,1.5E1,1.145E3,4.151E3,1.4E2,2E2,1.4E1,1E0,7.71E2,3.74E2,3.689E3,4.62E2,7E0,1.33E2,1.17E2,8.3E1,1E1,4E0,9.7E1,6.74E2,2.79E2,9.5E1,1.093E3,2.596E3,2.5E1,4.37E2],"tree_param":{"num_deleted":"0","num_feature":"21","num_nodes":"29","size_leaf_vector":"1"}},{"base_weights":[-7.156207E-2,8.5706875E-2,-8.6017776E-1,2.6743972E-1,-7.303885E-1,-3.8729295E-1,-1.4251821E0,-2.7283609E-2,9.862309E-1,-8.3219486E-1,2.6910126E0,-8.552129E-1,2.0070517E0,4.770343E0,-1.5851955E0,-1.4285754E-3,1.6609121E-2,8.038671E-2,9.153895E-3,3.5768285E-2,-9.06456E-3,6.0928613E-3,6.324161E-2,-1.9611914E-3,-2.9936943E-2,-5.237733E-2,3.5308335E-2,6.842682E-2,9.149994E-3,-1.3155431E-2,-3.841214E-2],"categories":[],"categories_nodes":[],"categories_segments":[],"categories_sizes":[],"default_left":[0,0,0,0,0,0,0,0,0,0,0,0,0,0,0,0,0,0,0,0,0,0,0,0,0,0,0,0,0,0,0],"id":14,"left_children":[1,3,5,7,9,11,13,15,17,19,21,23,25,27,29,-1,-1,-1,-1,-1,-1,-1,-1,-1,-1,-1,-1,-1,-1,-1,-1],"loss_changes":[6.996974E2,6.97852E2,2.500647E2,8.152047E2,3.0074982E2,5.753417E2,4.3087567E2,5.328915E2,5.51699E2,2.759823E2,1.8522734E2,6.0407117E2,9.458091E2,8.162433E1,2.4862488E2,0E0,0E0,0E0,0E0,0E0,0E0,0E0,0E0,0E0,0E0,0E0,0E0,0E0,0E0,0E0,0E0],"parents":[2147483647,0,0,1,1,2,2,3,3,4,4,5,5,6,6,7,7,8,8,9,9,10,10,11,11,12,12,13,13,14,14],"right_children":[2,4,6,8,10,12,14,16,18,20,22,24,26,28,30,-1,-1,-1,-1,-1,-1,-1,-1,-1,-1,-1,-1,-1,-1,-1,-1],"split_conditions":[1.8340021E1,1E2,6.700098E1,7.14043E1,8.9E1,6.4117775E1,7.6E1,8.7E1,1.0125629E1,4.1E1,1E0,6.129655E1,8.1E1,1.9540579E1,1.02E2,-1.4285754E-3,1.6609121E-2,8.038671E-2,9.153895E-3,3.5768285E-2,-9.06456E-3,6.0928613E-3,6.324161E-2,-1.9611914E-3,-2.9936943E-2,-5.237733E-2,3.5308335E-2,6.842682E-2,9.149994E-3,-1.3155431E-2,-3.841214E-2],"split_indices":[5,3,4,4,1,4,3,1,5,1,11,4,3,5,3,0,0,0,0,0,0,0,0,0,0,0,0,0,0,0,0],"split_type":[0,0,0,0,0,0,0,0,0,0,0,0,0,0,0,0,0,0,0,0,0,0,0,0,0,0,0,0,0,0,0],"sum_hessian":[5.64E3,4.703E3,9.37E2,3.847E3,8.56E2,5.11E2,4.26E2,2.729E3,1.118E3,8.32E2,2.4E1,4.28E2,8.3E1,1E1,4.16E2,2.555E3,1.74E2,1E1,1.108E3,1.3E1,8.19E2,1.6E1,8E0,3.28E2,1E2,1.4E1,6.9E1,6E0,4E0,3.73E2,4.3E1],"tree_param":{"num_deleted":"0","num_feature":"21","num_nodes":"31","size_leaf_vector":"1"}},{"base_weights":[-4.02412E-2,1.0143101E-1,-6.811328E-1,2.6048657E-1,-6.1774856E-1,-5.1355557E0,-6.308496E-1,1.7446941E-1,1.1013411E0,-1.1104457E0,3.538178E-1,2.422849E0,-7.0844064E0,2.98145E0,-6.8960184E-1,2.3671074E-3,-1.7361067E-2,3.9513137E-2,5.314813E-3,1.3838328E-3,-1.632511E-2,-1.4968986E-3,3.5113048E-2,5.1076123E-3,3.1235121E-2,-8.0425106E-2,-2.4873607E-2,6.699499E-2,-1.5740355E-2,-3.1824317E-4,-9.6611E-3],"categories":[],"categories_nodes":[],"categories_segments":[],"categories_sizes":[],"default_left":[0,0,0,0,0,0,0,0,0,0,0,0,0,0,0,0,0,0,0,0,0,0,0,0,0,0,0,0,0,0,0],"id":15,"left_children":[1,3,5,7,9,11,13,15,17,19,21,23,25,27,29,-1,-1,-1,-1,-1,-1,-1,-1,-1,-1,-1,-1,-1,-1,-1,-1],"loss_changes":[5.0053955E2,5.1662964E2,2.2029486E2,2.6727655E2,3.9195975E2,1.7919669E2,2.1173999E2,3.9949585E2,5.5496106E2,3.5424585E2,4.393156E2,2.4238186E0,1.9635437E1,2.8154553E2,1.7693936E2,0E0,0E0,0E0,0E0,0E0,0E0,0E0,0E0,0E0,0E0,0E0,0E0,0E0,0E0,0E0,0E0],"parents":[2147483647,0,0,1,1,2,2,3,3,4,4,5,5,6,6,7,7,8,8,9,9,10,10,11,11,12,12,13,13,14,14],"right_children":[2,4,6,8,10,12,14,16,18,20,22,24,26,28,30,-1,-1,-1,-1,-1,-1,-1,-1,-1,-1,-1,-1,-1,-1,-1,-1],"split_conditions":[1E2,1.8188845E1,1.0080168E1,1.7437265E1,2.82E2,4.8E1,1.0300217E1,1.7211088E1,4.7E1,5.4E1,8.5E1,1.87E2,1E0,1.03E2,5.5E1,2.3671074E-3,-1.7361067E-2,3.9513137E-2,5.314813E-3,1.3838328E-3,-1.632511E-2,-1.4968986E-3,3.5113048E-2,5.1076123E-3,3.1235121E-2,-8.0425106E-2,-2.4873607E-2,6.699499E-2,-1.5740355E-2,-3.1824317E-4,-9.6611E-3],"split_indices":[3,5,5,5,0,1,5,5,1,1,1,0,11,3,1,0,0,0,0,0,0,0,0,0,0,0,0,0,0,0,0],"split_type":[0,0,0,0,0,0,0,0,0,0,0,0,0,0,0,0,0,0,0,0,0,0,0,0,0,0,0,0,0,0,0],"sum_hessian":[5.511E3,4.514E3,9.97E2,3.697E3,8.17E2,1E1,9.87E2,3.355E3,3.42E2,5.42E2,2.75E2,2E0,8E0,1.5E1,9.72E2,3.25E3,1.05E2,5.6E1,2.86E2,1.6E2,3.82E2,2.38E2,3.7E1,1E0,1E0,6E0,2E0,8E0,7E0,2.88E2,6.84E2],"tree_param":{"num_deleted":"0","num_feature":"21","num_nodes":"31","size_leaf_vector":"1"}},{"base_weights":[6.5832045E-3,2.0348024E-1,-1.8121266E-1,3.2536966E-1,-2.7978557E-1,-1.0581304E0,-6.1053067E-2,1.5052037E0,2.7016556E-1,-1.307718E-3,-1.1957065E0,-3.5217044E-1,-2.3562868E0,5.744649E-1,-2.2523245E-1,1.0457298E-3,2.4055323E-2,-2.8269924E-2,3.3076173E-3,-2.604337E-3,2.55012E-2,-6.640271E-3,-5.847945E-2,2.1133965E-3,-2.4227768E-2,-3.2825854E-2,9.901821E-3,-8.8891387E-4,1.878814E-2,-6.6587683E-3,-8.267635E-4],"categories":[],"categories_nodes":[],"categories_segments":[],"categories_sizes":[],"default_left":[0,0,0,0,0,0,0,0,0,0,0,0,0,0,0,0,0,0,0,0,0,0,0,0,0,0,0,0,0,0,0],"id":16,"left_children":[1,3,5,7,9,11,13,15,17,19,21,23,25,27,29,-1,-1,-1,-1,-1,-1,-1,-1,-1,-1,-1,-1,-1,-1,-1,-1],"loss_changes":[2.0625455E2,1.604893E2,3.00767E2,1.412547E2,1.400284E2,3.1442776E2,2.6222882E2,1.2206818E2,3.9111316E2,2.7966577E2,3.1272473E2,2.6187695E2,3.7832977E2,4.4663507E2,1.2538961E2,0E0,0E0,0E0,0E0,0E0,0E0,0E0,0E0,0E0,0E0,0E0,0E0,0E0,0E0,0E0,0E0],"parents":[2147483647,0,0,1,1,2,2,3,3,4,4,5,5,6,6,7,7,8,8,9,9,10,10,11,11,12,12,13,13,14,14],"right_children":[2,4,6,8,10,12,14,16,18,20,22,24,26,28,30,-1,-1,-1,-1,-1,-1,-1,-1,-1,-1,-1,-1,-1,-1,-1,-1],"split_conditions":[1.4857156E1,1E0,1.5480952E1,1.0209008E1,1E0,1E0,1.6454422E1,1.0080168E1,1.0300217E1,1.4462946E1,1.430895E1,1E0,1E0,1E0,1.7279623E1,1.0457298E-3,2.4055323E-2,-2.8269924E-2,3.3076173E-3,-2.604337E-3,2.55012E-2,-6.640271E-3,-5.847945E-2,2.1133965E-3,-2.4227768E-2,-3.2825854E-2,9.901821E-3,-8.8891387E-4,1.878814E-2,-6.6587683E-3,-8.267635E-4],"split_indices":[5,14,5,5,7,19,5,5,5,5,5,7,7,20,5,0,0,0,0,0,0,0,0,0,0,0,0,0,0,0,0],"split_type":[0,0,0,0,0,0,0,0,0,0,0,0,0,0,0,0,0,0,0,0,0,0,0,0,0,0,0,0,0,0,0],"sum_hessian":[5.576E3,2.722E3,2.854E3,2.174E3,5.48E2,3.43E2,2.511E3,9.6E1,2.078E3,4.21E2,1.27E2,2.23E2,1.2E2,5.15E2,1.996E3,3.8E1,5.8E1,3.9E1,2.039E3,3.83E2,3.8E1,1.15E2,1.2E1,1.76E2,4.7E1,9.4E1,2.6E1,3.42E2,1.73E2,4.87E2,1.509E3],"tree_param":{"num_deleted":"0","num_feature":"21","num_nodes":"31","size_leaf_vector":"1"}},{"base_weights":[9.981591E-2,1.9292097E-1,-7.2629774E-1,3.5729757E-1,-3.0751097E-1,-2.5489483E0,4.3998E-1,-1.1464275E0,4.7375694E-1,5.794305E-1,-1.1110001E0,-5.982869E0,-1.6121299E0,1.9152892E0,-5.2457875E-1,-1.7905993E-2,1.1111276E-2,1.6758123E-2,3.3409905E-3,5.212399E-2,4.4973097E-3,-9.546815E-3,-4.2116173E-2,-1.0516443E-2,-6.8195425E-2,-2.1380035E-2,6.315819E-3,6.5328844E-2,1.4197369E-2,-1.3040028E-2,2.3622872E-2],"categories":[],"categories_nodes":[],"categories_segments":[],"categories_sizes":[],"default_left":[0,0,0,0,0,0,0,0,0,0,0,0,0,0,0,0,0,0,0,0,0,0,0,0,0,0,0,0,0,0,0],"id":17,"left_children":[1,3,5,7,9,11,13,15,17,19,21,23,25,27,29,-1,-1,-1,-1,-1,-1,-1,-1,-1,-1,-1,-1,-1,-1,-1,-1],"loss_changes":[4.297893E2,4.1313385E2,1.2042773E3,6.6250757E2,8.857523E2,7.0130286E2,4.9337048E2,3.975465E2,5.885188E2,3.5278406E2,3.1199335E2,1.8674207E2,2.0783441E2,3.0421655E2,4.755999E2,0E0,0E0,0E0,0E0,0E0,0E0,0E0,0E0,0E0,0E0,0E0,0E0,0E0,0E0,0E0,0E0],"parents":[2147483647,0,0,1,1,2,2,3,3,4,4,5,5,6,6,7,7,8,8,9,9,10,10,11,11,12,12,13,13,14,14],"right_children":[2,4,6,8,10,12,14,16,18,20,22,24,26,28,30,-1,-1,-1,-1,-1,-1,-1,-1,-1,-1,-1,-1,-1,-1,-1,-1],"split_conditions":[8.5E1,1E0,8.7E1,1.071313E1,8.9E1,1.92E2,1.3964199E1,7.5E1,1.1645514E1,1.0209008E1,1.9626547E1,1.5E2,1.7728981E1,1.5E1,3.16E2,-1.7905993E-2,1.1111276E-2,1.6758123E-2,3.3409905E-3,5.212399E-2,4.4973097E-3,-9.546815E-3,-4.2116173E-2,-1.0516443E-2,-6.8195425E-2,-2.1380035E-2,6.315819E-3,6.5328844E-2,1.4197369E-2,-1.3040028E-2,2.3622872E-2],"split_indices":[1,8,1,5,3,0,5,1,5,5,5,0,5,2,0,0,0,0,0,0,0,0,0,0,0,0,0,0,0,0,0],"split_type":[0,0,0,0,0,0,0,0,0,0,0,0,0,0,0,0,0,0,0,0,0,0,0,0,0,0,0,0,0,0,0],"sum_hessian":[5.585E3,5.02E3,5.65E2,3.779E3,1.241E3,2.2E2,3.45E2,2.71E2,3.508E3,5.9E2,6.51E2,4.6E1,1.74E2,1.36E2,2.09E2,2.11E2,6E1,3.64E2,3.144E3,1.5E1,5.75E2,6.21E2,3E1,7E0,3.9E1,1.41E2,3.3E1,1.2E1,1.24E2,1.65E2,4.4E1],"tree_param":{"num_deleted":"0","num_feature":"21","num_nodes":"31","size_leaf_vector":"1"}},{"base_weights":[-4.0635128E-2,1.36852E-1,-6.972002E-1,4.1529742E-1,-3.6450619E-1,9.928693E-2,-1.1194141E0,1.1514129E-1,1.0667849E0,5.658866E-2,-1.2436723E0,-2.2677141E-1,3.1780562E0,-1.0037806E0,-5.492208E0,2.0049691E-2,-4.7386973E-4,5.1036915E-3,2.2553872E-2,3.0269915E-2,-5.826419E-4,2.8581573E-2,-1.4680692E-2,-1.6408049E-2,4.70004E-3,4.9789943E-2,-5.221863E-3,-1.3238317E-2,1.3464802E-3,3.6884956E-2,-6.169534E-2],"categories":[],"categories_nodes":[],"categories_segments":[],"categories_sizes":[],"default_left":[0,0,0,0,0,0,0,0,0,0,0,0,0,0,0,0,0,0,0,0,0,0,0,0,0,0,0,0,0,0,0],"id":18,"left_children":[1,3,5,7,9,11,13,15,17,19,21,23,25,27,29,-1,-1,-1,-1,-1,-1,-1,-1,-1,-1,-1,-1,-1,-1,-1,-1],"loss_changes":[6.576846E2,6.203981E2,4.0399298E2,5.5855774E2,5.875973E2,4.1932965E2,3.9141577E2,6.011884E2,5.9473157E2,3.6658142E2,4.7730115E2,3.732009E2,2.6915625E2,2.792746E2,1.4712299E2,0E0,0E0,0E0,0E0,0E0,0E0,0E0,0E0,0E0,0E0,0E0,0E0,0E0,0E0,0E0,0E0],"parents":[2147483647,0,0,1,1,2,2,3,3,4,4,5,5,6,6,7,7,8,8,9,9,10,10,11,11,12,12,13,13,14,14],"right_children":[2,4,6,8,10,12,14,16,18,20,22,24,26,28,30,-1,-1,-1,-1,-1,-1,-1,-1,-1,-1,-1,-1,-1,-1,-1,-1],"split_conditions":[9.9E1,1.6454422E1,6.0042316E1,7.070152E1,1E0,5.9269684E1,3.51E2,7.7E1,1E0,1.51E2,5.1493984E1,2.09E2,1E0,1E0,6.16754E1,2.0049691E-2,-4.7386973E-4,5.1036915E-3,2.2553872E-2,3.0269915E-2,-5.826419E-4,2.8581573E-2,-1.4680692E-2,-1.6408049E-2,4.70004E-3,4.9789943E-2,-5.221863E-3,-1.3238317E-2,1.3464802E-3,3.6884956E-2,-6.169534E-2],"split_indices":[3,5,4,4,18,4,0,3,10,0,4,0,19,13,4,0,0,0,0,0,0,0,0,0,0,0,0,0,0,0,0],"split_type":[0,0,0,0,0,0,0,0,0,0,0,0,0,0,0,0,0,0,0,0,0,0,0,0,0,0,0,0,0,0,0],"sum_hessian":[5.642E3,4.442E3,1.2E3,2.856E3,1.586E3,4.16E2,7.84E2,1.956E3,9E2,1.073E3,5.13E2,3.77E2,3.9E1,7.65E2,1.9E1,1.54E2,1.802E3,6.14E2,2.86E2,3.9E1,1.034E3,2.6E1,4.87E2,1.24E2,2.53E2,2.6E1,1.3E1,5.97E2,1.68E2,1E0,1.8E1],"tree_param":{"num_deleted":"0","num_feature":"21","num_nodes":"31","size_leaf_vector":"1"}},{"base_weights":[-1.2206216E-2,6.9678396E-1,-1.0580597E-1,9.361961E-1,-3.3854774E-1,-3.595227E-1,2.584707E-1,-7.95324E-1,1.1762232E0,-2.1406271E0,1.7179313E0,-1.4631404E-1,-1.0966994E0,4.4610143E-1,-1.2006445E0,-4.3347888E-2,5.9519167E-5,2.6890902E-2,8.830231E-3,5.3755186E-2,-2.5838643E-2,-8.867577E-2,2.6662573E-2,-3.7509075E-3,1.0208426E-2,-1.2951266E-2,3.060531E-2,1.3711284E-3,1.3270214E-2,7.4279286E-2,-1.3467569E-2],"categories":[],"categories_nodes":[],"categories_segments":[],"categories_sizes":[],"default_left":[0,0,0,0,0,0,0,0,0,0,0,0,0,0,0,0,0,0,0,0,0,0,0,0,0,0,0,0,0,0,0],"id":19,"left_children":[1,3,5,7,9,11,13,15,17,19,21,23,25,27,29,-1,-1,-1,-1,-1,-1,-1,-1,-1,-1,-1,-1,-1,-1,-1,-1],"loss_changes":[3.704362E2,1.6168094E2,4.5583118E2,2.2079407E2,4.5950787E2,4.567398E2,5.549297E2,1.8437149E2,2.0388684E2,2.3376443E2,6.05877E2,6.027761E2,5.418038E2,4.884067E2,3.0123508E2,0E0,0E0,0E0,0E0,0E0,0E0,0E0,0E0,0E0,0E0,0E0,0E0,0E0,0E0,0E0,0E0],"parents":[2147483647,0,0,1,1,2,2,3,3,4,4,5,5,6,6,7,7,8,8,9,9,10,10,11,11,12,12,13,13,14,14],"right_children":[2,4,6,8,10,12,14,16,18,20,22,24,26,28,30,-1,-1,-1,-1,-1,-1,-1,-1,-1,-1,-1,-1,-1,-1,-1,-1],"split_conditions":[4.6E1,3.13E2,2.66E2,1.5E1,6.9045395E1,8E1,1.02E2,1.68E2,1.6E1,7.7E1,7.7E1,7.4E1,7.844527E1,1E0,5.0252186E1,-4.3347888E-2,5.9519167E-5,2.6890902E-2,8.830231E-3,5.3755186E-2,-2.5838643E-2,-8.867577E-2,2.6662573E-2,-3.7509075E-3,1.0208426E-2,-1.2951266E-2,3.060531E-2,1.3711284E-3,1.3270214E-2,7.4279286E-2,-1.3467569E-2],"split_indices":[1,0,0,2,4,1,3,0,2,3,3,1,4,6,4,0,0,0,0,0,0,0,0,0,0,0,0,0,0,0,0],"split_type":[0,0,0,0,0,0,0,0,0,0,0,0,0,0,0,0,0,0,0,0,0,0,0,0,0,0,0,0,0,0,0],"sum_hessian":[5.58E3,6.5E2,4.93E3,5.28E2,1.22E2,2.906E3,2.024E3,6.4E1,4.64E2,6.5E1,5.7E1,2.255E3,6.51E2,1.794E3,2.3E2,1.1E1,5.3E1,7.4E1,3.9E2,3E0,6.2E1,4E0,5.3E1,1.886E3,3.69E2,6.22E2,2.9E1,1.329E3,4.65E2,3E0,2.27E2],"tree_param":{"num_deleted":"0","num_feature":"21","num_nodes":"31","size_leaf_vector":"1"}},{"base_weights":[1.2888132E-1,8.963188E-1,6.29442E-2,1.2036916E-1,3.3318207E0,1.6163803E0,1.4173225E-2,-5.864354E-2,5.430986E0,-1.872172E0,3.9476135E0,3.1509876E0,4.6874228E-1,-4.0730107E-1,1.4599773E-1,8.379192E-3,-1.2181223E-2,8.585964E-2,-5.8442786E-2,3.397214E-2,-6.1213356E-2,6.4672165E-2,2.3280645E-2,1.48355365E-2,5.4205008E-2,-4.5859627E-2,1.2210888E-2,-3.4448954E-3,-8.625249E-2,-3.4933666E-5,6.8874727E-3],"categories":[],"categories_nodes":[],"categories_segments":[],"categories_sizes":[],"default_left":[0,0,0,0,0,0,0,0,0,0,0,0,0,0,0,0,0,0,0,0,0,0,0,0,0,0,0,0,0,0,0],"id":20,"left_children":[1,3,5,7,9,11,13,15,17,19,21,23,25,27,29,-1,-1,-1,-1,-1,-1,-1,-1,-1,-1,-1,-1,-1,-1,-1,-1],"loss_changes":[2.8331827E2,8.3679224E2,3.9076056E2,3.2069357E2,3.5028076E2,2.750273E2,2.779738E2,3.409521E2,4.4148416E2,2.8948132E2,3.766836E2,2.4550403E2,3.5166287E2,6.123174E2,3.0921255E2,0E0,0E0,0E0,0E0,0E0,0E0,0E0,0E0,0E0,0E0,0E0,0E0,0E0,0E0,0E0,0E0],"parents":[2147483647,0,0,1,1,2,2,3,3,4,4,5,5,6,6,7,7,8,8,9,9,10,10,11,11,12,12,13,13,14,14],"right_children":[2,4,6,8,10,12,14,16,18,20,22,24,26,28,30,-1,-1,-1,-1,-1,-1,-1,-1,-1,-1,-1,-1,-1,-1,-1,-1],"split_conditions":[4.4E1,1E0,7.6E1,1.04E2,5.185418E1,6.481076E1,8.3E1,9.2E1,2E1,4.1E1,5.9828247E1,2.79E2,6.678151E1,3.54E2,7.367882E1,8.379192E-3,-1.2181223E-2,8.585964E-2,-5.8442786E-2,3.397214E-2,-6.1213356E-2,6.4672165E-2,2.3280645E-2,1.48355365E-2,5.4205008E-2,-4.5859627E-2,1.2210888E-2,-3.4448954E-3,-8.625249E-2,-3.4933666E-5,6.8874727E-3],"split_indices":[1,9,3,3,4,4,3,3,2,1,4,0,4,0,4,0,0,0,0,0,0,0,0,0,0,0,0,0,0,0,0],"split_type":[0,0,0,0,0,0,0,0,0,0,0,0,0,0,0,0,0,0,0,0,0,0,0,0,0,0,0,0,0,0,0],"sum_hessian":[5.599E3,4.42E2,5.157E3,3.36E2,1.06E2,1.56E2,5.001E3,3.26E2,1E1,1.1E1,9.5E1,6.6E1,9E1,1.191E3,3.81E3,1.84E2,1.42E2,8E0,2E0,5E0,6E0,3.6E1,5.9E1,3.9E1,2.7E1,1.1E1,7.9E1,1.183E3,8E0,2.988E3,8.22E2],"tree_param":{"num_deleted":"0","num_feature":"21","num_nodes":"31","size_leaf_vector":"1"}},{"base_weights":[-1.3655783E-1,3.1999212E-3,-6.5934044E-1,-2.2221951E-1,3.662843E-1,-9.434217E-1,5.6737775E-1,1.2074158E0,-3.2335976E-1,1.0209765E0,-2.444303E-1,-3.9211842E-1,-1.4516106E0,1.2092999E0,-1.1752683E0,3.1434193E-2,6.27678E-3,-4.31855E-2,-2.9298845E-3,6.304477E-3,2.8255066E-2,-5.693131E-3,6.6206674E-3,2.3906971E-3,-1.7701194E-2,-1.872478E-2,1.881128E-2,5.6727766E-3,4.3984003E-2,-1.939296E-2,6.0241964E-2],"categories":[],"categories_nodes":[],"categories_segments":[],"categories_sizes":[],"default_left":[0,0,0,0,0,0,0,0,0,0,0,0,0,0,0,0,0,0,0,0,0,0,0,0,0,0,0,0,0,0,0],"id":21,"left_children":[1,3,5,7,9,11,13,15,17,19,21,23,25,27,29,-1,-1,-1,-1,-1,-1,-1,-1,-1,-1,-1,-1,-1,-1,-1,-1],"loss_changes":[4.0593967E2,3.5897736E2,4.0896277E2,3.9166086E2,6.719642E2,2.661491E2,2.4864136E2,1.98932E2,3.054801E2,5.6974756E2,2.565966E2,3.9878143E2,6.9782996E2,3.2919556E2,3.417181E2,0E0,0E0,0E0,0E0,0E0,0E0,0E0,0E0,0E0,0E0,0E0,0E0,0E0,0E0,0E0,0E0],"parents":[2147483647,0,0,1,1,2,2,3,3,4,4,5,5,6,6,7,7,8,8,9,9,10,10,11,11,12,12,13,13,14,14],"right_children":[2,4,6,8,10,12,14,16,18,20,22,24,26,28,30,-1,-1,-1,-1,-1,-1,-1,-1,-1,-1,-1,-1,-1,-1,-1,-1],"split_conditions":[9.9E1,7.1E1,1.04E2,4.2E1,8E1,6.4E1,2E1,5.7910027E1,5.0114407E1,7.5034164E1,1E0,1E0,2.1E1,1.9E1,7.799551E1,3.1434193E-2,6.27678E-3,-4.31855E-2,-2.9298845E-3,6.304477E-3,2.8255066E-2,-5.693131E-3,6.6206674E-3,2.3906971E-3,-1.7701194E-2,-1.872478E-2,1.881128E-2,5.6727766E-3,4.3984003E-2,-1.939296E-2,6.0241964E-2],"split_indices":[3,1,3,1,1,1,2,4,4,4,6,11,2,2,4,0,0,0,0,0,0,0,0,0,0,0,0,0,0,0,0],"split_type":[0,0,0,0,0,0,0,0,0,0,0,0,0,0,0,0,0,0,0,0,0,0,0,0,0,0,0,0,0,0,0],"sum_hessian":[5.555E3,4.384E3,1.171E3,2.705E3,1.679E3,9.51E2,2.2E2,1.78E2,2.527E3,8.1E2,8.69E2,4.57E2,4.94E2,1.61E2,5.9E1,4E1,1.38E2,1.8E1,2.509E3,6.67E2,1.43E2,6.4E2,2.29E2,3.14E2,1.43E2,4.39E2,5.5E1,1.35E2,2.6E1,5.4E1,5E0],"tree_param":{"num_deleted":"0","num_feature":"21","num_nodes":"31","size_leaf_vector":"1"}},{"base_weights":[-7.188186E-2,9.747095E-2,-4.4162673E-1,-1.0398983E-1,8.798955E-1,4.4422927E-1,-9.8786515E-1,2.4387409E-1,-6.754551E-1,4.364386E0,7.5984746E-1,-3.4199205E-1,1.0529492E0,-3.990578E0,-8.150737E-1,7.540743E-4,1.2525386E-2,-1.734508E-3,-1.2943882E-2,-1.564312E-2,5.850472E-2,-5.1722992E-2,8.376185E-3,-1.564816E-2,9.426497E-3,1.1656783E-2,-6.149321E-2,-5.174613E-2,-1.7243398E-3,6.376179E-2,-8.704594E-3],"categories":[],"categories_nodes":[],"categories_segments":[],"categories_sizes":[],"default_left":[0,0,0,0,0,0,0,0,0,0,0,0,0,0,0,0,0,0,0,0,0,0,0,0,0,0,0,0,0,0,0],"id":22,"left_children":[1,3,5,7,9,11,13,15,17,19,21,23,25,27,29,-1,-1,-1,-1,-1,-1,-1,-1,-1,-1,-1,-1,-1,-1,-1,-1],"loss_changes":[3.5082532E2,6.058554E2,8.5208264E2,6.078723E2,3.2589093E2,3.2197162E2,5.6176733E2,3.2293555E2,3.5926355E2,2.3822638E2,3.5588068E2,4.63317E2,3.1488025E2,2.6583594E2,4.1618982E2,0E0,0E0,0E0,0E0,0E0,0E0,0E0,0E0,0E0,0E0,0E0,0E0,0E0,0E0,0E0,0E0],"parents":[2147483647,0,0,1,1,2,2,3,3,4,4,5,5,6,6,7,7,8,8,9,9,10,10,11,11,12,12,13,13,14,14],"right_children":[2,4,6,8,10,12,14,16,18,20,22,24,26,28,30,-1,-1,-1,-1,-1,-1,-1,-1,-1,-1,-1,-1,-1,-1,-1,-1],"split_conditions":[1.6875347E1,7.377998E1,6.211668E1,9.4E1,1.0243761E1,8.8E1,6.300747E1,7.070152E1,6.311966E1,8.3E1,1.0300217E1,5.566561E1,1.9954739E1,1E0,6.311966E1,7.540743E-4,1.2525386E-2,-1.734508E-3,-1.2943882E-2,-1.564312E-2,5.850472E-2,-5.1722992E-2,8.376185E-3,-1.564816E-2,9.426497E-3,1.1656783E-2,-6.149321E-2,-5.174613E-2,-1.7243398E-3,6.376179E-2,-8.704594E-3],"split_indices":[5,4,4,3,5,3,4,4,4,3,5,4,5,15,4,0,0,0,0,0,0,0,0,0,0,0,0,0,0,0,0],"split_type":[0,0,0,0,0,0,0,0,0,0,0,0,0,0,0,0,0,0,0,0,0,0,0,0,0,0,0,0,0,0,0],"sum_hessian":[5.601E3,3.842E3,1.759E3,3.056E3,7.86E2,6.71E2,1.088E3,1.9E3,1.156E3,2.5E1,7.61E2,2.93E2,3.78E2,5.8E1,1.03E3,1.629E3,2.71E2,6.39E2,5.17E2,5E0,2E1,9E0,7.52E2,1.5E2,1.43E2,3.73E2,5E0,4.4E1,1.4E1,7E0,1.023E3],"tree_param":{"num_deleted":"0","num_feature":"21","num_nodes":"31","size_leaf_vector":"1"}},{"base_weights":[2.9343646E-2,1.6754258E-1,-4.697891E-1,2.0702471E-1,-1.618813E0,-7.439347E-1,5.4498756E-1,4.938118E-2,8.3919674E-1,-3.128454E0,-3.6346638E-1,-6.163532E-1,-3.5792587E0,-3.6278625E0,9.093594E-1,-2.2935278E-3,6.034159E-3,5.667813E-3,2.919238E-2,-4.3895178E-2,1.4720078E-2,-2.4640162E-2,1.4598857E-2,-8.495935E-3,1.4347784E-2,2.9566221E-2,-5.0118405E-2,6.933178E-2,-4.5025732E-2,-1.7644191E-2,1.3767449E-2],"categories":[],"categories_nodes":[],"categories_segments":[],"categories_sizes":[],"default_left":[0,0,0,0,0,0,0,0,0,0,0,0,0,0,0,0,0,0,0,0,0,0,0,0,0,0,0,0,0,0,0],"id":23,"left_children":[1,3,5,7,9,11,13,15,17,19,21,23,25,27,29,-1,-1,-1,-1,-1,-1,-1,-1,-1,-1,-1,-1,-1,-1,-1,-1],"loss_changes":[3.865025E2,3.098169E2,3.3841428E2,4.2788928E2,1.7889957E2,3.4397412E2,3.9710046E2,5.310629E2,4.8395184E2,2.5592487E2,2.0658939E2,4.3991785E2,3.9870874E2,2.2521216E2,3.01104E2,0E0,0E0,0E0,0E0,0E0,0E0,0E0,0E0,0E0,0E0,0E0,0E0,0E0,0E0,0E0,0E0],"parents":[2147483647,0,0,1,1,2,2,3,3,4,4,5,5,6,6,7,7,8,8,9,9,10,10,11,11,12,12,13,13,14,14],"right_children":[2,4,6,8,10,12,14,16,18,20,22,24,26,28,30,-1,-1,-1,-1,-1,-1,-1,-1,-1,-1,-1,-1,-1,-1,-1,-1],"split_conditions":[9.9E1,7.931146E1,1E0,7.377998E1,7.9634636E1,3.47E2,5.3466553E1,1E0,3.32E2,1E0,2.27E2,3.29E2,5.866072E1,1.5E2,1.71E2,-2.2935278E-3,6.034159E-3,5.667813E-3,2.919238E-2,-4.3895178E-2,1.4720078E-2,-2.4640162E-2,1.4598857E-2,-8.495935E-3,1.4347784E-2,2.9566221E-2,-5.0118405E-2,6.933178E-2,-4.5025732E-2,-1.7644191E-2,1.3767449E-2],"split_indices":[3,4,13,4,4,0,4,20,0,7,0,0,4,0,0,0,0,0,0,0,0,0,0,0,0,0,0,0,0,0,0],"split_type":[0,0,0,0,0,0,0,0,0,0,0,0,0,0,0,0,0,0,0,0,0,0,0,0,0,0,0,0,0,0,0],"sum_hessian":[5.601E3,4.387E3,1.214E3,4.293E3,9.4E1,9.56E2,2.58E2,3.437E3,8.56E2,4.2E1,5.2E1,9.16E2,4E1,2E1,2.38E2,2.287E3,1.15E3,7.58E2,9.8E1,3.3E1,9E0,2.4E1,2.8E1,8.23E2,9.3E1,7E0,3.3E1,1E0,1.9E1,3.5E1,2.03E2],"tree_param":{"num_deleted":"0","num_feature":"21","num_nodes":"31","size_leaf_vector":"1"}},{"base_weights":[-4.8637684E-2,7.6660626E-2,-6.729447E-1,2.1133655E-1,-5.224232E-1,-1.0949497E0,4.468318E-1,-5.044758E-1,3.0620706E-1,-2.818572E0,-3.1222656E-1,-9.5749635E-1,-5.382409E0,-1.3426775E0,2.2747917E0,-4.21291E-2,-4.893135E-4,2.4414689E-3,1.6783599E-2,-3.5713978E-2,6.057743E-2,-1.1384647E-3,-2.5577221E-2,-5.8562825E-3,-1.7624842E-2,-8.1544995E-2,-7.802327E-3,7.0932657E-3,-3.5019524E-2,-5.6760065E-4,4.332878E-2],"categories":[],"categories_nodes":[],"categories_segments":[],"categories_sizes":[],"default_left":[0,0,0,0,0,0,0,0,0,0,0,0,0,0,0,0,0,0,0,0,0,0,0,0,0,0,0,0,0,0,0],"id":24,"left_children":[1,3,5,7,9,11,13,15,17,19,21,23,25,27,29,-1,-1,-1,-1,-1,-1,-1,-1,-1,-1,-1,-1,-1,-1,-1,-1],"loss_changes":[4.399086E2,3.780257E2,4.446875E2,2.599082E2,4.141927E2,3.9735596E2,8.4701135E2,7.5662555E2,2.8724728E2,5.027616E2,3.51178E2,1.974364E2,2.6154828E2,5.8292426E2,6.144585E2,0E0,0E0,0E0,0E0,0E0,0E0,0E0,0E0,0E0,0E0,0E0,0E0,0E0,0E0,0E0,0E0],"parents":[2147483647,0,0,1,1,2,2,3,3,4,4,5,5,6,6,7,7,8,8,9,9,10,10,11,11,12,12,13,13,14,14],"right_children":[2,4,6,8,10,12,14,16,18,20,22,24,26,28,30,-1,-1,-1,-1,-1,-1,-1,-1,-1,-1,-1,-1,-1,-1,-1,-1],"split_conditions":[1.8305912E1,1E2,1E0,1.5E1,1.0742152E1,3.49E2,2.43E2,1.0650615E1,1.796704E1,3.4E2,3.41E2,1E0,1E0,2.01E2,1.9098679E1,-4.21291E-2,-4.893135E-4,2.4414689E-3,1.6783599E-2,-3.5713978E-2,6.057743E-2,-1.1384647E-3,-2.5577221E-2,-5.8562825E-3,-1.7624842E-2,-8.1544995E-2,-7.802327E-3,7.0932657E-3,-3.5019524E-2,-5.6760065E-4,4.332878E-2],"split_indices":[5,3,6,2,5,0,0,5,5,0,0,18,9,0,5,0,0,0,0,0,0,0,0,0,0,0,0,0,0,0,0],"split_type":[0,0,0,0,0,0,0,0,0,0,0,0,0,0,0,0,0,0,0,0,0,0,0,0,0,0,0,0,0,0,0],"sum_hessian":[5.622E3,4.683E3,9.39E2,3.824E3,8.59E2,6.82E2,2.57E2,4.47E2,3.377E3,7.1E1,7.88E2,6.62E2,2E1,1.3E2,1.27E2,4.8E1,3.99E2,3.232E3,1.45E2,6.6E1,5E0,7.25E2,6.3E1,4.54E2,2.08E2,1.2E1,8E0,6.7E1,6.3E1,6E1,6.7E1],"tree_param":{"num_deleted":"0","num_feature":"21","num_nodes":"31","size_leaf_vector":"1"}},{"base_weights":[3.6693169E-3,-1.2314171E-1,5.308831E-1,-9.8130316E-1,-6.2138613E-2,4.0433708E-1,5.819517E0,4.029368E-2,-2.8677154E0,1.202616E0,-1.3397297E-1,8.942885E-1,-6.155452E-1,6.598309E0,-6.435745E-2,6.88781E-2,-1.7845839E-3,-1.2758294E-2,-6.25402E-2,-1.6707506E-2,1.8173838E-2,3.2877545E-3,-3.604035E-3,1.3816542E-2,-6.833696E-3,-4.4857315E-3,-8.518417E-2,7.4606106E-2,-1.9246724E-2],"categories":[],"categories_nodes":[],"categories_segments":[],"categories_sizes":[],"default_left":[0,0,0,0,0,0,0,0,0,0,0,0,0,0,0,0,0,0,0,0,0,0,0,0,0,0,0,0,0],"id":25,"left_children":[1,3,5,7,9,11,13,15,17,19,21,23,25,27,-1,-1,-1,-1,-1,-1,-1,-1,-1,-1,-1,-1,-1,-1,-1],"loss_changes":[3.699825E2,2.3347461E2,7.1575793E2,5.705528E2,3.7865402E2,5.2472815E2,2.810725E2,2.9032547E2,5.526447E2,3.9872195E2,4.1326755E2,5.460919E2,4.4614853E2,1.9074438E2,0E0,0E0,0E0,0E0,0E0,0E0,0E0,0E0,0E0,0E0,0E0,0E0,0E0,0E0,0E0],"parents":[2147483647,0,0,1,1,2,2,3,3,4,4,5,5,6,6,7,7,8,8,9,9,10,10,11,11,12,12,13,13],"right_children":[2,4,6,8,10,12,14,16,18,20,22,24,26,28,-1,-1,-1,-1,-1,-1,-1,-1,-1,-1,-1,-1,-1,-1,-1],"split_conditions":[7.391581E1,5.158617E1,8.9E1,5.1048355E1,5.2805927E1,1.6875347E1,1.9733307E1,7.6E1,2E1,4.8E1,5.6E1,7.8603165E1,7.988333E1,2.1E1,-6.435745E-2,6.88781E-2,-1.7845839E-3,-1.2758294E-2,-6.25402E-2,-1.6707506E-2,1.8173838E-2,3.2877545E-3,-3.604035E-3,1.3816542E-2,-6.833696E-3,-4.4857315E-3,-8.518417E-2,7.4606106E-2,-1.9246724E-2],"split_indices":[4,4,1,4,4,5,5,3,2,1,1,4,4,2,0,0,0,0,0,0,0,0,0,0,0,0,0,0,0],"split_type":[0,0,0,0,0,0,0,0,0,0,0,0,0,0,0,0,0,0,0,0,0,0,0,0,0,0,0,0,0],"sum_hessian":[5.532E3,4.46E3,1.072E3,2.95E2,4.165E3,1.048E3,2.4E1,1.92E2,1.03E2,2.23E2,3.942E3,7.08E2,3.4E2,2.3E1,1E0,5E0,1.87E2,7.1E1,3.2E1,3.9E1,1.84E2,1.295E3,2.647E3,5.41E2,1.67E2,3.34E2,6E0,2.1E1,2E0],"tree_param":{"num_deleted":"0","num_feature":"21","num_nodes":"29","size_leaf_vector":"1"}},{"base_weights":[-4.153189E-2,1.9570221E0,-9.662867E-2,3.6586106E0,2.293399E-1,1.087421E-1,-5.109857E-1,2.8113215E0,9.559695E-2,-1.5682068E0,1.9288242E0,-9.0496235E-2,9.3388194E-1,-4.59494E0,-4.2221642E-1,6.405516E-2,1.3602803E-2,-2.8172616E-2,3.3117753E-2,3.047153E-2,-2.1375112E-2,-1.39961E-2,5.8722275E-4,6.6574607E-3,4.1441493E-2,-8.260393E-2,-2.1125764E-2,2.9216051E-2,-5.1801065E-3],"categories":[],"categories_nodes":[],"categories_segments":[],"categories_sizes":[],"default_left":[0,0,0,0,0,0,0,0,0,0,0,0,0,0,0,0,0,0,0,0,0,0,0,0,0,0,0,0,0],"id":26,"left_children":[1,3,5,7,9,11,13,15,-1,17,19,21,23,25,27,-1,-1,-1,-1,-1,-1,-1,-1,-1,-1,-1,-1,-1,-1],"loss_changes":[6.1154144E2,4.3719177E2,4.5991876E2,3.4811896E2,2.3214247E2,5.942243E2,6.4735046E2,3.4071344E2,0E0,2.3485866E2,1.8386588E2,5.6892395E2,6.023748E2,3.283108E2,5.633529E2,0E0,0E0,0E0,0E0,0E0,0E0,0E0,0E0,0E0,0E0,0E0,0E0,0E0,0E0],"parents":[2147483647,0,0,1,1,2,2,3,3,4,4,5,5,6,6,7,7,9,9,10,10,11,11,12,12,13,13,14,14],"right_children":[2,4,6,8,10,12,14,16,-1,18,20,22,24,26,28,-1,-1,-1,-1,-1,-1,-1,-1,-1,-1,-1,-1,-1,-1],"split_conditions":[1.51E2,6.539592E1,1.677823E1,1E0,7.160944E1,1E0,1.55E2,1.2766384E1,9.559695E-2,1E0,8.1E1,1.071313E1,7.799551E1,1.7E1,5.0826237E1,6.405516E-2,1.3602803E-2,-2.8172616E-2,3.3117753E-2,3.047153E-2,-2.1375112E-2,-1.39961E-2,5.8722275E-4,6.6574607E-3,4.1441493E-2,-8.260393E-2,-2.1125764E-2,2.9216051E-2,-5.1801065E-3],"split_indices":[0,4,5,16,4,13,0,5,0,14,1,5,4,2,4,0,0,0,0,0,0,0,0,0,0,0,0,0,0],"split_type":[0,0,0,0,0,0,0,0,0,0,0,0,0,0,0,0,0,0,0,0,0,0,0,0,0,0,0,0,0],"sum_hessian":[5.551E3,1.48E2,5.403E3,7.4E1,7.4E1,3.613E3,1.79E3,6.6E1,8E0,3.6E1,3.8E1,2.911E3,7.02E2,3.7E1,1.753E3,1.8E1,4.8E1,2.9E1,7E0,3E1,8E0,2.97E2,2.614E3,6.49E2,5.3E1,1.4E1,2.3E1,4.8E1,1.705E3],"tree_param":{"num_deleted":"0","num_feature":"21","num_nodes":"29","size_leaf_vector":"1"}},{"base_weights":[5.9152216E-2,7.6052606E-2,-4.209348E0,-7.0701647E-1,1.6280144E-1,7.306614E-2,-5.1056614E0,-7.228392E-2,-2.4802945E0,1.5071759E0,5.566911E-2,-7.6400037E0,-2.107168E0,-8.461749E-2,9.4850414E-4,-6.963538E-2,-1.9897252E-2,3.788285E-3,2.8549079E-2,-1.9270798E-2,1.0342861E-3,-8.38951E-2,-7.2467804E-4,6.0016654E-2,-4.575983E-2],"categories":[],"categories_nodes":[],"categories_segments":[],"categories_sizes":[],"default_left":[0,0,0,0,0,0,0,0,0,0,0,0,0,0,0,0,0,0,0,0,0,0,0,0,0],"id":27,"left_children":[1,3,5,7,9,-1,11,13,15,17,19,21,23,-1,-1,-1,-1,-1,-1,-1,-1,-1,-1,-1,-1],"loss_changes":[4.0242468E2,3.7733228E2,2.6438705E2,6.233794E2,7.2004596E2,0E0,1.4348456E2,5.742892E2,3.072483E2,5.600606E2,4.38827E2,6.1783142E1,2.476748E2,0E0,0E0,0E0,0E0,0E0,0E0,0E0,0E0,0E0,0E0,0E0,0E0],"parents":[2147483647,0,0,1,1,2,2,3,3,4,4,6,6,7,7,8,8,9,9,10,10,11,11,12,12],"right_children":[2,4,6,8,10,-1,12,14,16,18,20,22,24,-1,-1,-1,-1,-1,-1,-1,-1,-1,-1,-1,-1],"split_conditions":[1.9954739E1,1.1019672E1,7.9E1,9.7E1,1.169047E1,7.306614E-2,7.003042E1,5.07249E1,5.3466553E1,9.2E1,1.1874502E1,1.02E2,7.095876E1,-8.461749E-2,9.4850414E-4,-6.963538E-2,-1.9897252E-2,3.788285E-3,2.8549079E-2,-1.9270798E-2,1.0342861E-3,-8.38951E-2,-7.2467804E-4,6.0016654E-2,-4.575983E-2],"split_indices":[5,5,3,3,5,0,4,4,4,3,5,3,4,0,0,0,0,0,0,0,0,0,0,0,0],"split_type":[0,0,0,0,0,0,0,0,0,0,0,0,0,0,0,0,0,0,0,0,0,0,0,0,0],"sum_hessian":[5.573E3,5.552E3,2.1E1,5.53E2,4.999E3,1E0,2E1,4.08E2,1.45E2,3.68E2,4.631E3,1E1,1E1,7E0,4.01E2,1.3E1,1.32E2,2.01E2,1.67E2,1.08E2,4.523E3,9E0,1E0,2E0,8E0],"tree_param":{"num_deleted":"0","num_feature":"21","num_nodes":"25","size_leaf_vector":"1"}},{"base_weights":[-5.591527E-2,-2.8815664E-2,-2.4307597E0,-3.9681238E-1,1.2819864E-1,2.2986295E0,-4.8501835E0,1.1549057E0,-5.468814E-1,-2.7010192E-3,8.6075073E-1,3.9680355E0,-1.1188354E0,-6.439496E0,-1.2115942E0,1.53378565E-2,-5.5724982E-2,2.0305976E-2,-6.5330532E-3,1.2211384E-3,-6.4187823E-3,2.1324243E-2,3.9552213E-3,1.9199524E-2,7.680211E-2,3.157154E-2,-4.31586E-2,-7.3467046E-2,3.8718767E-2,-8.3740726E-2,1.5030884E-2],"categories":[],"categories_nodes":[],"categories_segments":[],"categories_sizes":[],"default_left":[0,0,0,0,0,0,0,0,0,0,0,0,0,0,0,0,0,0,0,0,0,0,0,0,0,0,0,0,0,0,0],"id":28,"left_children":[1,3,5,7,9,11,13,15,17,19,21,23,25,27,29,-1,-1,-1,-1,-1,-1,-1,-1,-1,-1,-1,-1,-1,-1,-1,-1],"loss_changes":[3.5936572E2,3.1917395E2,7.320199E2,3.8532428E2,3.712916E2,1.2995259E2,2.350777E2,3.8068335E2,4.147049E2,2.6223157E2,3.4643695E2,9.929701E1,1.2298938E2,2.997279E2,2.8480096E2,0E0,0E0,0E0,0E0,0E0,0E0,0E0,0E0,0E0,0E0,0E0,0E0,0E0,0E0,0E0,0E0],"parents":[2147483647,0,0,1,1,2,2,3,3,4,4,5,5,6,6,7,7,8,8,9,9,10,10,11,11,12,12,13,13,14,14],"right_children":[2,4,6,8,10,12,14,16,18,20,22,24,26,28,30,-1,-1,-1,-1,-1,-1,-1,-1,-1,-1,-1,-1,-1,-1,-1,-1],"split_conditions":[3.53E2,2.04E2,1.3209247E1,1.51E2,7.549822E1,1E0,1E0,7.8603165E1,4.2E1,1.8340021E1,1.2620639E1,6.732538E1,6.3616684E1,7.6606186E1,5.5909863E1,1.53378565E-2,-5.5724982E-2,2.0305976E-2,-6.5330532E-3,1.2211384E-3,-6.4187823E-3,2.1324243E-2,3.9552213E-3,1.9199524E-2,7.680211E-2,3.157154E-2,-4.31586E-2,-7.3467046E-2,3.8718767E-2,-8.3740726E-2,1.5030884E-2],"split_indices":[0,0,5,0,4,20,12,4,1,5,5,4,4,4,4,0,0,0,0,0,0,0,0,0,0,0,0,0,0,0,0],"split_type":[0,0,0,0,0,0,0,0,0,0,0,0,0,0,0,0,0,0,0,0,0,0,0,0,0,0,0,0,0,0,0],"sum_hessian":[5.584E3,5.522E3,6.2E1,1.651E3,3.871E3,2.1E1,4.1E1,1.45E2,1.506E3,3.285E3,5.86E2,1.4E1,7E0,2.8E1,1.3E1,1.38E2,7E0,5.9E1,1.447E3,2.749E3,5.36E2,1.56E2,4.3E2,1E1,4E0,3E0,4E0,2.6E1,2E0,3E0,1E1],"tree_param":{"num_deleted":"0","num_feature":"21","num_nodes":"31","size_leaf_vector":"1"}},{"base_weights":[4.8579756E-2,-5.016336E-2,6.460761E-1,1.3405663E0,-8.5766725E-2,-8.306376E-1,1.0437095E0,-2.2753437E0,2.221404E0,-3.4640834E-1,1.3686422E-1,1.0055795E0,-2.0170057E0,1.5520309E0,-1.0266888E0,-4.5541648E-2,2.0287104E-2,5.4446314E-2,1.0871289E-2,-6.3501124E-4,-1.5039096E-2,4.2561349E-4,1.513889E-2,3.984888E-2,-1.5177758E-2,-4.6116943E-3,-3.722189E-2,9.793252E-3,2.9457066E-2,-6.4346576E-3,-8.456164E-2],"categories":[],"categories_nodes":[],"categories_segments":[],"categories_sizes":[],"default_left":[0,0,0,0,0,0,0,0,0,0,0,0,0,0,0,0,0,0,0,0,0,0,0,0,0,0,0,0,0,0,0],"id":29,"left_children":[1,3,5,7,9,11,13,15,17,19,21,23,25,27,29,-1,-1,-1,-1,-1,-1,-1,-1,-1,-1,-1,-1,-1,-1,-1,-1],"loss_changes":[3.3030682E2,2.3803291E2,4.6709644E2,3.872581E2,2.7196136E2,3.701828E2,6.6041327E2,2.4463513E2,3.4871555E2,7.069024E2,3.2821503E2,5.097444E2,2.7154105E2,3.9859277E2,3.4760486E2,0E0,0E0,0E0,0E0,0E0,0E0,0E0,0E0,0E0,0E0,0E0,0E0,0E0,0E0,0E0,0E0],"parents":[2147483647,0,0,1,1,2,2,3,3,4,4,5,5,6,6,7,7,8,8,9,9,10,10,11,11,12,12,13,13,14,14],"right_children":[2,4,6,8,10,12,14,16,18,20,22,24,26,28,30,-1,-1,-1,-1,-1,-1,-1,-1,-1,-1,-1,-1,-1,-1,-1,-1],"split_conditions":[7.57554E1,1.51E2,1.87E2,1.46E2,2.43E2,7.7454445E1,1.8188845E1,6.914723E1,1.47E2,8E1,8.7E1,1.64E2,6.5E1,7.4E1,8.8E1,-4.5541648E-2,2.0287104E-2,5.4446314E-2,1.0871289E-2,-6.3501124E-4,-1.5039096E-2,4.2561349E-4,1.513889E-2,3.984888E-2,-1.5177758E-2,-4.6116943E-3,-3.722189E-2,9.793252E-3,2.9457066E-2,-6.4346576E-3,-8.456164E-2],"split_indices":[4,0,0,0,0,4,5,4,0,1,1,0,1,1,1,0,0,0,0,0,0,0,0,0,0,0,0,0,0,0,0],"split_type":[0,0,0,0,0,0,0,0,0,0,0,0,0,0,0,0,0,0,0,0,0,0,0,0,0,0,0,0,0,0,0],"sum_hessian":[5.597E3,4.804E3,7.93E2,1.19E2,4.685E3,1.68E2,6.25E2,2.3E1,9.6E1,2.158E3,2.527E3,6.6E1,1.02E2,5.02E2,1.23E2,1.5E1,8E0,2.4E1,7.2E1,1.735E3,4.23E2,2.366E3,1.61E2,3E1,3.6E1,5.4E1,4.8E1,3.57E2,1.45E2,1.18E2,5E0],"tree_param":{"num_deleted":"0","num_feature":"21","num_nodes":"31","size_leaf_vector":"1"}},{"base_weights":[2.3726807E-3,2.4683549E-1,-2.3276564E-1,-5.789146E-1,4.4519046E-1,-2.1241869E-1,-6.5302854E0,-1.0224043E-1,-4.4720313E-1,5.256352E-1,-9.497715E-1,-3.13685E-1,7.3652077E-1,4.1806412E-1,-1.0074137E-1,1.2377599E-4,-2.2945702E-2,3.6695015E-3,2.1207506E-2,-2.8810002E-2,4.432457E-3,2.6181204E-2,-3.451978E-3,1.3680601E-2,-2.0696137E-2,-5.5040244E-2,4.2267684E-2],"categories":[],"categories_nodes":[],"categories_segments":[],"categories_sizes":[],"default_left":[0,0,0,0,0,0,0,0,0,0,0,0,0,0,0,0,0,0,0,0,0,0,0,0,0,0,0],"id":30,"left_children":[1,3,5,7,9,11,13,-1,15,17,19,21,23,25,-1,-1,-1,-1,-1,-1,-1,-1,-1,-1,-1,-1,-1],"loss_changes":[3.1632657E2,4.4216757E2,3.5803253E2,6.598332E2,2.4468417E2,2.6901044E2,2.258269E2,0E0,4.389688E2,5.2014484E2,3.2141495E2,2.3446428E2,4.8132117E2,1.13486176E2,0E0,0E0,0E0,0E0,0E0,0E0,0E0,0E0,0E0,0E0,0E0,0E0,0E0],"parents":[2147483647,0,0,1,1,2,2,3,3,4,4,5,5,6,6,8,8,9,9,10,10,11,11,12,12,13,13],"right_children":[2,4,6,8,10,12,14,-1,16,18,20,22,24,26,-1,-1,-1,-1,-1,-1,-1,-1,-1,-1,-1,-1,-1],"split_conditions":[1.4906378E1,1.0982133E1,7.988333E1,5.036854E1,7.8603165E1,7.675402E1,1.7173666E1,-1.0224043E-1,1E0,7.5851204E1,8.8E1,5.036854E1,1E0,7.6E1,-1.0074137E-1,1.2377599E-4,-2.2945702E-2,3.6695015E-3,2.1207506E-2,-2.8810002E-2,4.432457E-3,2.6181204E-2,-3.451978E-3,1.3680601E-2,-2.0696137E-2,-5.5040244E-2,4.2267684E-2],"split_indices":[5,5,4,4,4,4,5,0,14,4,3,4,13,3,0,0,0,0,0,0,0,0,0,0,0,0,0],"split_type":[0,0,0,0,0,0,0,0,0,0,0,0,0,0,0,0,0,0,0,0,0,0,0,0,0,0,0],"sum_hessian":[5.501E3,2.697E3,2.804E3,5.22E2,2.175E3,2.796E3,8E0,6E0,5.16E2,2.057E3,1.18E2,2.527E3,2.69E2,3E0,5E0,4.14E2,1.02E2,1.872E3,1.85E2,4.9E1,6.9E1,2.6E1,2.501E3,2.2E2,4.9E1,1E0,2E0],"tree_param":{"num_deleted":"0","num_feature":"21","num_nodes":"27","size_leaf_vector":"1"}},{"base_weights":[2.6339175E-2,1.4420064E-1,-5.6938136E-1,8.399317E-2,1.4949672E0,1.3306547E0,-8.2809556E-1,-6.2920906E-2,5.1687425E-1,7.193994E-1,3.7315288E0,-1.1118001E0,2.4235804E0,1.3029107E0,-9.754217E-1,2.5879466E-3,-5.714466E-3,-7.654835E-3,7.5058583E-3,2.3871135E-2,-1.1463587E-2,6.0893092E-2,3.4675875E-3,5.5643156E-2,-2.4099631E-2,1.3968506E-2,6.944089E-2,-2.3861852E-2,5.5301454E-2,-8.725028E-3,-3.8513027E-2],"categories":[],"categories_nodes":[],"categories_segments":[],"categories_sizes":[],"default_left":[0,0,0,0,0,0,0,0,0,0,0,0,0,0,0,0,0,0,0,0,0,0,0,0,0,0,0,0,0,0,0],"id":31,"left_children":[1,3,5,7,9,11,13,15,17,19,21,23,25,27,29,-1,-1,-1,-1,-1,-1,-1,-1,-1,-1,-1,-1,-1,-1,-1,-1],"loss_changes":[3.9235925E2,3.7926132E2,4.548176E2,2.8411728E2,3.4250198E2,2.990003E2,2.565147E2,5.459196E2,3.398371E2,4.6635767E2,4.0489624E2,3.1674384E2,3.4768344E2,8.3971375E2,2.218825E2,0E0,0E0,0E0,0E0,0E0,0E0,0E0,0E0,0E0,0E0,0E0,0E0,0E0,0E0,0E0,0E0],"parents":[2147483647,0,0,1,1,2,2,3,3,4,4,5,5,6,6,7,7,8,8,9,9,10,10,11,11,12,12,13,13,14,14],"right_children":[2,4,6,8,10,12,14,16,18,20,22,24,26,28,30,-1,-1,-1,-1,-1,-1,-1,-1,-1,-1,-1,-1,-1,-1,-1,-1],"split_conditions":[1.8340021E1,1.7996191E1,5.398731E1,1E0,1E0,5.6E1,4.4E1,1.4906378E1,1.1244369E1,6.446311E1,1.8188845E1,4.2E1,1E0,1E0,7.9038734E1,2.5879466E-3,-5.714466E-3,-7.654835E-3,7.5058583E-3,2.3871135E-2,-1.1463587E-2,6.0893092E-2,3.4675875E-3,5.5643156E-2,-2.4099631E-2,1.3968506E-2,6.944089E-2,-2.3861852E-2,5.5301454E-2,-8.725028E-3,-3.8513027E-2],"split_indices":[5,5,4,9,8,1,1,5,5,4,5,1,15,20,4,0,0,0,0,0,0,0,0,0,0,0,0,0,0,0,0],"split_type":[0,0,0,0,0,0,0,0,0,0,0,0,0,0,0,0,0,0,0,0,0,0,0,0,0,0,0,0,0,0,0],"sum_hessian":[5.586E3,4.664E3,9.22E2,4.466E3,1.98E2,1.1E2,8.12E2,3.335E3,1.131E3,1.48E2,5E1,3.4E1,7.6E1,5.2E1,7.6E2,2.043E3,1.292E3,1.74E2,9.57E2,7.8E1,7E1,2.9E1,2.1E1,5E0,2.9E1,6.3E1,1.3E1,2.8E1,2.4E1,7.35E2,2.5E1],"tree_param":{"num_deleted":"0","num_feature":"21","num_nodes":"31","size_leaf_vector":"1"}},{"base_weights":[-3.7027523E-2,-1.8850315E-1,5.376747E-1,-2.6540384E-1,8.9057857E-1,8.789148E-1,-1.1836883E0,-1.5492713E-1,-1.4785913E0,2.7907372E0,3.2829255E-1,9.455401E-1,-4.108716E0,-4.76584E0,-7.8800493E-1,-1.236779E-3,-2.8054602E-2,-1.28186E-2,-5.1873725E-2,3.660733E-2,-2.5343124E-2,1.5988611E-3,6.5326825E-2,8.616761E-3,4.482026E-2,-8.580039E-2,2.537834E-2,4.408053E-2,-6.104419E-2,-2.203956E-2,4.5556948E-3],"categories":[],"categories_nodes":[],"categories_segments":[],"categories_sizes":[],"default_left":[0,0,0,0,0,0,0,0,0,0,0,0,0,0,0,0,0,0,0,0,0,0,0,0,0,0,0,0,0,0,0],"id":32,"left_children":[1,3,5,7,9,11,13,15,17,19,21,23,25,27,29,-1,-1,-1,-1,-1,-1,-1,-1,-1,-1,-1,-1,-1,-1,-1,-1],"loss_changes":[4.8577213E2,3.6668542E2,6.847717E2,5.523723E2,3.1320303E2,3.2688293E2,2.6980228E2,3.1273953E2,2.4434436E2,3.196731E2,2.3718346E2,2.8085822E2,4.081201E2,2.6022815E2,3.0915115E2,0E0,0E0,0E0,0E0,0E0,0E0,0E0,0E0,0E0,0E0,0E0,0E0,0E0,0E0,0E0,0E0],"parents":[2147483647,0,0,1,1,2,2,3,3,4,4,5,5,6,6,7,7,8,8,9,9,10,10,11,11,12,12,13,13,14,14],"right_children":[2,4,6,8,10,12,14,16,18,20,22,24,26,28,30,-1,-1,-1,-1,-1,-1,-1,-1,-1,-1,-1,-1,-1,-1,-1,-1],"split_conditions":[7.391581E1,8.7E1,7.893677E1,8.3E1,5.498887E1,3.53E2,7.9038734E1,3.53E2,3.39E2,1E0,3.5E2,8.9E1,7.549822E1,4.1E1,2.42E2,-1.236779E-3,-2.8054602E-2,-1.28186E-2,-5.1873725E-2,3.660733E-2,-2.5343124E-2,1.5988611E-3,6.5326825E-2,8.616761E-3,4.482026E-2,-8.580039E-2,2.537834E-2,4.408053E-2,-6.104419E-2,-2.203956E-2,4.5556948E-3],"split_indices":[4,1,4,1,4,0,4,0,0,7,0,1,4,1,0,0,0,0,0,0,0,0,0,0,0,0,0,0,0,0,0],"split_type":[0,0,0,0,0,0,0,0,0,0,0,0,0,0,0,0,0,0,0,0,0,0,0,0,0,0,0,0,0,0,0],"sum_hessian":[5.578E3,4.415E3,1.163E3,4.122E3,2.93E2,9.71E2,1.92E2,3.779E3,3.43E2,6.6E1,2.27E2,9.59E2,1.2E1,1.8E1,1.74E2,3.736E3,4.3E1,3.27E2,1.6E1,5.7E1,9E0,2.22E2,5E0,9.38E2,2.1E1,7E0,5E0,2E0,1.6E1,8.1E1,9.3E1],"tree_param":{"num_deleted":"0","num_feature":"21","num_nodes":"31","size_leaf_vector":"1"}},{"base_weights":[-1.2309971E-2,1.0793123E-1,-5.5585045E-1,5.9286296E-2,2.1710286E0,-7.560039E-1,9.7424895E-1,-1.350507E-1,3.5508886E-1,1.5170894E0,4.408072E0,-5.4195976E-1,-1.9499677E0,-4.0228713E-1,3.077723E0,-1.0561468E-2,4.1240852E-4,1.519388E-2,-5.516246E-4,2.299768E-2,-1.199148E-2,2.1677306E-2,1.03944175E-1,-1.7975759E-2,-1.9356014E-3,-1.4247244E-2,-4.708433E-2,1.8090999E-2,-1.8843321E-2,2.1805312E-2,9.9985905E-2],"categories":[],"categories_nodes":[],"categories_segments":[],"categories_sizes":[],"default_left":[0,0,0,0,0,0,0,0,0,0,0,0,0,0,0,0,0,0,0,0,0,0,0,0,0,0,0,0,0,0,0],"id":33,"left_children":[1,3,5,7,9,11,13,15,17,19,21,23,25,27,29,-1,-1,-1,-1,-1,-1,-1,-1,-1,-1,-1,-1,-1,-1,-1,-1],"loss_changes":[3.6043274E2,4.5309357E2,3.06685E2,2.5373097E2,1.4545319E2,2.248591E2,3.3711703E2,4.3262784E2,8.3598047E2,1.770849E2,2.8593127E2,3.2818173E2,1.8743976E2,2.3610258E2,2.6382767E2,0E0,0E0,0E0,0E0,0E0,0E0,0E0,0E0,0E0,0E0,0E0,0E0,0E0,0E0,0E0,0E0],"parents":[2147483647,0,0,1,1,2,2,3,3,4,4,5,5,6,6,7,7,8,8,9,9,10,10,11,11,12,12,13,13,14,14],"right_children":[2,4,6,8,10,12,14,16,18,20,22,24,26,28,30,-1,-1,-1,-1,-1,-1,-1,-1,-1,-1,-1,-1,-1,-1,-1,-1],"split_conditions":[1.8188845E1,1.7996191E1,1.97745E1,7E1,1E0,1.9540579E1,1E0,1.1286704E1,1.2102857E1,1.815138E1,1E0,1.8485481E1,3.28E2,2.55E2,3.36E2,-1.0561468E-2,4.1240852E-4,1.519388E-2,-5.516246E-4,2.299768E-2,-1.199148E-2,2.1677306E-2,1.03944175E-1,-1.7975759E-2,-1.9356014E-3,-1.4247244E-2,-4.708433E-2,1.8090999E-2,-1.8843321E-2,2.1805312E-2,9.9985905E-2],"split_indices":[5,5,5,1,15,5,19,5,5,5,18,5,0,0,0,0,0,0,0,0,0,0,0,0,0,0,0,0,0,0,0],"split_type":[0,0,0,0,0,0,0,0,0,0,0,0,0,0,0,0,0,0,0,0,0,0,0,0,0,0,0,0,0,0,0],"sum_hessian":[5.513E3,4.515E3,9.98E2,4.412E3,1.03E2,8.83E2,1.15E2,2.663E3,1.749E3,8.1E1,2.2E1,7.5E2,1.33E2,7E1,4.5E1,4.27E2,2.236E3,4.55E2,1.294E3,6.3E1,1.8E1,1.7E1,5E0,1.62E2,5.88E2,1.13E2,2E1,2.8E1,4.2E1,4.1E1,4E0],"tree_param":{"num_deleted":"0","num_feature":"21","num_nodes":"31","size_leaf_vector":"1"}},{"base_weights":[8.675975E-2,2.6217404E-1,-3.587527E-1,-1.23469025E-1,4.868567E-1,-6.0008925E-1,5.9655863E-1,5.299421E-1,-4.928372E-1,7.1729994E-1,5.5654654E-3,-2.1826186E0,-3.5192356E-1,2.5886621E0,-1.6566971E-1,2.0175523E-3,2.9881911E-2,-3.7108003E-3,-4.263057E-2,-1.000673E-2,8.267213E-3,2.0700296E-2,-3.7696688E-3,-1.2548648E-2,-3.8383212E-2,-6.1077317E-3,1.056577E-2,-3.405863E-2,3.6449566E-2,4.8851273E-3,-2.0927466E-2],"categories":[],"categories_nodes":[],"categories_segments":[],"categories_sizes":[],"default_left":[0,0,0,0,0,0,0,0,0,0,0,0,0,0,0,0,0,0,0,0,0,0,0,0,0,0,0,0,0,0,0],"id":34,"left_children":[1,3,5,7,9,11,13,15,17,19,21,23,25,27,29,-1,-1,-1,-1,-1,-1,-1,-1,-1,-1,-1,-1,-1,-1,-1,-1],"loss_changes":[4.450759E2,3.5410104E2,3.7131537E2,3.6349182E2,2.8636646E2,5.0388922E2,4.939211E2,4.382772E2,4.400254E2,3.290454E2,6.617796E2,2.624621E2,4.0606924E2,5.8229285E2,2.985381E2,0E0,0E0,0E0,0E0,0E0,0E0,0E0,0E0,0E0,0E0,0E0,0E0,0E0,0E0,0E0,0E0],"parents":[2147483647,0,0,1,1,2,2,3,3,4,4,5,5,6,6,7,7,8,8,9,9,10,10,11,11,12,12,13,13,14,14],"right_children":[2,4,6,8,10,12,14,16,18,20,22,24,26,28,30,-1,-1,-1,-1,-1,-1,-1,-1,-1,-1,-1,-1,-1,-1,-1,-1],"split_conditions":[9.7E1,8.3E1,1E0,7.8E1,1E0,4.7E1,5.4E1,8.4E1,7.9038734E1,5.171831E1,8.5E1,1E0,1.04E2,5.3122467E1,1E0,2.0175523E-3,2.9881911E-2,-3.7108003E-3,-4.263057E-2,-1.000673E-2,8.267213E-3,2.0700296E-2,-3.7696688E-3,-1.2548648E-2,-3.8383212E-2,-6.1077317E-3,1.056577E-2,-3.405863E-2,3.6449566E-2,4.8851273E-3,-2.0927466E-2],"split_indices":[3,3,13,3,18,1,1,1,4,4,3,10,3,4,8,0,0,0,0,0,0,0,0,0,0,0,0,0,0,0,0],"split_type":[0,0,0,0,0,0,0,0,0,0,0,0,0,0,0,0,0,0,0,0,0,0,0,0,0,0,0,0,0,0,0],"sum_hessian":[5.693E3,4.085E3,1.608E3,1.504E3,2.581E3,1.284E3,3.24E2,5.43E2,9.61E2,1.745E3,8.36E2,1.73E2,1.111E3,8.9E1,2.35E2,4.8E2,6.3E1,9.32E2,2.9E1,1.04E2,1.641E3,1.3E2,7.06E2,1.12E2,6.1E1,9.39E2,1.72E2,1.3E1,7.6E1,1.76E2,5.9E1],"tree_param":{"num_deleted":"0","num_feature":"21","num_nodes":"31","size_leaf_vector":"1"}},{"base_weights":[8.302726E-2,2.560822E-1,-3.59179E-1,6.6231364E-1,-3.7067574E-2,-2.4312496E0,-1.4734137E-1,2.4495096E0,5.0783575E-1,4.2839367E-3,-5.330299E0,4.0629015E0,-2.7901044E0,2.0706506E0,-3.1693974E-1,5.093515E-2,-1.3927805E-2,-8.98864E-5,1.0701304E-2,2.445198E-3,-6.7725745E-3,-7.436187E-2,7.677872E-2,1.5891572E-3,7.9271585E-2,-3.2031022E-2,2.2693336E-2,3.8907565E-2,5.970655E-4,-1.6959358E-3,-2.5986852E-2],"categories":[],"categories_nodes":[],"categories_segments":[],"categories_sizes":[],"default_left":[0,0,0,0,0,0,0,0,0,0,0,0,0,0,0,0,0,0,0,0,0,0,0,0,0,0,0,0,0,0,0],"id":35,"left_children":[1,3,5,7,9,11,13,15,17,19,21,23,25,27,29,-1,-1,-1,-1,-1,-1,-1,-1,-1,-1,-1,-1,-1,-1,-1,-1],"loss_changes":[4.2549988E2,4.7589484E2,6.861478E2,4.611938E2,5.0826947E2,3.4925232E2,5.3481464E2,1.3582461E3,4.4841724E2,3.7756482E2,5.5018164E2,1.1942828E2,2.95625E2,3.6944095E2,4.4335175E2,0E0,0E0,0E0,0E0,0E0,0E0,0E0,0E0,0E0,0E0,0E0,0E0,0E0,0E0,0E0,0E0],"parents":[2147483647,0,0,1,1,2,2,3,3,4,4,5,5,6,6,7,7,8,8,9,9,10,10,11,11,12,12,13,13,14,14],"right_children":[2,4,6,8,10,12,14,16,18,20,22,24,26,28,30,-1,-1,-1,-1,-1,-1,-1,-1,-1,-1,-1,-1,-1,-1,-1,-1],"split_conditions":[9.7E1,1.415036E1,1.0982133E1,7.7E1,3.53E2,1.59E2,1.1607536E1,6.792272E1,6.629169E1,2E1,7.7E1,6.0042316E1,8.7E1,2.46E2,3.42E2,5.093515E-2,-1.3927805E-2,-8.98864E-5,1.0701304E-2,2.445198E-3,-6.7725745E-3,-7.436187E-2,7.677872E-2,1.5891572E-3,7.9271585E-2,-3.2031022E-2,2.2693336E-2,3.8907565E-2,5.970655E-4,-1.6959358E-3,-2.5986852E-2],"split_indices":[3,5,5,3,0,0,5,4,4,2,1,4,1,0,0,0,0,0,0,0,0,0,0,0,0,0,0,0,0,0,0],"split_type":[0,0,0,0,0,0,0,0,0,0,0,0,0,0,0,0,0,0,0,0,0,0,0,0,0,0,0,0,0,0,0],"sum_hessian":[5.558E3,3.995E3,1.563E3,1.674E3,2.321E3,1.44E2,1.419E3,1.32E2,1.542E3,2.304E3,1.7E1,7E0,1.37E2,1E2,1.319E3,7.8E1,5.4E1,8.04E2,7.38E2,1.704E3,6E2,1.5E1,2E0,4E0,3E0,1.27E2,1E1,5.2E1,4.8E1,1.24E3,7.9E1],"tree_param":{"num_deleted":"0","num_feature":"21","num_nodes":"31","size_leaf_vector":"1"}},{"base_weights":[-7.303999E-2,1.3009839E0,-1.08141355E-1,1.7670653E0,-4.888172E0,-5.7945627E-1,5.8528624E-2,-1.2065729E0,2.5220766E0,-7.150902E0,-1.1952622E0,-4.079922E-1,-1.7745227E0,1.795157E0,-3.5284687E-2,-3.4982797E-2,3.0391565E-2,5.9154253E-2,1.485503E-2,-7.8908645E-2,-1.7255438E-2,9.485474E-3,-4.88525E-2,3.453482E-2,-5.0626053E-3,-3.1830303E-2,6.064833E-3,6.8774424E-2,1.4171924E-2,-1.6519257E-3,7.5435075E-3],"categories":[],"categories_nodes":[],"categories_segments":[],"categories_sizes":[],"default_left":[0,0,0,0,0,0,0,0,0,0,0,0,0,0,0,0,0,0,0,0,0,0,0,0,0,0,0,0,0,0,0],"id":36,"left_children":[1,3,5,7,9,11,13,15,17,19,21,23,25,27,29,-1,-1,-1,-1,-1,-1,-1,-1,-1,-1,-1,-1,-1,-1,-1,-1],"loss_changes":[2.6912E2,4.0960413E2,4.272894E2,2.9491E2,7.501337E1,2.9045444E2,6.548342E2,2.733409E2,3.570279E2,1.0471344E1,4.418705E1,4.7379715E2,5.988828E2,3.8596368E2,3.9136426E2,0E0,0E0,0E0,0E0,0E0,0E0,0E0,0E0,0E0,0E0,0E0,0E0,0E0,0E0,0E0,0E0],"parents":[2147483647,0,0,1,1,2,2,3,3,4,4,5,5,6,6,7,7,8,8,9,9,10,10,11,11,12,12,13,13,14,14],"right_children":[2,4,6,8,10,12,14,16,18,20,22,24,26,28,30,-1,-1,-1,-1,-1,-1,-1,-1,-1,-1,-1,-1,-1,-1,-1,-1],"split_conditions":[1.51E2,7.8603165E1,2.02E2,1.46E2,1E0,2.1E1,2.1E2,1.8E1,5.85738E1,1.49E2,1.48E2,5.0826237E1,1E0,5.1984375E1,7.57554E1,-3.4982797E-2,3.0391565E-2,5.9154253E-2,1.485503E-2,-7.8908645E-2,-1.7255438E-2,9.485474E-3,-4.88525E-2,3.453482E-2,-5.0626053E-3,-3.1830303E-2,6.064833E-3,6.8774424E-2,1.4171924E-2,-1.6519257E-3,7.5435075E-3],"split_indices":[0,4,0,0,13,2,0,2,4,0,0,4,12,4,4,0,0,0,0,0,0,0,0,0,0,0,0,0,0,0,0],"split_type":[0,0,0,0,0,0,0,0,0,0,0,0,0,0,0,0,0,0,0,0,0,0,0,0,0,0,0,0,0,0,0],"sum_hessian":[5.576E3,1.38E2,5.438E3,1.29E2,9E0,1.42E3,4.018E3,2.6E1,1.03E2,5E0,4E0,1.243E3,1.77E2,2.05E2,3.813E3,1.7E1,9E0,2.3E1,8E1,4E0,1E0,3E0,1E0,3E1,1.213E3,1.11E2,6.6E1,1.3E1,1.92E2,3.275E3,5.38E2],"tree_param":{"num_deleted":"0","num_feature":"21","num_nodes":"31","size_leaf_vector":"1"}},{"base_weights":[2.0389464E-2,-7.112651E-1,1.1653462E-1,-5.658898E-1,-5.767963E0,2.490772E-1,-2.1927273E-1,-2.2482722E0,-2.2577873E-1,-9.261348E0,1.0446919E0,3.2995682E-2,6.675731E-1,1.7115207E0,-3.7279087E-1,-1.3317778E-2,-5.497718E-2,-5.1433123E-3,2.2546312E-2,-9.6288204E-2,-2.609577E-2,-7.722155E-3,5.9730683E-2,-2.9798576E-3,7.8089368E-3,5.0908304E-4,1.6509375E-2,3.0059664E-2,-1.2544675E-2,-2.1687176E-3,-1.842214E-2],"categories":[],"categories_nodes":[],"categories_segments":[],"categories_sizes":[],"default_left":[0,0,0,0,0,0,0,0,0,0,0,0,0,0,0,0,0,0,0,0,0,0,0,0,0,0,0,0,0,0,0],"id":37,"left_children":[1,3,5,7,9,11,13,15,17,19,21,23,25,27,29,-1,-1,-1,-1,-1,-1,-1,-1,-1,-1,-1,-1,-1,-1,-1,-1],"loss_changes":[3.9246756E2,4.7309308E2,2.195274E2,3.6054865E2,4.380614E2,3.1973572E2,4.144289E2,3.083567E2,3.7763278E2,4.204956E0,6.729332E1,5.777444E2,7.3002905E2,3.992199E2,2.960703E2,0E0,0E0,0E0,0E0,0E0,0E0,0E0,0E0,0E0,0E0,0E0,0E0,0E0,0E0,0E0,0E0],"parents":[2147483647,0,0,1,1,2,2,3,3,4,4,5,5,6,6,7,7,8,8,9,9,10,10,11,11,12,12,13,13,14,14],"right_children":[2,4,6,8,10,12,14,16,18,20,22,24,26,28,30,-1,-1,-1,-1,-1,-1,-1,-1,-1,-1,-1,-1,-1,-1,-1,-1],"split_conditions":[1.5E1,3.51E2,9.7E1,1.83E2,1E0,1E0,1.61E2,7.9E1,7.6179146E1,1.03E2,8.4E1,7.070152E1,8.8E1,2E1,3.36E2,-1.3317778E-2,-5.497718E-2,-5.1433123E-3,2.2546312E-2,-9.6288204E-2,-2.609577E-2,-7.722155E-3,5.9730683E-2,-2.9798576E-3,7.8089368E-3,5.0908304E-4,1.6509375E-2,3.0059664E-2,-1.2544675E-2,-2.1687176E-3,-1.842214E-2],"split_indices":[2,0,3,0,19,20,0,1,4,3,1,4,3,2,0,0,0,0,0,0,0,0,0,0,0,0,0,0,0,0,0],"split_type":[0,0,0,0,0,0,0,0,0,0,0,0,0,0,0,0,0,0,0,0,0,0,0,0,0,0,0,0,0,0,0],"sum_hessian":[5.577E3,6.47E2,4.93E3,6.3E2,1.7E1,3.535E3,1.395E3,1.05E2,5.25E2,1.1E1,6E0,2.332E3,1.203E3,1.02E2,1.293E3,8.3E1,2.2E1,4.71E2,5.4E1,1E1,1E0,5E0,1E0,1.617E3,7.15E2,7.4E2,4.63E2,7.1E1,3.1E1,1.17E3,1.23E2],"tree_param":{"num_deleted":"0","num_feature":"21","num_nodes":"31","size_leaf_vector":"1"}},{"base_weights":[-3.166178E-2,-2.863351E-4,-1.687317E0,2.0199567E-2,-1.9529113E0,-2.4696054E0,2.1874835E0,-3.919724E-2,1.364029E0,4.827765E0,-2.697741E0,-1.6160333E0,-5.24827E0,4.9336702E-1,7.993549E-2,4.751608E-5,-3.9386027E-2,-4.3739766E-2,2.1487586E-2,8.466669E-3,6.606647E-2,-1.605167E-2,-5.8519877E-2,-4.3255046E-2,5.983379E-4,-6.047804E-2,4.9714353E-2,-1.1501276E-2,7.4507214E-2],"categories":[],"categories_nodes":[],"categories_segments":[],"categories_sizes":[],"default_left":[0,0,0,0,0,0,0,0,0,0,0,0,0,0,0,0,0,0,0,0,0,0,0,0,0,0,0,0,0],"id":38,"left_children":[1,3,5,7,9,11,13,15,17,19,21,23,25,27,-1,-1,-1,-1,-1,-1,-1,-1,-1,-1,-1,-1,-1,-1,-1],"loss_changes":[2.9048666E2,2.1960649E2,3.2064822E2,4.3371106E2,3.0089972E2,1.9786444E2,1.73107E2,8.9185095E2,1.0450388E3,3.6897797E1,1.6981143E2,3.0902734E2,1.9348627E2,1.8008492E2,0E0,0E0,0E0,0E0,0E0,0E0,0E0,0E0,0E0,0E0,0E0,0E0,0E0,0E0,0E0],"parents":[2147483647,0,0,1,1,2,2,3,3,4,4,5,5,6,6,7,7,8,8,9,9,10,10,11,11,12,12,13,13],"right_children":[2,4,6,8,10,12,14,16,18,20,22,24,26,28,-1,-1,-1,-1,-1,-1,-1,-1,-1,-1,-1,-1,-1,-1,-1],"split_conditions":[7.944948E1,3.53E2,1.01E2,3.44E2,5.7910027E1,9.6E1,1E0,3.42E2,5.3733078E1,8.3E1,1E0,8.2E1,1E0,1E0,7.993549E-2,4.751608E-5,-3.9386027E-2,-4.3739766E-2,2.1487586E-2,8.466669E-3,6.606647E-2,-1.605167E-2,-5.8519877E-2,-4.3255046E-2,5.983379E-4,-6.047804E-2,4.9714353E-2,-1.1501276E-2,7.4507214E-2],"split_indices":[4,0,3,0,4,3,11,0,4,3,7,3,7,15,0,0,0,0,0,0,0,0,0,0,0,0,0,0,0],"split_type":[0,0,0,0,0,0,0,0,0,0,0,0,0,0,0,0,0,0,0,0,0,0,0,0,0,0,0,0,0],"sum_hessian":[5.591E3,5.488E3,1.03E2,5.432E3,5.6E1,8.6E1,1.7E1,5.203E3,2.29E2,5E0,5.1E1,6.7E1,1.9E1,1.4E1,3E0,5.146E3,5.7E1,2.7E1,2.02E2,2E0,3E0,3.9E1,1.2E1,2.5E1,4.2E1,1.8E1,1E0,1.2E1,2E0],"tree_param":{"num_deleted":"0","num_feature":"21","num_nodes":"29","size_leaf_vector":"1"}},{"base_weights":[-1.0959476E-1,-8.052123E-2,-2.953817E0,-3.9851997E-2,-1.0306576E0,8.04395E-2,-3.4999895E0,-1.504644E-1,8.957336E-1,-3.8620028E0,-2.1820366E-1,-5.301034E0,-3.3158258E-1,1.4368495E-3,-3.859264E-3,-7.788717E-3,1.2308856E-2,8.469138E-3,-5.8475766E-2,-1.1981859E-2,3.7077863E-2,-5.882454E-2,2.8615952E-2,4.047403E-2,-2.8101755E-2],"categories":[],"categories_nodes":[],"categories_segments":[],"categories_sizes":[],"default_left":[0,0,0,0,0,0,0,0,0,0,0,0,0,0,0,0,0,0,0,0,0,0,0,0,0],"id":39,"left_children":[1,3,5,7,9,-1,11,13,15,17,19,21,23,-1,-1,-1,-1,-1,-1,-1,-1,-1,-1,-1,-1],"loss_changes":[4.658118E2,2.155775E2,3.705344E2,5.539992E2,5.2593463E2,0E0,3.120965E2,3.3160785E2,3.186247E2,4.817975E2,6.9312726E2,1.829403E2,2.3930214E2,0E0,0E0,0E0,0E0,0E0,0E0,0E0,0E0,0E0,0E0,0E0,0E0],"parents":[2147483647,0,0,1,1,2,2,3,3,4,4,6,6,7,7,8,8,9,9,10,10,11,11,12,12],"right_children":[2,4,6,8,10,-1,12,14,16,18,20,22,24,-1,-1,-1,-1,-1,-1,-1,-1,-1,-1,-1,-1],"split_conditions":[3.53E2,7.883344E1,5.171831E1,7.57554E1,8.2E1,8.04395E-2,1.9E1,6.16754E1,1.86E2,1.8E1,1E0,1.04E2,8.5E1,1.4368495E-3,-3.859264E-3,-7.788717E-3,1.2308856E-2,8.469138E-3,-5.8475766E-2,-1.1981859E-2,3.7077863E-2,-5.882454E-2,2.8615952E-2,4.047403E-2,-2.8101755E-2],"split_indices":[0,4,4,4,3,0,2,4,0,2,13,3,3,0,0,0,0,0,0,0,0,0,0,0,0],"split_type":[0,0,0,0,0,0,0,0,0,0,0,0,0,0,0,0,0,0,0,0,0,0,0,0,0],"sum_hessian":[5.635E3,5.579E3,5.6E1,5.351E3,2.28E2,2E0,5.4E1,4.786E3,5.65E2,5E1,1.78E2,3.4E1,2E1,2.128E3,2.658E3,9.4E1,4.71E2,1.5E1,3.5E1,1.43E2,3.5E1,3.2E1,2E0,7E0,1.3E1],"tree_param":{"num_deleted":"0","num_feature":"21","num_nodes":"25","size_leaf_vector":"1"}},{"base_weights":[4.7851253E-2,-1.8226859E-1,4.1331998E-1,1.5187324E0,-2.5436813E-1,5.2139145E-1,-1.178071E0,2.5450065E0,-3.8320843E-2,-1.5729364E-2,-6.2216634E-1,4.1833875E-1,3.336649E0,2.9691184E0,-1.7802951E0,8.108184E-3,4.3011792E-2,-2.881661E-2,1.7003404E-2,-1.6395573E-2,1.4719324E-3,3.2054134E-2,-7.454381E-3,3.052087E-3,1.8105278E-2,4.4099953E-2,-1.0360681E-2,7.656607E-2,-2.5691044E-2,-2.9595187E-2,-2.3022917E-4],"categories":[],"categories_nodes":[],"categories_segments":[],"categories_sizes":[],"default_left":[0,0,0,0,0,0,0,0,0,0,0,0,0,0,0,0,0,0,0,0,0,0,0,0,0,0,0,0,0,0,0],"id":40,"left_children":[1,3,5,7,9,11,13,15,17,19,21,23,25,27,29,-1,-1,-1,-1,-1,-1,-1,-1,-1,-1,-1,-1,-1,-1,-1,-1],"loss_changes":[4.7474478E2,4.2521606E2,3.757113E2,2.2541034E2,2.9174072E2,5.9131903E2,3.5244363E2,2.55383E2,2.8668533E2,5.338554E2,6.195464E2,3.1003424E2,3.4249677E2,4.869571E2,2.5274228E2,0E0,0E0,0E0,0E0,0E0,0E0,0E0,0E0,0E0,0E0,0E0,0E0,0E0,0E0,0E0,0E0],"parents":[2147483647,0,0,1,1,2,2,3,3,4,4,5,5,6,6,7,7,8,8,9,9,10,10,11,11,12,12,13,13,14,14],"right_children":[2,4,6,8,10,12,14,16,18,20,22,24,26,28,30,-1,-1,-1,-1,-1,-1,-1,-1,-1,-1,-1,-1,-1,-1,-1,-1],"split_conditions":[2.73E2,1.51E2,1.9400335E1,7E1,1.9E1,1.9098679E1,4.8E1,1.48E2,1.7E1,1.0982133E1,1.0340831E1,8.7E1,1E0,1E0,1.97745E1,8.108184E-3,4.3011792E-2,-2.881661E-2,1.7003404E-2,-1.6395573E-2,1.4719324E-3,3.2054134E-2,-7.454381E-3,3.052087E-3,1.8105278E-2,4.4099953E-2,-1.0360681E-2,7.656607E-2,-2.5691044E-2,-2.9595187E-2,-2.3022917E-4],"split_indices":[0,0,5,1,2,5,1,0,2,5,5,1,16,20,5,0,0,0,0,0,0,0,0,0,0,0,0,0,0,0,0],"split_type":[0,0,0,0,0,0,0,0,0,0,0,0,0,0,0,0,0,0,0,0,0,0,0,0,0,0,0,0,0,0,0],"sum_hessian":[5.643E3,3.463E3,2.18E3,1.4E2,3.323E3,2.042E3,1.38E2,8.4E1,5.6E1,2.016E3,1.307E3,1.971E3,7.1E1,1.7E1,1.21E2,4.3E1,4.1E1,2.1E1,3.5E1,1.83E2,1.833E3,4E1,1.267E3,1.824E3,1.47E2,5.7E1,1.4E1,9E0,8E0,7.2E1,4.9E1],"tree_param":{"num_deleted":"0","num_feature":"21","num_nodes":"31","size_leaf_vector":"1"}},{"base_weights":[-5.5478238E-2,-3.4218345E-2,-5.208128E0,8.5028267E-1,-1.3076971E-1,-7.3756223E0,-2.2212315E-1,1.8765796E0,-8.631489E-2,6.219357E-2,-5.1615834E-1,-3.232787E0,-9.538045E-2,-5.4082336E0,3.97119E0,3.2933727E-2,6.745394E-3,-2.417769E-3,7.2606966E-2,-1.8394649E-2,1.3032153E-3,1.9704746E-3,-8.519941E-3,-4.9396932E-2,3.504326E-2,-4.749298E-5,-7.2078116E-2,7.5293005E-2,-5.1306266E-2],"categories":[],"categories_nodes":[],"categories_segments":[],"categories_sizes":[],"default_left":[0,0,0,0,0,0,0,0,0,0,0,0,0,0,0,0,0,0,0,0,0,0,0,0,0,0,0,0,0],"id":41,"left_children":[1,3,5,7,9,11,13,15,17,19,21,23,-1,25,27,-1,-1,-1,-1,-1,-1,-1,-1,-1,-1,-1,-1,-1,-1],"loss_changes":[6.13163E2,4.7638577E2,2.4692584E2,5.2787573E2,3.74018E2,1.125025E2,1.95453E2,4.4397552E2,3.3070367E2,4.345118E2,4.0208243E2,9.780764E1,0E0,3.8861748E1,2.005564E2,0E0,0E0,0E0,0E0,0E0,0E0,0E0,0E0,0E0,0E0,0E0,0E0,0E0,0E0],"parents":[2147483647,0,0,1,1,2,2,3,3,4,4,5,5,6,6,7,7,8,8,9,9,10,10,11,11,13,13,14,14],"right_children":[2,4,6,8,10,12,14,16,18,20,22,24,-1,26,28,-1,-1,-1,-1,-1,-1,-1,-1,-1,-1,-1,-1,-1,-1],"split_conditions":[1.9954739E1,7.8E1,1E0,6.5181274E1,1E0,8.9E1,9.6E1,1.4563579E1,1.9881422E1,1.0380721E1,5.938993E1,8.7E1,-9.538045E-2,1.57E2,1.02E2,3.2933727E-2,6.745394E-3,-2.417769E-3,7.2606966E-2,-1.8394649E-2,1.3032153E-3,1.9704746E-3,-8.519941E-3,-4.9396932E-2,3.504326E-2,-4.749298E-5,-7.2078116E-2,7.5293005E-2,-5.1306266E-2],"split_indices":[5,3,19,4,18,3,3,5,5,5,4,3,0,0,3,0,0,0,0,0,0,0,0,0,0,0,0,0,0],"split_type":[0,0,0,0,0,0,0,0,0,0,0,0,0,0,0,0,0,0,0,0,0,0,0,0,0,0,0,0,0],"sum_hessian":[5.598E3,5.576E3,2.2E1,5.48E2,5.028E3,1.5E1,7E0,2.61E2,2.87E2,3.351E3,1.677E3,6E0,9E0,3E0,4E0,1.19E2,1.42E2,2.82E2,5E0,1.15E2,3.236E3,5.37E2,1.14E3,5E0,1E0,1E0,2E0,3E0,1E0],"tree_param":{"num_deleted":"0","num_feature":"21","num_nodes":"29","size_leaf_vector":"1"}},{"base_weights":[-2.9922752E-2,1.8249476E-1,-3.663673E-1,-1.171114E0,3.1814402E-1,3.878745E-1,-6.605769E-1,1.7713982E-1,-2.3062751E0,5.9572035E-1,-5.1891845E-1,7.0625997E-1,-8.7587833E-1,-7.396776E-1,2.3637438E0,-1.5676038E-2,1.59253E-2,-3.4283783E-2,1.6765692E-3,5.186597E-3,2.268062E-2,1.6978085E-2,-7.4393316E-3,-2.9200872E-3,1.0938855E-2,-8.097153E-2,-5.012721E-3,-1.0585798E-2,-6.8541564E-4,-5.0553206E-2,3.3285096E-2],"categories":[],"categories_nodes":[],"categories_segments":[],"categories_sizes":[],"default_left":[0,0,0,0,0,0,0,0,0,0,0,0,0,0,0,0,0,0,0,0,0,0,0,0,0,0,0,0,0,0,0],"id":42,"left_children":[1,3,5,7,9,11,13,15,17,19,21,23,25,27,29,-1,-1,-1,-1,-1,-1,-1,-1,-1,-1,-1,-1,-1,-1,-1,-1],"loss_changes":[4.003519E2,6.3091003E2,4.813466E2,4.794504E2,7.257019E2,2.4565616E2,3.7494104E2,3.5810345E2,4.7249597E2,3.0102753E2,3.8932654E2,1.8876624E2,3.286727E2,3.2546204E2,3.0313312E2,0E0,0E0,0E0,0E0,0E0,0E0,0E0,0E0,0E0,0E0,0E0,0E0,0E0,0E0,0E0,0E0],"parents":[2147483647,0,0,1,1,2,2,3,3,4,4,5,5,6,6,7,7,8,8,9,9,10,10,11,11,12,12,13,13,14,14],"right_children":[2,4,6,8,10,12,14,16,18,20,22,24,26,28,30,-1,-1,-1,-1,-1,-1,-1,-1,-1,-1,-1,-1,-1,-1,-1,-1],"split_conditions":[1.9E1,1.0982133E1,1.2837386E1,8.7E1,1.7837595E1,1E0,1.97745E1,1.6E1,7.2E1,1.04E2,4.6E1,1.071313E1,1.0125629E1,1E0,4.7E1,-1.5676038E-2,1.59253E-2,-3.4283783E-2,1.6765692E-3,5.186597E-3,2.268062E-2,1.6978085E-2,-7.4393316E-3,-2.9200872E-3,1.0938855E-2,-8.097153E-2,-5.012721E-3,-1.0585798E-2,-6.8541564E-4,-5.0553206E-2,3.3285096E-2],"split_indices":[2,5,5,3,5,17,5,2,1,3,1,5,5,10,1,0,0,0,0,0,0,0,0,0,0,0,0,0,0,0,0],"split_type":[0,0,0,0,0,0,0,0,0,0,0,0,0,0,0,0,0,0,0,0,0,0,0,0,0,0,0,0,0,0,0],"sum_hessian":[5.6E3,3.433E3,2.167E3,3.12E2,3.121E3,6.08E2,1.559E3,1.43E2,1.69E2,2.344E3,7.77E2,4.86E2,1.22E2,1.52E3,3.9E1,6.4E1,7.9E1,1.16E2,5.3E1,2.242E3,1.02E2,7.1E1,7.06E2,1.36E2,3.5E2,5E0,1.17E2,1.03E3,4.9E2,4E0,3.5E1],"tree_param":{"num_deleted":"0","num_feature":"21","num_nodes":"31","size_leaf_vector":"1"}},{"base_weights":[-2.5155097E-2,1.844313E-1,-3.6746097E-1,-1.06095E0,3.0843338E-1,6.549852E-1,-6.7013556E-1,-3.4700556E0,-3.879699E-1,4.885104E-1,-3.8938957E-1,1.0206553E0,-2.0894089E0,-7.2237515E-1,2.042661E0,-4.3410122E-2,9.561602E-3,2.1892592E-2,-1.1280728E-2,3.4460584E-3,1.5144677E-2,2.2594599E-2,-6.117012E-3,3.677539E-2,7.127609E-3,-2.4275541E-2,2.9979056E-2,-5.349085E-3,-2.1077994E-2,5.601566E-3,8.126403E-2],"categories":[],"categories_nodes":[],"categories_segments":[],"categories_sizes":[],"default_left":[0,0,0,0,0,0,0,0,0,0,0,0,0,0,0,0,0,0,0,0,0,0,0,0,0,0,0,0,0,0,0],"id":43,"left_children":[1,3,5,7,9,11,13,15,17,19,21,23,25,27,29,-1,-1,-1,-1,-1,-1,-1,-1,-1,-1,-1,-1,-1,-1,-1,-1],"loss_changes":[3.9823947E2,5.320293E2,6.527986E2,5.0449307E2,3.937632E2,4.8584027E2,2.3204626E2,2.662937E2,4.6978616E2,3.6710156E2,3.800255E2,3.458636E2,1.05331955E2,4.136466E2,2.750423E2,0E0,0E0,0E0,0E0,0E0,0E0,0E0,0E0,0E0,0E0,0E0,0E0,0E0,0E0,0E0,0E0],"parents":[2147483647,0,0,1,1,2,2,3,3,4,4,5,5,6,6,7,7,8,8,9,9,10,10,11,11,12,12,13,13,14,14],"right_children":[2,4,6,8,10,12,14,16,18,20,22,24,26,28,30,-1,-1,-1,-1,-1,-1,-1,-1,-1,-1,-1,-1,-1,-1,-1,-1],"split_conditions":[1.9E1,1.0982133E1,1.2214595E1,1.5E1,1.8188845E1,1.02E2,8.9E1,1.0742152E1,8.1E1,1.7373833E1,4.4E1,1.0243761E1,8.7E1,8.3E1,1E0,-4.3410122E-2,9.561602E-3,2.1892592E-2,-1.1280728E-2,3.4460584E-3,1.5144677E-2,2.2594599E-2,-6.117012E-3,3.677539E-2,7.127609E-3,-2.4275541E-2,2.9979056E-2,-5.349085E-3,-2.1077994E-2,5.601566E-3,8.126403E-2],"split_indices":[2,5,5,2,5,3,1,5,3,5,1,5,1,1,16,0,0,0,0,0,0,0,0,0,0,0,0,0,0,0,0],"split_type":[0,0,0,0,0,0,0,0,0,0,0,0,0,0,0,0,0,0,0,0,0,0,0,0,0,0,0,0,0,0,0],"sum_hessian":[5.549E3,3.442E3,2.107E3,3.11E2,3.131E3,4.81E2,1.626E3,6.7E1,2.44E2,2.489E3,6.42E2,4.25E2,5.6E1,1.596E3,3E1,5.6E1,1.1E1,5.4E1,1.9E2,2.184E3,3.05E2,4.9E1,5.93E2,4.3E1,3.82E2,5.3E1,3E0,1.407E3,1.89E2,2.5E1,5E0],"tree_param":{"num_deleted":"0","num_feature":"21","num_nodes":"31","size_leaf_vector":"1"}},{"base_weights":[-5.1964734E-2,-4.757278E-1,1.1368473E-1,4.0530252E-1,-8.244213E-1,1.9819207E-1,-6.845895E-1,6.4805E-1,-6.143868E0,-6.3556236E-1,-2.0838706E0,1.5471241E-1,2.6547527E0,-3.0455601E0,6.9843777E-3,1.8319123E-3,2.9188909E-2,-2.3104379E-2,-8.2128815E-2,-8.472755E-3,4.4404576E-3,-3.052791E-2,2.3164472E-3,4.5213904E-4,5.986996E-3,5.3344774E-3,4.5670465E-2,-4.2625293E-2,1.4302491E-3,-2.4059603E-2,6.253988E-3],"categories":[],"categories_nodes":[],"categories_segments":[],"categories_sizes":[],"default_left":[0,0,0,0,0,0,0,0,0,0,0,0,0,0,0,0,0,0,0,0,0,0,0,0,0,0,0,0,0,0,0],"id":44,"left_children":[1,3,5,7,9,11,13,15,17,19,21,23,25,27,29,-1,-1,-1,-1,-1,-1,-1,-1,-1,-1,-1,-1,-1,-1,-1,-1],"loss_changes":[3.913975E2,4.8173148E2,2.7058295E2,7.114402E2,2.657904E2,3.8688385E2,6.270109E2,4.5338208E2,1.0792743E2,2.2391495E2,3.2826544E2,1.7324014E2,2.5312689E2,3.3820532E2,4.4618024E2,0E0,0E0,0E0,0E0,0E0,0E0,0E0,0E0,0E0,0E0,0E0,0E0,0E0,0E0,0E0,0E0],"parents":[2147483647,0,0,1,1,2,2,3,3,4,4,5,5,6,6,7,7,8,8,9,9,10,10,11,11,12,12,13,13,14,14],"right_children":[2,4,6,8,10,12,14,16,18,20,22,24,26,28,30,-1,-1,-1,-1,-1,-1,-1,-1,-1,-1,-1,-1,-1,-1,-1,-1],"split_conditions":[2.02E2,5.4E1,3.41E2,2E2,8.5E1,3.38E2,3.44E2,1.8404837E1,1E0,1.8340021E1,1E0,3.11E2,6.8E1,7.14043E1,5.5909863E1,1.8319123E-3,2.9188909E-2,-2.3104379E-2,-8.2128815E-2,-8.472755E-3,4.4404576E-3,-3.052791E-2,2.3164472E-3,4.5213904E-4,5.986996E-3,5.3344774E-3,4.5670465E-2,-4.2625293E-2,1.4302491E-3,-2.4059603E-2,6.253988E-3],"split_indices":[0,1,0,0,1,0,0,5,11,5,11,0,1,4,4,0,0,0,0,0,0,0,0,0,0,0,0,0,0,0,0],"split_type":[0,0,0,0,0,0,0,0,0,0,0,0,0,0,0,0,0,0,0,0,0,0,0,0,0,0,0,0,0,0,0],"sum_hessian":[5.574E3,1.566E3,4.008E3,4.44E2,1.122E3,3.625E3,3.83E2,4.29E2,1.5E1,9.77E2,1.45E2,3.563E3,6.2E1,8.6E1,2.97E2,3.57E2,7.2E1,6E0,9E0,8.17E2,1.6E2,1.02E2,4.3E1,2.859E3,7.04E2,3E1,3.2E1,6.2E1,2.4E1,6E1,2.37E2],"tree_param":{"num_deleted":"0","num_feature":"21","num_nodes":"31","size_leaf_vector":"1"}},{"base_weights":[4.6670392E-2,3.441678E-1,-2.085562E-1,3.9586816E-2,8.99951E-1,-1.9015549E-1,-5.6729555E0,1.8672137E0,-8.392696E-2,1.2430946E0,-4.570003E-1,2.0631461E-1,-3.9648175E-1,-7.9469943E0,7.396698E-2,4.455836E-2,1.1670125E-2,-4.1655395E-2,7.3674215E-5,1.8337185E-2,5.6890654E-3,5.358421E-2,-1.0048686E-2,-5.9082466E-3,1.1457852E-2,-5.2249376E-3,8.765577E-3,6.9852066E-3,-9.1149986E-2],"categories":[],"categories_nodes":[],"categories_segments":[],"categories_sizes":[],"default_left":[0,0,0,0,0,0,0,0,0,0,0,0,0,0,0,0,0,0,0,0,0,0,0,0,0,0,0,0,0],"id":45,"left_children":[1,3,5,7,9,11,13,15,17,19,21,23,25,27,-1,-1,-1,-1,-1,-1,-1,-1,-1,-1,-1,-1,-1,-1,-1],"loss_changes":[4.2178284E2,4.3417007E2,2.995624E2,3.7442883E2,4.233592E2,2.4393414E2,3.5599054E2,1.8511844E2,5.790951E2,2.8764575E2,5.916242E2,7.652926E2,3.150383E2,9.7249084E1,0E0,0E0,0E0,0E0,0E0,0E0,0E0,0E0,0E0,0E0,0E0,0E0,0E0,0E0,0E0],"parents":[2147483647,0,0,1,1,2,2,3,3,4,4,5,5,6,6,7,7,8,8,9,9,10,10,11,11,12,12,13,13],"right_children":[2,4,6,8,10,12,14,16,18,20,22,24,26,28,-1,-1,-1,-1,-1,-1,-1,-1,-1,-1,-1,-1,-1,-1,-1],"split_conditions":[1.4647716E1,7.2E1,7.988333E1,1.59E2,9.9E1,6.053877E1,1E0,7.9E1,1.62E2,8.2E1,1.61E2,1.7522484E1,7.8128365E1,1.48E2,7.396698E-2,4.455836E-2,1.1670125E-2,-4.1655395E-2,7.3674215E-5,1.8337185E-2,5.6890654E-3,5.358421E-2,-1.0048686E-2,-5.9082466E-3,1.1457852E-2,-5.2249376E-3,8.765577E-3,6.9852066E-3,-9.1149986E-2],"split_indices":[5,1,4,0,3,4,11,3,0,1,0,5,4,0,0,0,0,0,0,0,0,0,0,0,0,0,0,0,0],"split_type":[0,0,0,0,0,0,0,0,0,0,0,0,0,0,0,0,0,0,0,0,0,0,0,0,0,0,0,0,0],"sum_hessian":[5.553E3,2.564E3,2.989E3,1.657E3,9.07E2,2.98E3,9E0,1.04E2,1.553E3,7.24E2,1.83E2,1.02E3,1.96E3,8E0,1E0,2.1E1,8.3E1,3.3E1,1.52E3,3.85E2,3.39E2,1.5E1,1.68E2,5.52E2,4.68E2,1.784E3,1.76E2,1E0,7E0],"tree_param":{"num_deleted":"0","num_feature":"21","num_nodes":"29","size_leaf_vector":"1"}},{"base_weights":[3.400099E-2,6.011208E-2,-3.3496943E0,-5.9087075E-2,7.837018E-1,-5.4086976E0,-4.6418E-1,1.1668979E0,-1.5911454E-1,-2.2725677E0,9.202971E-1,-3.447464E0,-7.5914073E0,3.2082512E0,-5.9148045E0,1.9230599E-2,7.810979E-4,-3.946203E-3,1.1405328E-3,1.8143274E-2,-4.584253E-2,6.421008E-2,8.453273E-3,-1.1577759E-2,-6.689034E-2,-3.5835754E-2,-9.369657E-2,-3.1561483E-2,4.796746E-2,3.4752235E-2,-7.752697E-2],"categories":[],"categories_nodes":[],"categories_segments":[],"categories_sizes":[],"default_left":[0,0,0,0,0,0,0,0,0,0,0,0,0,0,0,0,0,0,0,0,0,0,0,0,0,0,0,0,0,0,0],"id":46,"left_children":[1,3,5,7,9,11,13,15,17,19,21,23,25,27,29,-1,-1,-1,-1,-1,-1,-1,-1,-1,-1,-1,-1,-1,-1,-1,-1],"loss_changes":[4.9612103E2,4.805522E2,2.5296457E2,5.868579E2,3.3105942E2,8.0849E1,3.9930002E2,2.9706113E2,2.846524E2,3.2953622E2,3.0592413E2,1.0358835E2,4.4819336E1,1.36457E2,1.6500528E2,0E0,0E0,0E0,0E0,0E0,0E0,0E0,0E0,0E0,0E0,0E0,0E0,0E0,0E0,0E0,0E0],"parents":[2147483647,0,0,1,1,2,2,3,3,4,4,5,5,6,6,7,7,8,8,9,9,10,10,11,11,12,12,13,13,14,14],"right_children":[2,4,6,8,10,12,14,16,18,20,22,24,26,28,30,-1,-1,-1,-1,-1,-1,-1,-1,-1,-1,-1,-1,-1,-1,-1,-1],"split_conditions":[1.9922405E1,7.57554E1,1.8E1,1.61E2,1.54E2,1E0,2E1,6.563528E1,2.63E2,7.763432E1,1.0125629E1,7.433745E1,5.8931606E1,1.74E2,2.03E2,1.9230599E-2,7.810979E-4,-3.946203E-3,1.1405328E-3,1.8143274E-2,-4.584253E-2,6.421008E-2,8.453273E-3,-1.1577759E-2,-6.689034E-2,-3.5835754E-2,-9.369657E-2,-3.1561483E-2,4.796746E-2,3.4752235E-2,-7.752697E-2],"split_indices":[5,4,2,0,0,18,2,4,0,4,5,4,4,0,0,0,0,0,0,0,0,0,0,0,0,0,0,0,0,0,0],"split_type":[0,0,0,0,0,0,0,0,0,0,0,0,0,0,0,0,0,0,0,0,0,0,0,0,0,0,0,0,0,0,0],"sum_hessian":[5.612E3,5.57E3,4.2E1,4.783E3,7.87E2,2.4E1,1.8E1,3.6E2,4.423E3,3.3E1,7.54E2,1.4E1,1E1,1.1E1,7E0,2.12E2,1.48E2,2.375E3,2.048E3,1.2E1,2.1E1,9E0,7.45E2,9E0,5E0,4E0,6E0,2E0,9E0,1E0,6E0],"tree_param":{"num_deleted":"0","num_feature":"21","num_nodes":"31","size_leaf_vector":"1"}},{"base_weights":[-1.3486789E-2,1.9265884E-1,-2.0985915E-1,4.2388758E-1,-2.9011157E-1,-8.037205E-2,-6.157432E-1,2.5205317E-1,1.1339136E0,4.5640057E-1,-7.692775E-1,-1.3376398E0,-4.431653E-3,4.1320047E-1,-1.2331132E0,-3.2279524E-3,8.166289E-3,1.7552089E-2,5.097862E-3,-7.1794953E-4,1.9883808E-2,-1.32665485E-2,4.30964E-3,7.44775E-4,-3.1695414E-2,6.1220485E-3,-1.5625092E-3,-3.8874364E-3,2.07827E-2,-3.0460589E-2,-6.5253014E-3],"categories":[],"categories_nodes":[],"categories_segments":[],"categories_sizes":[],"default_left":[0,0,0,0,0,0,0,0,0,0,0,0,0,0,0,0,0,0,0,0,0,0,0,0,0,0,0,0,0,0,0],"id":47,"left_children":[1,3,5,7,9,11,13,15,17,19,21,23,25,27,29,-1,-1,-1,-1,-1,-1,-1,-1,-1,-1,-1,-1,-1,-1,-1,-1],"loss_changes":[2.2685716E2,3.053205E2,1.5078839E2,2.2530496E2,3.1727615E2,2.0784839E2,4.413653E2,4.838363E2,1.387015E2,2.8093E2,3.6182495E2,3.2100677E2,1.923856E2,3.493193E2,4.5482574E2,0E0,0E0,0E0,0E0,0E0,0E0,0E0,0E0,0E0,0E0,0E0,0E0,0E0,0E0,0E0,0E0],"parents":[2147483647,0,0,1,1,2,2,3,3,4,4,5,5,6,6,7,7,8,8,9,9,10,10,11,11,12,12,13,13,14,14],"right_children":[2,4,6,8,10,12,14,16,18,20,22,24,26,28,30,-1,-1,-1,-1,-1,-1,-1,-1,-1,-1,-1,-1,-1,-1,-1,-1],"split_conditions":[1.8E1,1E0,1E0,1E0,6.211668E1,5.171831E1,6.16754E1,1.6E1,1.6E1,1E0,7.377998E1,5.1048355E1,5.780589E1,1E0,6.6160576E1,-3.2279524E-3,8.166289E-3,1.7552089E-2,5.097862E-3,-7.1794953E-4,1.9883808E-2,-1.32665485E-2,4.30964E-3,7.44775E-4,-3.1695414E-2,6.1220485E-3,-1.5625092E-3,-3.8874364E-3,2.07827E-2,-3.0460589E-2,-6.5253014E-3],"split_indices":[2,18,8,13,4,4,4,2,2,6,4,4,4,20,4,0,0,0,0,0,0,0,0,0,0,0,0,0,0,0,0],"split_type":[0,0,0,0,0,0,0,0,0,0,0,0,0,0,0,0,0,0,0,0,0,0,0,0,0,0,0,0,0,0,0],"sum_hessian":[5.602E3,2.733E3,2.869E3,1.848E3,8.85E2,2.176E3,6.93E2,1.489E3,3.59E2,3.46E2,5.39E2,1.23E2,2.053E3,2.6E2,4.33E2,7.38E2,7.51E2,1.79E2,1.8E2,2.58E2,8.8E1,3.68E2,1.71E2,7E1,5.3E1,4.05E2,1.648E3,1.76E2,8.4E1,1.04E2,3.29E2],"tree_param":{"num_deleted":"0","num_feature":"21","num_nodes":"31","size_leaf_vector":"1"}},{"base_weights":[-8.2223624E-2,1.4214438E0,-1.2121403E-1,-3.3012828E-1,2.7392495E0,-6.019182E-1,3.8655076E-2,3.8803465E0,-2.1828933E0,3.6597605E0,-4.086942E-1,1.0838989E0,-7.3797727E-1,-8.0025986E-2,7.665533E-1,9.578467E-2,1.1611273E-2,7.5448817E-4,-4.342013E-2,4.9003776E-2,8.094455E-3,4.4362713E-2,-6.2849075E-2,-1.6429521E-2,2.2592297E-2,-3.6493947E-3,-1.6454164E-2,3.3608037E-3,-4.071542E-3,1.0690069E-2,-1.4730915E-2],"categories":[],"categories_nodes":[],"categories_segments":[],"categories_sizes":[],"default_left":[0,0,0,0,0,0,0,0,0,0,0,0,0,0,0,0,0,0,0,0,0,0,0,0,0,0,0,0,0,0,0],"id":48,"left_children":[1,3,5,7,9,11,13,15,17,19,21,23,25,27,29,-1,-1,-1,-1,-1,-1,-1,-1,-1,-1,-1,-1,-1,-1,-1,-1],"loss_changes":[3.2474026E2,3.2405676E2,4.1478137E2,4.8433264E2,2.3331305E2,3.0976215E2,3.5001804E2,2.8327252E2,2.0999693E2,2.152746E2,5.688125E2,3.2741196E2,4.2152045E2,4.743794E2,3.863316E2,0E0,0E0,0E0,0E0,0E0,0E0,0E0,0E0,0E0,0E0,0E0,0E0,0E0,0E0,0E0,0E0],"parents":[2147483647,0,0,1,1,2,2,3,3,4,4,5,5,6,6,7,7,8,8,9,9,10,10,11,11,12,12,13,13,14,14],"right_children":[2,4,6,8,10,12,14,16,18,20,22,24,26,28,30,-1,-1,-1,-1,-1,-1,-1,-1,-1,-1,-1,-1,-1,-1,-1,-1],"split_conditions":[1.51E2,8.8E1,2.01E2,7.8E1,1E0,4.4E1,7.57554E1,6.235813E1,6.2E1,1E0,9.3E1,8.4E1,1.7140919E1,6.16754E1,7.944948E1,9.578467E-2,1.1611273E-2,7.5448817E-4,-4.342013E-2,4.9003776E-2,8.094455E-3,4.4362713E-2,-6.2849075E-2,-1.6429521E-2,2.2592297E-2,-3.6493947E-3,-1.6454164E-2,3.3608037E-3,-4.071542E-3,1.0690069E-2,-1.4730915E-2],"split_indices":[0,3,0,3,15,1,4,4,1,10,3,3,5,4,4,0,0,0,0,0,0,0,0,0,0,0,0,0,0,0,0],"split_type":[0,0,0,0,0,0,0,0,0,0,0,0,0,0,0,0,0,0,0,0,0,0,0,0,0,0,0,0,0,0,0],"sum_hessian":[5.535E3,1.39E2,5.396E3,6E1,7.9E1,1.346E3,4.05E3,1.8E1,4.2E1,6.1E1,1.8E1,1E2,1.246E3,3.483E3,5.67E2,5E0,1.3E1,2.1E1,2.1E1,4.2E1,1.9E1,1E1,8E0,3E1,7E1,8.84E2,3.62E2,1.533E3,1.95E3,5E2,6.7E1],"tree_param":{"num_deleted":"0","num_feature":"21","num_nodes":"31","size_leaf_vector":"1"}},{"base_weights":[-9.326007E-2,-2.7336681E-2,-9.647515E-1,4.7355568E-1,-9.373899E-2,5.353204E0,-1.0928622E0,-1.6078514E0,7.1197736E-1,-7.7831376E-1,-2.1526145E-2,8.489886E-2,9.4049454E-2,-7.129236E-1,-2.3208725E0,4.4633817E-2,-2.8375817E-2,2.61681E-2,6.4725878E-6,-2.7981615E-3,-2.7634596E-2,4.5857183E-3,-1.0551012E-3,-4.4943336E-2,6.9295995E-2,-1.4903648E-2,6.4165723E-3,-7.0259455E-3,-4.0335197E-2],"categories":[],"categories_nodes":[],"categories_segments":[],"categories_sizes":[],"default_left":[0,0,0,0,0,0,0,0,0,0,0,0,0,0,0,0,0,0,0,0,0,0,0,0,0,0,0,0,0],"id":49,"left_children":[1,3,5,7,9,11,13,15,17,19,21,-1,23,25,27,-1,-1,-1,-1,-1,-1,-1,-1,-1,-1,-1,-1,-1,-1],"loss_changes":[3.2187534E2,1.7333112E2,3.247533E2,3.038589E2,2.2743407E2,1.3117192E2,1.7890747E2,4.830219E2,7.4251904E2,4.3365692E2,1.6790277E2,0E0,1.5660043E2,3.13729E2,2.4937613E2,0E0,0E0,0E0,0E0,0E0,0E0,0E0,0E0,0E0,0E0,0E0,0E0,0E0,0E0],"parents":[2147483647,0,0,1,1,2,2,3,3,4,4,5,5,6,6,7,7,8,8,9,9,10,10,12,12,13,13,14,14],"right_children":[2,4,6,8,10,12,14,16,18,20,22,-1,24,26,28,-1,-1,-1,-1,-1,-1,-1,-1,-1,-1,-1,-1,-1,-1],"split_conditions":[1.03E2,4.6E1,4.1E1,1.1124209E1,5E1,1E0,1E0,1.0243761E1,1.3672591E1,1E0,5.6E1,8.489886E-2,1.9365208E1,1.6124586E1,1.5590207E1,4.4633817E-2,-2.8375817E-2,2.61681E-2,6.4725878E-6,-2.7981615E-3,-2.7634596E-2,4.5857183E-3,-1.0551012E-3,-4.4943336E-2,6.9295995E-2,-1.4903648E-2,6.4165723E-3,-7.0259455E-3,-4.0335197E-2],"split_indices":[3,1,1,5,1,11,6,5,5,16,1,0,5,5,5,0,0,0,0,0,0,0,0,0,0,0,0,0,0],"split_type":[0,0,0,0,0,0,0,0,0,0,0,0,0,0,0,0,0,0,0,0,0,0,0,0,0,0,0,0,0],"sum_hessian":[5.602E3,5.209E3,3.93E2,6.09E2,4.6E3,7E0,3.86E2,6.2E1,5.47E2,4.38E2,4.162E3,4E0,3E0,2.96E2,9E1,1E1,5.2E1,1.48E2,3.99E2,3.51E2,8.7E1,6.19E2,3.543E3,2E0,1E0,1.88E2,1.08E2,4.7E1,4.3E1],"tree_param":{"num_deleted":"0","num_feature":"21","num_nodes":"29","size_leaf_vector":"1"}}]},"name":"gbtree"},"learner_model_param":{"base_score":"8.5064835E1","boost_from_average":"1","num_class":"0","num_feature":"21","num_target":"1"},"objective":{"name":"reg:squarederror","reg_loss_param":{"scale_pos_weight":"1"}}},"version":[2,0,3]}