{"learner":{"attributes":{"scikit_learn":"{\"_estimator_type\": \"regressor\"}"},"feature_names":["Tire Width (mm)","Aspect Ratio (%)","Rim Diameter (inches)","Load Index","Material Hardness","Tensile Strength","Tire Type_LT","Tire Type_P","Tire Type_ST","Tire Type_T","Construction_B","Construction_D","Construction_R","Speed Rating_H","Speed Rating_S","Speed Rating_T","Speed Rating_U","Speed Rating_V","Season_All-Season","Season_Summer","Season_Winter"],"feature_types":["int","int","int","int","float","float","i","i","i","i","i","i","i","i","i","i","i","i","i","i","i"],"gradient_booster":{"model":{"gbtree_model_param":{"num_parallel_tree":"1","num_trees":"50"},"iteration_indptr":[0,1,2,3,4,5,6,7,8,9,10,11,12,13,14,15,16,17,18,19,20,21,22,23,24,25,26,27,28,29,30,31,32,33,34,35,36,37,38,39,40,41,42,43,44,45,46,47,48,49,50],"tree_info":[0,0,0,0,0,0,0,0,0,0,0,0,0,0,0,0,0,0,0,0,0,0,0,0,0,0,0,0,0,0,0,0,0,0,0,0,0,0,0,0,0,0,0,0,0,0,0,0,0,0],"trees":[{"base_weights":[-1.0813316E-6,9.663087E-2,-4.7784823E-1,-8.067599E-2,5.434568E-1,5.003605E-1,-1.011889E0,1.2418676E-2,-1.6790087E-3,3.3121076E-3,2.1878127E-2,1.1050025E-2,-6.2502516E-3,-3.0213146E-2,-7.764606E-3],"categories":[],"categories_nodes":[],"categories_segments":[],"categories_sizes":[],"default_left":[0,0,0,0,0,0,0,0,0,0,0,0,0,0,0],"id":0,"left_children":[1,3,5,7,9,11,13,-1,-1,-1,-1,-1,-1,-1,-1],"loss_changes":[3.6949478E2,5.2736755E2,7.0366113E2,5.500081E2,6.5924963E2,3.2458746E2,4.0970325E2,0E0,0E0,0E0,0E0,0E0,0E0,0E0,0E0],"parents":[2147483647,0,0,1,1,2,2,3,3,4,4,5,5,6,6],"right_children":[2,4,6,8,10,12,14,-1,-1,-1,-1,-1,-1,-1,-1],"split_conditions":[1.8305912E1,7.14043E1,6.129655E1,7.7E1,3.32E2,1E0,6.2894573E1,1.2418676E-2,-1.6790087E-3,3.3121076E-3,2.1878127E-2,1.1050025E-2,-6.2502516E-3,-3.0213146E-2,-7.764606E-3],"split_indices":[5,4,4,3,0,12,4,0,0,0,0,0,0,0,0],"split_type":[0,0,0,0,0,0,0,0,0,0,0,0,0,0,0],"sum_hessian":[8E3,6.655E3,1.345E3,4.765E3,1.89E3,4.75E2,8.7E2,2.94E2,4.471E3,1.675E3,2.15E2,3.09E2,1.66E2,9E1,7.8E2],"tree_param":{"num_deleted":"0","num_feature":"21","num_nodes":"15","size_leaf_vector":"1"}},{"base_weights":[-7.189806E-7,9.566966E-2,-4.7309285E-1,-7.98676E-2,5.3803605E-1,4.9536806E-1,-1.0018119E0,1.229489E-2,-1.6622278E-3,3.279016E-3,2.166033E-2,6.2027457E-3,-4.8411615E-2,-2.991434E-2,-7.6870373E-3],"categories":[],"categories_nodes":[],"categories_segments":[],"categories_sizes":[],"default_left":[0,0,0,0,0,0,0,0,0,0,0,0,0,0,0],"id":1,"left_children":[1,3,5,7,9,11,13,-1,-1,-1,-1,-1,-1,-1,-1],"loss_changes":[3.621777E2,5.168933E2,6.8970715E2,5.3909467E2,6.4619763E2,3.20289E2,4.0166772E2,0E0,0E0,0E0,0E0,0E0,0E0,0E0,0E0],"parents":[2147483647,0,0,1,1,2,2,3,3,4,4,5,5,6,6],"right_children":[2,4,6,8,10,12,14,-1,-1,-1,-1,-1,-1,-1,-1],"split_conditions":[1.8305912E1,7.14043E1,6.129655E1,7.7E1,3.32E2,3.51E2,6.2894573E1,1.229489E-2,-1.6622278E-3,3.279016E-3,2.166033E-2,6.2027457E-3,-4.8411615E-2,-2.991434E-2,-7.6870373E-3],"split_indices":[5,4,4,3,0,0,4,0,0,0,0,0,0,0,0],"split_type":[0,0,0,0,0,0,0,0,0,0,0,0,0,0,0],"sum_hessian":[8E3,6.655E3,1.345E3,4.765E3,1.89E3,4.75E2,8.7E2,2.94E2,4.471E3,1.675E3,2.15E2,4.65E2,1E1,9E1,7.8E2],"tree_param":{"num_deleted":"0","num_feature":"21","num_nodes":"15","size_leaf_vector":"1"}},{"base_weights":[-5.8205005E-6,1.3267739E-1,-3.398331E-1,4.2210564E-1,-1.4114036E-1,-5.3198916E-1,3.9970607E-1,8.879337E-4,9.578697E-3,-4.718227E-3,2.8154925E-3,-7.2939917E-3,6.5455767E-3,2.4280287E-2,-3.4717643E-3],"categories":[],"categories_nodes":[],"categories_segments":[],"categories_sizes":[],"default_left":[0,0,0,0,0,0,0,0,0,0,0,0,0,0,0],"id":2,"left_children":[1,3,5,7,9,11,13,-1,-1,-1,-1,-1,-1,-1,-1],"loss_changes":[3.608052E2,4.5614673E2,3.195269E2,4.9957266E2,4.1359018E2,4.1835507E2,7.037653E2,0E0,0E0,0E0,0E0,0E0,0E0,0E0,0E0],"parents":[2147483647,0,0,1,1,2,2,3,3,4,4,5,5,6,6],"right_children":[2,4,6,8,10,12,14,-1,-1,-1,-1,-1,-1,-1,-1],"split_conditions":[9.7E1,1.4829477E1,1E0,7.1E1,8.7E1,1.04E2,5.4E1,8.879337E-4,9.578697E-3,-4.718227E-3,2.8154925E-3,-7.2939917E-3,6.5455767E-3,2.4280287E-2,-3.4717643E-3],"split_indices":[3,5,13,1,3,3,1,0,0,0,0,0,0,0,0],"split_type":[0,0,0,0,0,0,0,0,0,0,0,0,0,0,0],"sum_hessian":[8E3,5.754E3,2.246E3,2.797E3,2.957E3,1.783E3,4.63E2,1.725E3,1.072E3,1.659E3,1.298E3,1.529E3,2.54E2,1.24E2,3.39E2],"tree_param":{"num_deleted":"0","num_feature":"21","num_nodes":"15","size_leaf_vector":"1"}},{"base_weights":[-1.7116314E-6,1.3135281E-1,-3.3642596E-1,4.178916E-1,-1.3973132E-1,-5.2667E-1,3.9575452E-1,8.7908877E-4,9.4830375E-3,-4.671105E-3,2.7873614E-3,-7.2211027E-3,6.4803734E-3,2.4039464E-2,-3.4371524E-3],"categories":[],"categories_nodes":[],"categories_segments":[],"categories_sizes":[],"default_left":[0,0,0,0,0,0,0,0,0,0,0,0,0,0,0],"id":3,"left_children":[1,3,5,7,9,11,13,-1,-1,-1,-1,-1,-1,-1,-1],"loss_changes":[3.5361517E2,4.470844E2,3.131997E2,4.8964185E2,4.05369E2,4.1004794E2,6.89865E2,0E0,0E0,0E0,0E0,0E0,0E0,0E0,0E0],"parents":[2147483647,0,0,1,1,2,2,3,3,4,4,5,5,6,6],"right_children":[2,4,6,8,10,12,14,-1,-1,-1,-1,-1,-1,-1,-1],"split_conditions":[9.7E1,1.4829477E1,1E0,7.1E1,8.7E1,1.04E2,5.4E1,8.7908877E-4,9.4830375E-3,-4.671105E-3,2.7873614E-3,-7.2211027E-3,6.4803734E-3,2.4039464E-2,-3.4371524E-3],"split_indices":[3,5,13,1,3,3,1,0,0,0,0,0,0,0,0],"split_type":[0,0,0,0,0,0,0,0,0,0,0,0,0,0,0],"sum_hessian":[8E3,5.754E3,2.246E3,2.797E3,2.957E3,1.783E3,4.63E2,1.725E3,1.072E3,1.659E3,1.298E3,1.529E3,2.54E2,1.24E2,3.39E2],"tree_param":{"num_deleted":"0","num_feature":"21","num_nodes":"15","size_leaf_vector":"1"}},{"base_weights":[1.7402381E-6,9.386863E-2,-4.641721E-1,-8.0030516E-2,5.3210735E-1,4.9416634E-1,-9.873695E-1,1.216027E-2,-1.6550836E-3,3.2416221E-3,2.1431439E-2,1.0929271E-2,-6.202648E-3,-2.9558057E-2,-7.5674844E-3],"categories":[],"categories_nodes":[],"categories_segments":[],"categories_sizes":[],"default_left":[0,0,0,0,0,0,0,0,0,0,0,0,0,0,0],"id":4,"left_children":[1,3,5,7,9,11,13,-1,-1,-1,-1,-1,-1,-1,-1],"loss_changes":[3.4865158E2,5.0729193E2,6.7537256E2,5.281987E2,6.328039E2,3.183021E2,3.9316492E2,0E0,0E0,0E0,0E0,0E0,0E0,0E0,0E0],"parents":[2147483647,0,0,1,1,2,2,3,3,4,4,5,5,6,6],"right_children":[2,4,6,8,10,12,14,-1,-1,-1,-1,-1,-1,-1,-1],"split_conditions":[1.8305912E1,7.14043E1,6.129655E1,7.7E1,3.32E2,1E0,6.2894573E1,1.216027E-2,-1.6550836E-3,3.2416221E-3,2.1431439E-2,1.0929271E-2,-6.202648E-3,-2.9558057E-2,-7.5674844E-3],"split_indices":[5,4,4,3,0,12,4,0,0,0,0,0,0,0,0],"split_type":[0,0,0,0,0,0,0,0,0,0,0,0,0,0,0],"sum_hessian":[8E3,6.655E3,1.345E3,4.765E3,1.89E3,4.75E2,8.7E2,2.94E2,4.471E3,1.675E3,2.15E2,3.09E2,1.66E2,9E1,7.8E2],"tree_param":{"num_deleted":"0","num_feature":"21","num_nodes":"15","size_leaf_vector":"1"}},{"base_weights":[2.066354E-6,1.2978543E-1,-3.3239815E-1,4.1247326E-1,-1.3765551E-1,-5.206786E-1,3.9222392E-1,8.573187E-4,9.376766E-3,-4.6205977E-3,2.7700868E-3,-7.14154E-3,6.4221583E-3,2.3805762E-2,-3.3994147E-3],"categories":[],"categories_nodes":[],"categories_segments":[],"categories_sizes":[],"default_left":[0,0,0,0,0,0,0,0,0,0,0,0,0,0,0],"id":5,"left_children":[1,3,5,7,9,11,13,-1,-1,-1,-1,-1,-1,-1,-1],"loss_changes":[3.4520645E2,4.35148E2,3.067672E2,4.8007227E2,3.9803473E2,4.018434E2,6.763017E2,0E0,0E0,0E0,0E0,0E0,0E0,0E0,0E0],"parents":[2147483647,0,0,1,1,2,2,3,3,4,4,5,5,6,6],"right_children":[2,4,6,8,10,12,14,-1,-1,-1,-1,-1,-1,-1,-1],"split_conditions":[9.7E1,1.4829477E1,1E0,7.1E1,8.7E1,1.04E2,5.4E1,8.573187E-4,9.376766E-3,-4.6205977E-3,2.7700868E-3,-7.14154E-3,6.4221583E-3,2.3805762E-2,-3.3994147E-3],"split_indices":[3,5,13,1,3,3,1,0,0,0,0,0,0,0,0],"split_type":[0,0,0,0,0,0,0,0,0,0,0,0,0,0,0],"sum_hessian":[8E3,5.754E3,2.246E3,2.797E3,2.957E3,1.783E3,4.63E2,1.725E3,1.072E3,1.659E3,1.298E3,1.529E3,2.54E2,1.24E2,3.39E2],"tree_param":{"num_deleted":"0","num_feature":"21","num_nodes":"15","size_leaf_vector":"1"}},{"base_weights":[6.912321E-6,9.251904E-2,-4.574676E-1,-7.97005E-2,5.2652526E-1,4.9111903E-1,-9.7534335E-1,1.2033213E-2,-1.6431852E-3,3.206973E-3,2.1211602E-2,6.1481413E-3,-4.7937028E-2,-2.9236015E-2,-7.470887E-3],"categories":[],"categories_nodes":[],"categories_segments":[],"categories_sizes":[],"default_left":[0,0,0,0,0,0,0,0,0,0,0,0,0,0,0],"id":6,"left_children":[1,3,5,7,9,11,13,-1,-1,-1,-1,-1,-1,-1,-1],"loss_changes":[3.3866016E2,4.9754037E2,6.6170154E2,5.176269E2,6.1998456E2,3.1411163E2,3.8514856E2,0E0,0E0,0E0,0E0,0E0,0E0,0E0,0E0],"parents":[2147483647,0,0,1,1,2,2,3,3,4,4,5,5,6,6],"right_children":[2,4,6,8,10,12,14,-1,-1,-1,-1,-1,-1,-1,-1],"split_conditions":[1.8305912E1,7.14043E1,6.129655E1,7.7E1,3.32E2,3.51E2,6.2894573E1,1.2033213E-2,-1.6431852E-3,3.206973E-3,2.1211602E-2,6.1481413E-3,-4.7937028E-2,-2.9236015E-2,-7.470887E-3],"split_indices":[5,4,4,3,0,0,4,0,0,0,0,0,0,0,0],"split_type":[0,0,0,0,0,0,0,0,0,0,0,0,0,0,0],"sum_hessian":[8E3,6.655E3,1.345E3,4.765E3,1.89E3,4.75E2,8.7E2,2.94E2,4.471E3,1.675E3,2.15E2,4.65E2,1E1,9E1,7.8E2],"tree_param":{"num_deleted":"0","num_feature":"21","num_nodes":"15","size_leaf_vector":"1"}},{"base_weights":[2.0596791E-7,1.2824267E-1,-3.2845345E-1,4.0712544E-1,-1.3559853E-1,-5.1478416E-1,3.886638E-1,5.620058E-4,8.868533E-3,-4.57032E-3,2.752676E-3,-7.0631E-3,6.3639013E-3,2.3572154E-2,-3.3621152E-3],"categories":[],"categories_nodes":[],"categories_segments":[],"categories_sizes":[],"default_left":[0,0,0,0,0,0,0,0,0,0,0,0,0,0,0],"id":7,"left_children":[1,3,5,7,9,11,13,-1,-1,-1,-1,-1,-1,-1,-1],"loss_changes":[3.3705786E2,4.235125E2,3.0044635E2,4.7098907E2,3.9077737E2,3.9378528E2,6.6289935E2,0E0,0E0,0E0,0E0,0E0,0E0,0E0,0E0],"parents":[2147483647,0,0,1,1,2,2,3,3,4,4,5,5,6,6],"right_children":[2,4,6,8,10,12,14,-1,-1,-1,-1,-1,-1,-1,-1],"split_conditions":[9.7E1,1.4829477E1,1E0,6.9E1,8.7E1,1.04E2,5.4E1,5.620058E-4,8.868533E-3,-4.57032E-3,2.752676E-3,-7.0631E-3,6.3639013E-3,2.3572154E-2,-3.3621152E-3],"split_indices":[3,5,13,1,3,3,1,0,0,0,0,0,0,0,0],"split_type":[0,0,0,0,0,0,0,0,0,0,0,0,0,0,0],"sum_hessian":[8E3,5.754E3,2.246E3,2.797E3,2.957E3,1.783E3,4.63E2,1.616E3,1.181E3,1.659E3,1.298E3,1.529E3,2.54E2,1.24E2,3.39E2],"tree_param":{"num_deleted":"0","num_feature":"21","num_nodes":"15","size_leaf_vector":"1"}},{"base_weights":[3.6521162E-6,1.2696105E-1,-3.2515872E-1,4.0305743E-1,-1.3424401E-1,-2.3995377E-1,-1.8883638E0,8.250536E-4,9.183135E-3,-4.5246473E-3,2.7251553E-3,-1.4608088E-2,-1.0650627E-3,-1.3639023E-2,-9.8601356E-2],"categories":[],"categories_nodes":[],"categories_segments":[],"categories_sizes":[],"default_left":[0,0,0,0,0,0,0,0,0,0,0,0,0,0,0],"id":8,"left_children":[1,3,5,7,9,11,13,-1,-1,-1,-1,-1,-1,-1,-1],"loss_changes":[3.3033673E2,4.1509186E2,2.9883115E2,4.6205975E2,3.830048E2,3.4719E2,4.7153473E2,0E0,0E0,0E0,0E0,0E0,0E0,0E0,0E0],"parents":[2147483647,0,0,1,1,2,2,3,3,4,4,5,5,6,6],"right_children":[2,4,6,8,10,12,14,-1,-1,-1,-1,-1,-1,-1,-1],"split_conditions":[9.7E1,1.4829477E1,1.9446234E1,7.1E1,8.7E1,1.0982133E1,7.893677E1,8.250536E-4,9.183135E-3,-4.5246473E-3,2.7251553E-3,-1.4608088E-2,-1.0650627E-3,-1.3639023E-2,-9.8601356E-2],"split_indices":[3,5,5,1,3,5,4,0,0,0,0,0,0,0,0],"split_type":[0,0,0,0,0,0,0,0,0,0,0,0,0,0,0],"sum_hessian":[8E3,5.754E3,2.246E3,2.797E3,2.957E3,2.131E3,1.15E2,1.725E3,1.072E3,1.659E3,1.298E3,2.09E2,1.922E3,1.09E2,6E0],"tree_param":{"num_deleted":"0","num_feature":"21","num_nodes":"15","size_leaf_vector":"1"}},{"base_weights":[-1.0494828E-5,9.060835E-2,-4.481227E-1,-8.000084E-2,5.205569E-1,4.9014542E-1,-9.603701E-1,1.19012315E-2,-1.6376796E-3,3.168529E-3,2.0987395E-2,1.7546641E-3,2.588559E-2,-2.8891742E-2,-7.344014E-3],"categories":[],"categories_nodes":[],"categories_segments":[],"categories_sizes":[],"default_left":[0,0,0,0,0,0,0,0,0,0,0,0,0,0,0],"id":9,"left_children":[1,3,5,7,9,11,13,-1,-1,-1,-1,-1,-1,-1,-1],"loss_changes":[3.2494052E2,4.8828043E2,6.473925E2,5.0727173E2,6.0725775E2,3.1386127E2,3.7750305E2,0E0,0E0,0E0,0E0,0E0,0E0,0E0,0E0],"parents":[2147483647,0,0,1,1,2,2,3,3,4,4,5,5,6,6],"right_children":[2,4,6,8,10,12,14,-1,-1,-1,-1,-1,-1,-1,-1],"split_conditions":[1.8305912E1,7.14043E1,6.129655E1,7.7E1,3.32E2,1.02E2,6.2894573E1,1.19012315E-2,-1.6376796E-3,3.168529E-3,2.0987395E-2,1.7546641E-3,2.588559E-2,-2.8891742E-2,-7.344014E-3],"split_indices":[5,4,4,3,0,3,4,0,0,0,0,0,0,0,0],"split_type":[0,0,0,0,0,0,0,0,0,0,0,0,0,0,0],"sum_hessian":[8E3,6.655E3,1.345E3,4.765E3,1.89E3,4.75E2,8.7E2,2.94E2,4.471E3,1.675E3,2.15E2,4.14E2,6.1E1,9E1,7.8E2],"tree_param":{"num_deleted":"0","num_feature":"21","num_nodes":"15","size_leaf_vector":"1"}},{"base_weights":[-4.9527653E-6,1.25643E-1,-3.2181355E-1,3.9782688E-1,-1.3186076E-1,-5.06342E-1,3.8836002E-1,5.3550967E-4,8.684667E-3,-4.471963E-3,2.7120996E-3,-6.9569773E-3,6.3177804E-3,2.3364583E-2,-3.289949E-3],"categories":[],"categories_nodes":[],"categories_segments":[],"categories_sizes":[],"default_left":[0,0,0,0,0,0,0,0,0,0,0,0,0,0,0],"id":10,"left_children":[1,3,5,7,9,11,13,-1,-1,-1,-1,-1,-1,-1,-1],"loss_changes":[3.2355762E2,4.0341104E2,2.9465973E2,4.5331326E2,3.7609055E2,3.8490854E2,6.491985E2,0E0,0E0,0E0,0E0,0E0,0E0,0E0,0E0],"parents":[2147483647,0,0,1,1,2,2,3,3,4,4,5,5,6,6],"right_children":[2,4,6,8,10,12,14,-1,-1,-1,-1,-1,-1,-1,-1],"split_conditions":[9.7E1,1.4829477E1,1E0,6.9E1,8.7E1,1.04E2,5.4E1,5.3550967E-4,8.684667E-3,-4.471963E-3,2.7120996E-3,-6.9569773E-3,6.3177804E-3,2.3364583E-2,-3.289949E-3],"split_indices":[3,5,13,1,3,3,1,0,0,0,0,0,0,0,0],"split_type":[0,0,0,0,0,0,0,0,0,0,0,0,0,0,0],"sum_hessian":[8E3,5.754E3,2.246E3,2.797E3,2.957E3,1.783E3,4.63E2,1.616E3,1.181E3,1.659E3,1.298E3,1.529E3,2.54E2,1.24E2,3.39E2],"tree_param":{"num_deleted":"0","num_feature":"21","num_nodes":"15","size_leaf_vector":"1"}},{"base_weights":[-3.3469786E-7,1.2438927E-1,-3.1858608E-1,3.9385375E-1,-1.3054177E-1,-1.4435545E0,-2.0251052E-1,7.937533E-4,8.993485E-3,-4.4272817E-3,2.685036E-3,-6.003074E-2,-9.3201E-3,-1.0215287E-3,-1.8644523E-2],"categories":[],"categories_nodes":[],"categories_segments":[],"categories_sizes":[],"default_left":[0,0,0,0,0,0,0,0,0,0,0,0,0,0,0],"id":11,"left_children":[1,3,5,7,9,11,13,-1,-1,-1,-1,-1,-1,-1,-1],"loss_changes":[3.1710928E2,3.9539032E2,2.931239E2,4.4471884E2,3.6861624E2,4.8420856E2,3.3972464E2,0E0,0E0,0E0,0E0,0E0,0E0,0E0,0E0],"parents":[2147483647,0,0,1,1,2,2,3,3,4,4,5,5,6,6],"right_children":[2,4,6,8,10,12,14,-1,-1,-1,-1,-1,-1,-1,-1],"split_conditions":[9.7E1,1.4829477E1,1.0982133E1,7.1E1,8.7E1,5.3466553E1,1.9446234E1,7.937533E-4,8.993485E-3,-4.4272817E-3,2.685036E-3,-6.003074E-2,-9.3201E-3,-1.0215287E-3,-1.8644523E-2],"split_indices":[3,5,5,1,3,4,5,0,0,0,0,0,0,0,0],"split_type":[0,0,0,0,0,0,0,0,0,0,0,0,0,0,0],"sum_hessian":[8E3,5.754E3,2.246E3,2.797E3,2.957E3,2.09E2,2.037E3,1.725E3,1.072E3,1.659E3,1.298E3,2E1,1.89E2,1.922E3,1.15E2],"tree_param":{"num_deleted":"0","num_feature":"21","num_nodes":"15","size_leaf_vector":"1"}},{"base_weights":[-1.0860039E-5,8.873312E-2,-4.3885183E-1,-8.0218405E-2,5.145048E-1,4.89661E-1,-9.4577867E-1,1.1770868E-2,-1.6313988E-3,3.1290026E-3,2.0764245E-2,1.08277025E-2,-6.1425217E-3,-2.7986852E-2,-7.153343E-3],"categories":[],"categories_nodes":[],"categories_segments":[],"categories_sizes":[],"default_left":[0,0,0,0,0,0,0,0,0,0,0,0,0,0,0],"id":12,"left_children":[1,3,5,7,9,11,13,-1,-1,-1,-1,-1,-1,-1,-1],"loss_changes":[3.1163385E2,4.7883914E2,6.340093E2,4.9708374E2,5.948075E2,3.1232187E2,3.699079E2,0E0,0E0,0E0,0E0,0E0,0E0,0E0,0E0],"parents":[2147483647,0,0,1,1,2,2,3,3,4,4,5,5,6,6],"right_children":[2,4,6,8,10,12,14,-1,-1,-1,-1,-1,-1,-1,-1],"split_conditions":[1.8305912E1,7.14043E1,6.129655E1,7.7E1,3.32E2,1E0,6.300747E1,1.1770868E-2,-1.6313988E-3,3.1290026E-3,2.0764245E-2,1.08277025E-2,-6.1425217E-3,-2.7986852E-2,-7.153343E-3],"split_indices":[5,4,4,3,0,12,4,0,0,0,0,0,0,0,0],"split_type":[0,0,0,0,0,0,0,0,0,0,0,0,0,0,0],"sum_hessian":[8E3,6.655E3,1.345E3,4.765E3,1.89E3,4.75E2,8.7E2,2.94E2,4.471E3,1.675E3,2.15E2,3.09E2,1.66E2,9.5E1,7.75E2],"tree_param":{"num_deleted":"0","num_feature":"21","num_nodes":"15","size_leaf_vector":"1"}},{"base_weights":[-9.1999E-6,1.2290355E-1,-3.1481242E-1,3.8873553E-1,-1.2859097E-1,-4.9745664E-1,3.8810158E-1,5.098335E-4,8.504584E-3,2.9597882E-2,-1.6872443E-3,-6.8477015E-3,6.2837517E-3,2.3167381E-2,-3.2209747E-3],"categories":[],"categories_nodes":[],"categories_segments":[],"categories_sizes":[],"default_left":[0,0,0,0,0,0,0,0,0,0,0,0,0,0,0],"id":13,"left_children":[1,3,5,7,9,11,13,-1,-1,-1,-1,-1,-1,-1,-1],"loss_changes":[3.0962402E2,3.8480212E2,2.8867004E2,4.3629895E2,3.6713556E2,3.7664642E2,6.3629443E2,0E0,0E0,0E0,0E0,0E0,0E0,0E0,0E0],"parents":[2147483647,0,0,1,1,2,2,3,3,4,4,5,5,6,6],"right_children":[2,4,6,8,10,12,14,-1,-1,-1,-1,-1,-1,-1,-1],"split_conditions":[9.7E1,1.4829477E1,1E0,6.9E1,5.036854E1,1.04E2,5.4E1,5.098335E-4,8.504584E-3,2.9597882E-2,-1.6872443E-3,-6.8477015E-3,6.2837517E-3,2.3167381E-2,-3.2209747E-3],"split_indices":[3,5,13,1,4,3,1,0,0,0,0,0,0,0,0],"split_type":[0,0,0,0,0,0,0,0,0,0,0,0,0,0,0],"sum_hessian":[8E3,5.754E3,2.246E3,2.797E3,2.957E3,1.783E3,4.63E2,1.616E3,1.181E3,3.7E1,2.92E3,1.529E3,2.54E2,1.24E2,3.39E2],"tree_param":{"num_deleted":"0","num_feature":"21","num_nodes":"15","size_leaf_vector":"1"}},{"base_weights":[-2.5955771E-6,1.21679544E-1,-3.11654E-1,3.848497E-1,-1.2729672E-1,-1.4267887E0,-1.9659515E-1,7.632929E-4,8.807689E-3,-4.366317E-3,2.6810234E-3,-5.939773E-2,-9.2047565E-3,-9.748658E-4,-1.8378811E-2],"categories":[],"categories_nodes":[],"categories_segments":[],"categories_sizes":[],"default_left":[0,0,0,0,0,0,0,0,0,0,0,0,0,0,0],"id":14,"left_children":[1,3,5,7,9,11,13,-1,-1,-1,-1,-1,-1,-1,-1],"loss_changes":[3.0345514E2,3.7713452E2,2.8802332E2,4.280302E2,3.6191232E2,4.7437894E2,3.3133313E2,0E0,0E0,0E0,0E0,0E0,0E0,0E0,0E0],"parents":[2147483647,0,0,1,1,2,2,3,3,4,4,5,5,6,6],"right_children":[2,4,6,8,10,12,14,-1,-1,-1,-1,-1,-1,-1,-1],"split_conditions":[9.7E1,1.4829477E1,1.0982133E1,7.1E1,8.7E1,5.3466553E1,1.9446234E1,7.632929E-4,8.807689E-3,-4.366317E-3,2.6810234E-3,-5.939773E-2,-9.2047565E-3,-9.748658E-4,-1.8378811E-2],"split_indices":[3,5,5,1,3,4,5,0,0,0,0,0,0,0,0],"split_type":[0,0,0,0,0,0,0,0,0,0,0,0,0,0,0],"sum_hessian":[8E3,5.754E3,2.246E3,2.797E3,2.957E3,2.09E2,2.037E3,1.725E3,1.072E3,1.659E3,1.298E3,2E1,1.89E2,1.922E3,1.15E2],"tree_param":{"num_deleted":"0","num_feature":"21","num_nodes":"15","size_leaf_vector":"1"}},{"base_weights":[-1.1704889E-5,8.6922854E-2,-4.2990503E-1,-8.039702E-2,5.085831E-1,4.8846063E-1,-9.312967E-1,1.1628396E-2,-1.6239039E-3,3.0904647E-3,2.0544851E-2,1.7622994E-3,2.5705134E-2,-2.8219858E-2,-7.0980624E-3],"categories":[],"categories_nodes":[],"categories_segments":[],"categories_sizes":[],"default_left":[0,0,0,0,0,0,0,0,0,0,0,0,0,0,0],"id":15,"left_children":[1,3,5,7,9,11,13,-1,-1,-1,-1,-1,-1,-1,-1],"loss_changes":[2.9905542E2,4.696359E2,6.202353E2,4.8602148E2,5.8267065E2,3.089854E2,3.6274518E2,0E0,0E0,0E0,0E0,0E0,0E0,0E0,0E0],"parents":[2147483647,0,0,1,1,2,2,3,3,4,4,5,5,6,6],"right_children":[2,4,6,8,10,12,14,-1,-1,-1,-1,-1,-1,-1,-1],"split_conditions":[1.8305912E1,7.14043E1,6.129655E1,7.7E1,3.32E2,1.02E2,6.2894573E1,1.1628396E-2,-1.6239039E-3,3.0904647E-3,2.0544851E-2,1.7622994E-3,2.5705134E-2,-2.8219858E-2,-7.0980624E-3],"split_indices":[5,4,4,3,0,3,4,0,0,0,0,0,0,0,0],"split_type":[0,0,0,0,0,0,0,0,0,0,0,0,0,0,0],"sum_hessian":[8E3,6.655E3,1.345E3,4.765E3,1.89E3,4.75E2,8.7E2,2.94E2,4.471E3,1.675E3,2.15E2,4.14E2,6.1E1,9E1,7.8E2],"tree_param":{"num_deleted":"0","num_feature":"21","num_nodes":"15","size_leaf_vector":"1"}},{"base_weights":[-7.829641E-6,1.2041696E-1,-3.0843893E-1,3.7984475E-1,-1.2501894E-1,-4.8923865E-1,3.8736954E-1,4.8491065E-4,8.32822E-3,2.931085E-2,-1.6473373E-3,-8.000933E-3,1.7938609E-3,2.2963336E-2,-3.1559472E-3],"categories":[],"categories_nodes":[],"categories_segments":[],"categories_sizes":[],"default_left":[0,0,0,0,0,0,0,0,0,0,0,0,0,0,0],"id":16,"left_children":[1,3,5,7,9,11,13,-1,-1,-1,-1,-1,-1,-1,-1],"loss_changes":[2.972163E2,3.6648502E2,2.8286652E2,4.199273E2,3.5950287E2,3.7093924E2,6.233818E2,0E0,0E0,0E0,0E0,0E0,0E0,0E0,0E0],"parents":[2147483647,0,0,1,1,2,2,3,3,4,4,5,5,6,6],"right_children":[2,4,6,8,10,12,14,-1,-1,-1,-1,-1,-1,-1,-1],"split_conditions":[9.7E1,1.4829477E1,1E0,6.9E1,5.036854E1,1E0,5.4E1,4.8491065E-4,8.32822E-3,2.931085E-2,-1.6473373E-3,-8.000933E-3,1.7938609E-3,2.2963336E-2,-3.1559472E-3],"split_indices":[3,5,13,1,4,19,1,0,0,0,0,0,0,0,0],"split_type":[0,0,0,0,0,0,0,0,0,0,0,0,0,0,0],"sum_hessian":[8E3,5.754E3,2.246E3,2.797E3,2.957E3,1.783E3,4.63E2,1.616E3,1.181E3,3.7E1,2.92E3,1.217E3,5.66E2,1.24E2,3.39E2],"tree_param":{"num_deleted":"0","num_feature":"21","num_nodes":"15","size_leaf_vector":"1"}},{"base_weights":[-1.8994818E-6,1.1921786E-1,-3.0534667E-1,3.760462E-1,-1.2375881E-1,-1.410194E0,-1.9135094E-1,7.3368195E-4,8.625758E-3,-4.3026106E-3,2.680176E-3,-5.8780693E-2,-9.089542E-3,-9.3292486E-4,-1.8152738E-2],"categories":[],"categories_nodes":[],"categories_segments":[],"categories_sizes":[],"default_left":[0,0,0,0,0,0,0,0,0,0,0,0,0,0,0],"id":17,"left_children":[1,3,5,7,9,11,13,-1,-1,-1,-1,-1,-1,-1,-1],"loss_changes":[2.9129785E2,3.5917752E2,2.8273505E2,4.1197522E2,3.55313E2,4.6494736E2,3.243605E2,0E0,0E0,0E0,0E0,0E0,0E0,0E0,0E0],"parents":[2147483647,0,0,1,1,2,2,3,3,4,4,5,5,6,6],"right_children":[2,4,6,8,10,12,14,-1,-1,-1,-1,-1,-1,-1,-1],"split_conditions":[9.7E1,1.4829477E1,1.0982133E1,7.1E1,8.7E1,5.3466553E1,1.9446234E1,7.3368195E-4,8.625758E-3,-4.3026106E-3,2.680176E-3,-5.8780693E-2,-9.089542E-3,-9.3292486E-4,-1.8152738E-2],"split_indices":[3,5,5,1,3,4,5,0,0,0,0,0,0,0,0],"split_type":[0,0,0,0,0,0,0,0,0,0,0,0,0,0,0],"sum_hessian":[8E3,5.754E3,2.246E3,2.797E3,2.957E3,2.09E2,2.037E3,1.725E3,1.072E3,1.659E3,1.298E3,2E1,1.89E2,1.922E3,1.15E2],"tree_param":{"num_deleted":"0","num_feature":"21","num_nodes":"15","size_leaf_vector":"1"}},{"base_weights":[-1.2089172E-5,8.516471E-2,-4.2121324E-1,-4.6991143E-2,6.089942E-1,4.8726678E-1,-9.172124E-1,3.8964415E-4,-7.489299E-3,4.835501E-2,4.886955E-3,6.097303E-3,-4.7450297E-2,-2.7342997E-2,-6.9123614E-3],"categories":[],"categories_nodes":[],"categories_segments":[],"categories_sizes":[],"default_left":[0,0,0,0,0,0,0,0,0,0,0,0,0,0,0],"id":18,"left_children":[1,3,5,7,9,11,13,-1,-1,-1,-1,-1,-1,-1,-1],"loss_changes":[2.870843E2,4.608044E2,6.069617E2,3.2077292E2,6.794591E2,3.0789752E2,3.557588E2,0E0,0E0,0E0,0E0,0E0,0E0,0E0,0E0],"parents":[2147483647,0,0,1,1,2,2,3,3,4,4,5,5,6,6],"right_children":[2,4,6,8,10,12,14,-1,-1,-1,-1,-1,-1,-1,-1],"split_conditions":[1.8305912E1,7.391581E1,6.129655E1,1.02E2,1.0243761E1,3.51E2,6.300747E1,3.8964415E-4,-7.489299E-3,4.835501E-2,4.886955E-3,6.097303E-3,-4.7450297E-2,-2.7342997E-2,-6.9123614E-3],"split_indices":[5,4,4,3,5,0,4,0,0,0,0,0,0,0,0],"split_type":[0,0,0,0,0,0,0,0,0,0,0,0,0,0,0],"sum_hessian":[8E3,6.655E3,1.345E3,5.315E3,1.34E3,4.75E2,8.7E2,4.736E3,5.79E2,3.6E1,1.304E3,4.65E2,1E1,9.5E1,7.75E2],"tree_param":{"num_deleted":"0","num_feature":"21","num_nodes":"15","size_leaf_vector":"1"}},{"base_weights":[-1.5622094E-5,1.174519E-1,-3.0087256E-1,3.7057886E-1,-1.22022964E-1,-1.3974587E0,-1.877303E-1,4.5562244E-4,8.148946E-3,2.9007956E-2,-1.6130577E-3,-5.8205783E-2,-9.012326E-3,-9.0771273E-4,-1.7934585E-2],"categories":[],"categories_nodes":[],"categories_segments":[],"categories_sizes":[],"default_left":[0,0,0,0,0,0,0,0,0,0,0,0,0,0,0],"id":19,"left_children":[1,3,5,7,9,11,13,-1,-1,-1,-1,-1,-1,-1,-1],"loss_changes":[2.8279803E2,3.488992E2,2.785235E2,4.0402203E2,3.517151E2,4.5567657E2,3.171331E2,0E0,0E0,0E0,0E0,0E0,0E0,0E0,0E0],"parents":[2147483647,0,0,1,1,2,2,3,3,4,4,5,5,6,6],"right_children":[2,4,6,8,10,12,14,-1,-1,-1,-1,-1,-1,-1,-1],"split_conditions":[9.7E1,1.4829477E1,1.0982133E1,6.9E1,5.036854E1,5.3466553E1,1.9446234E1,4.5562244E-4,8.148946E-3,2.9007956E-2,-1.6130577E-3,-5.8205783E-2,-9.012326E-3,-9.0771273E-4,-1.7934585E-2],"split_indices":[3,5,5,1,4,4,5,0,0,0,0,0,0,0,0],"split_type":[0,0,0,0,0,0,0,0,0,0,0,0,0,0,0],"sum_hessian":[8E3,5.754E3,2.246E3,2.797E3,2.957E3,2.09E2,2.037E3,1.616E3,1.181E3,3.7E1,2.92E3,2E1,1.89E2,1.922E3,1.15E2],"tree_param":{"num_deleted":"0","num_feature":"21","num_nodes":"15","size_leaf_vector":"1"}},{"base_weights":[-2.3202856E-5,8.380049E-2,-4.145332E-1,-8.058982E-2,4.9807888E-1,4.841448E-1,-9.0518326E-1,1.1465137E-2,-1.6151892E-3,3.0054122E-3,2.028519E-2,1.0714765E-2,-6.0901064E-3,-4.6389685E-3,-1.8300768E-2],"categories":[],"categories_nodes":[],"categories_segments":[],"categories_sizes":[],"default_left":[0,0,0,0,0,0,0,0,0,0,0,0,0,0,0],"id":20,"left_children":[1,3,5,7,9,11,13,-1,-1,-1,-1,-1,-1,-1,-1],"loss_changes":[2.7803555E2,4.5333606E2,5.9393866E2,4.7348892E2,5.7107654E2,3.0626587E2,3.546435E2,0E0,0E0,0E0,0E0,0E0,0E0,0E0,0E0],"parents":[2147483647,0,0,1,1,2,2,3,3,4,4,5,5,6,6],"right_children":[2,4,6,8,10,12,14,-1,-1,-1,-1,-1,-1,-1,-1],"split_conditions":[1.8305912E1,7.14043E1,6.129655E1,7.7E1,3.32E2,1E0,1E0,1.1465137E-2,-1.6151892E-3,3.0054122E-3,2.028519E-2,1.0714765E-2,-6.0901064E-3,-4.6389685E-3,-1.8300768E-2],"split_indices":[5,4,4,3,0,12,18,0,0,0,0,0,0,0,0],"split_type":[0,0,0,0,0,0,0,0,0,0,0,0,0,0,0],"sum_hessian":[8E3,6.655E3,1.345E3,4.765E3,1.89E3,4.75E2,8.7E2,2.94E2,4.471E3,1.675E3,2.15E2,3.09E2,1.66E2,5.9E2,2.8E2],"tree_param":{"num_deleted":"0","num_feature":"21","num_nodes":"15","size_leaf_vector":"1"}},{"base_weights":[-1.9954094E-5,1.1602467E-1,-2.972326E-1,3.657491E-1,-1.2023123E-1,-4.7609758E-1,3.91113E-1,6.88284E-4,8.430271E-3,-4.238752E-3,2.6788982E-3,-6.6141654E-3,6.3768304E-3,2.2804387E-2,-3.0464234E-3],"categories":[],"categories_nodes":[],"categories_segments":[],"categories_sizes":[],"default_left":[0,0,0,0,0,0,0,0,0,0,0,0,0,0,0],"id":21,"left_children":[1,3,5,7,9,11,13,-1,-1,-1,-1,-1,-1,-1,-1],"loss_changes":[2.7598843E2,3.395825E2,2.7683896E2,3.96457E2,3.487157E2,3.686476E2,6.106267E2,0E0,0E0,0E0,0E0,0E0,0E0,0E0,0E0],"parents":[2147483647,0,0,1,1,2,2,3,3,4,4,5,5,6,6],"right_children":[2,4,6,8,10,12,14,-1,-1,-1,-1,-1,-1,-1,-1],"split_conditions":[9.7E1,1.4829477E1,1E0,7.1E1,8.7E1,1.04E2,5.4E1,6.88284E-4,8.430271E-3,-4.238752E-3,2.6788982E-3,-6.6141654E-3,6.3768304E-3,2.2804387E-2,-3.0464234E-3],"split_indices":[3,5,13,1,3,3,1,0,0,0,0,0,0,0,0],"split_type":[0,0,0,0,0,0,0,0,0,0,0,0,0,0,0],"sum_hessian":[8E3,5.754E3,2.246E3,2.797E3,2.957E3,1.783E3,4.63E2,1.725E3,1.072E3,1.659E3,1.298E3,1.529E3,2.54E2,1.24E2,3.39E2],"tree_param":{"num_deleted":"0","num_feature":"21","num_nodes":"15","size_leaf_vector":"1"}},{"base_weights":[-1.5262603E-5,9.6179664E-2,-3.5291708E-1,2.0729445E-1,-4.52665E-1,-2.2261365E-1,-2.09755E0,-9.4265495E-5,6.754437E-3,6.5177894E-4,-1.2132854E-2,7.207612E-4,-1.1497341E-2,1.6118118E-3,-4.041165E-2],"categories":[],"categories_nodes":[],"categories_segments":[],"categories_sizes":[],"default_left":[0,0,0,0,0,0,0,0,0,0,0,0,0,0,0],"id":22,"left_children":[1,3,5,7,9,11,13,-1,-1,-1,-1,-1,-1,-1,-1],"loss_changes":[2.716468E2,3.8356595E2,3.8917944E2,5.3063043E2,4.1719998E2,4.3613074E2,5.230738E2,0E0,0E0,0E0,0E0,0E0,0E0,0E0,0E0],"parents":[2147483647,0,0,1,1,2,2,3,3,4,4,5,5,6,6],"right_children":[2,4,6,8,10,12,14,-1,-1,-1,-1,-1,-1,-1,-1],"split_conditions":[9.9E1,1.8305912E1,3.42E2,7.070152E1,6.868041E1,1E0,6E1,-9.4265495E-5,6.754437E-3,6.5177894E-4,-1.2132854E-2,7.207612E-4,-1.1497341E-2,1.6118118E-3,-4.041165E-2],"split_indices":[3,5,0,4,4,8,1,0,0,0,0,0,0,0,0],"split_type":[0,0,0,0,0,0,0,0,0,0,0,0,0,0,0],"sum_hessian":[8E3,6.287E3,1.713E3,5.229E3,1.058E3,1.595E3,1.18E2,3.575E3,1.654E3,6.3E2,4.28E2,1.211E3,3.84E2,5.5E1,6.3E1],"tree_param":{"num_deleted":"0","num_feature":"21","num_nodes":"15","size_leaf_vector":"1"}},{"base_weights":[-2.1899346E-5,9.521638E-2,-3.4941414E-1,2.0522168E-1,-4.4814807E-1,-2.203915E-1,-2.076899E0,-9.335023E-5,6.6869576E-3,6.453042E-4,-1.2011831E-2,7.135954E-4,-1.13826655E-2,1.5960012E-3,-4.0013842E-2],"categories":[],"categories_nodes":[],"categories_segments":[],"categories_sizes":[],"default_left":[0,0,0,0,0,0,0,0,0,0,0,0,0,0,0],"id":23,"left_children":[1,3,5,7,9,11,13,-1,-1,-1,-1,-1,-1,-1,-1],"loss_changes":[2.6627066E2,3.7594446E2,3.815666E2,5.2008514E2,4.089202E2,4.2747565E2,5.1282764E2,0E0,0E0,0E0,0E0,0E0,0E0,0E0,0E0],"parents":[2147483647,0,0,1,1,2,2,3,3,4,4,5,5,6,6],"right_children":[2,4,6,8,10,12,14,-1,-1,-1,-1,-1,-1,-1,-1],"split_conditions":[9.9E1,1.8305912E1,3.42E2,7.070152E1,6.868041E1,1E0,6E1,-9.335023E-5,6.6869576E-3,6.453042E-4,-1.2011831E-2,7.135954E-4,-1.13826655E-2,1.5960012E-3,-4.0013842E-2],"split_indices":[3,5,0,4,4,8,1,0,0,0,0,0,0,0,0],"split_type":[0,0,0,0,0,0,0,0,0,0,0,0,0,0,0],"sum_hessian":[8E3,6.287E3,1.713E3,5.229E3,1.058E3,1.595E3,1.18E2,3.575E3,1.654E3,6.3E2,4.28E2,1.211E3,3.84E2,5.5E1,6.3E1],"tree_param":{"num_deleted":"0","num_feature":"21","num_nodes":"15","size_leaf_vector":"1"}},{"base_weights":[-2.9382847E-5,1.12973996E-1,-2.894528E-1,7.587906E-1,2.4410244E-2,-1.3763082E0,-1.773188E-1,3.267195E-2,5.7983003E-3,-2.9348873E-3,3.1918662E-3,3.9281346E-2,-1.7752385E-2,-8.179613E-4,-1.7593253E-2],"categories":[],"categories_nodes":[],"categories_segments":[],"categories_sizes":[],"default_left":[0,0,0,0,0,0,0,0,0,0,0,0,0,0,0],"id":24,"left_children":[1,3,5,7,9,11,13,-1,-1,-1,-1,-1,-1,-1,-1],"loss_changes":[2.6171204E2,3.2914417E2,2.736056E2,3.09646E2,4.7444922E2,4.5135495E2,3.078335E2,0E0,0E0,0E0,0E0,0E0,0E0,0E0,0E0],"parents":[2147483647,0,0,1,1,2,2,3,3,4,4,5,5,6,6],"right_children":[2,4,6,8,10,12,14,-1,-1,-1,-1,-1,-1,-1,-1],"split_conditions":[9.7E1,4.6E1,1.0982133E1,1.57E2,6.7E1,1.59E2,1.9446234E1,3.267195E-2,5.7983003E-3,-2.9348873E-3,3.1918662E-3,3.9281346E-2,-1.7752385E-2,-8.179613E-4,-1.7593253E-2],"split_indices":[3,1,5,0,1,0,5,0,0,0,0,0,0,0,0],"split_type":[0,0,0,0,0,0,0,0,0,0,0,0,0,0,0],"sum_hessian":[8E3,5.754E3,2.246E3,6.93E2,5.061E3,2.09E2,2.037E3,4.5E1,6.48E2,2.435E3,2.626E3,1.4E1,1.95E2,1.922E3,1.15E2],"tree_param":{"num_deleted":"0","num_feature":"21","num_nodes":"15","size_leaf_vector":"1"}},{"base_weights":[-2.2555392E-5,8.0660254E-2,-3.9900085E-1,-4.722631E-2,5.8756876E-1,4.827053E-1,-8.803936E-1,-1.2023159E-2,4.0597803E-5,4.770467E-2,4.685229E-3,1.7064156E-3,2.5637336E-2,-2.6920635E-2,-6.5513495E-3],"categories":[],"categories_nodes":[],"categories_segments":[],"categories_sizes":[],"default_left":[0,0,0,0,0,0,0,0,0,0,0,0,0,0,0],"id":25,"left_children":[1,3,5,7,9,11,13,-1,-1,-1,-1,-1,-1,-1,-1],"loss_changes":[2.575899E2,4.3151486E2,5.717306E2,3.149249E2,6.655248E2,3.0868332E2,3.536864E2,0E0,0E0,0E0,0E0,0E0,0E0,0E0,0E0],"parents":[2147483647,0,0,1,1,2,2,3,3,4,4,5,5,6,6],"right_children":[2,4,6,8,10,12,14,-1,-1,-1,-1,-1,-1,-1,-1],"split_conditions":[1.8305912E1,7.391581E1,6.129655E1,1.0380721E1,1.0243761E1,1.02E2,6.300747E1,-1.2023159E-2,4.0597803E-5,4.770467E-2,4.685229E-3,1.7064156E-3,2.5637336E-2,-2.6920635E-2,-6.5513495E-3],"split_indices":[5,4,4,5,5,3,4,0,0,0,0,0,0,0,0],"split_type":[0,0,0,0,0,0,0,0,0,0,0,0,0,0,0],"sum_hessian":[8E3,6.655E3,1.345E3,5.315E3,1.34E3,4.75E2,8.7E2,2.25E2,5.09E3,3.6E1,1.304E3,4.14E2,6.1E1,9.5E1,7.75E2],"tree_param":{"num_deleted":"0","num_feature":"21","num_nodes":"15","size_leaf_vector":"1"}},{"base_weights":[-1.619518E-5,9.371256E-2,-3.4387055E-1,2.0153323E-1,-4.3886143E-1,-2.1617633E-1,-2.0535858E0,-9.6715565E-5,6.577669E-3,6.798719E-4,-1.183343E-2,7.2525075E-4,-1.1244618E-2,1.5964699E-3,-3.9580774E-2],"categories":[],"categories_nodes":[],"categories_segments":[],"categories_sizes":[],"default_left":[0,0,0,0,0,0,0,0,0,0,0,0,0,0,0],"id":26,"left_children":[1,3,5,7,9,11,13,-1,-1,-1,-1,-1,-1,-1,-1],"loss_changes":[2.578968E2,3.6116104E2,3.7375787E2,5.0396265E2,3.9968298E2,4.1858994E2,5.022268E2,0E0,0E0,0E0,0E0,0E0,0E0,0E0,0E0],"parents":[2147483647,0,0,1,1,2,2,3,3,4,4,5,5,6,6],"right_children":[2,4,6,8,10,12,14,-1,-1,-1,-1,-1,-1,-1,-1],"split_conditions":[9.9E1,1.8305912E1,3.42E2,7.070152E1,6.868041E1,1E0,6E1,-9.6715565E-5,6.577669E-3,6.798719E-4,-1.183343E-2,7.2525075E-4,-1.1244618E-2,1.5964699E-3,-3.9580774E-2],"split_indices":[3,5,0,4,4,8,1,0,0,0,0,0,0,0,0],"split_type":[0,0,0,0,0,0,0,0,0,0,0,0,0,0,0],"sum_hessian":[8E3,6.287E3,1.713E3,5.229E3,1.058E3,1.595E3,1.18E2,3.575E3,1.654E3,6.3E2,4.28E2,1.211E3,3.84E2,5.5E1,6.3E1],"tree_param":{"num_deleted":"0","num_feature":"21","num_nodes":"15","size_leaf_vector":"1"}},{"base_weights":[-2.1148899E-5,1.1111977E-1,-2.8467444E-1,7.5048214E-1,2.3441263E-2,-4.6210906E-1,3.981445E-1,3.2367997E-2,5.7309982E-3,-2.9127183E-3,3.1526375E-3,-6.457783E-3,6.417187E-3,2.2644235E-2,-2.8915848E-3],"categories":[],"categories_nodes":[],"categories_segments":[],"categories_sizes":[],"default_left":[0,0,0,0,0,0,0,0,0,0,0,0,0,0,0],"id":27,"left_children":[1,3,5,7,9,11,13,-1,-1,-1,-1,-1,-1,-1,-1],"loss_changes":[2.5315631E2,3.2259814E2,2.7242087E2,3.0421887E2,4.6498776E2,3.6210114E2,5.9582715E2,0E0,0E0,0E0,0E0,0E0,0E0,0E0,0E0],"parents":[2147483647,0,0,1,1,2,2,3,3,4,4,5,5,6,6],"right_children":[2,4,6,8,10,12,14,-1,-1,-1,-1,-1,-1,-1,-1],"split_conditions":[9.7E1,4.6E1,1E0,1.57E2,6.7E1,1.04E2,5.4E1,3.2367997E-2,5.7309982E-3,-2.9127183E-3,3.1526375E-3,-6.457783E-3,6.417187E-3,2.2644235E-2,-2.8915848E-3],"split_indices":[3,1,13,0,1,3,1,0,0,0,0,0,0,0,0],"split_type":[0,0,0,0,0,0,0,0,0,0,0,0,0,0,0],"sum_hessian":[8E3,5.754E3,2.246E3,6.93E2,5.061E3,1.783E3,4.63E2,4.5E1,6.48E2,2.435E3,2.626E3,1.529E3,2.54E2,1.24E2,3.39E2],"tree_param":{"num_deleted":"0","num_feature":"21","num_nodes":"15","size_leaf_vector":"1"}},{"base_weights":[-1.3121872E-5,9.2136405E-2,-3.380739E-1,1.9886765E-1,-4.350558E-1,-2.1160361E-1,-2.031423E0,-1.0346393E-4,6.5080146E-3,6.688752E-4,-1.1723312E-2,7.4176607E-4,-1.1107049E-2,1.5810272E-3,-3.9155174E-2],"categories":[],"categories_nodes":[],"categories_segments":[],"categories_sizes":[],"default_left":[0,0,0,0,0,0,0,0,0,0,0,0,0,0,0],"id":28,"left_children":[1,3,5,7,9,11,13,-1,-1,-1,-1,-1,-1,-1,-1],"loss_changes":[2.4927943E2,3.5389893E2,3.6663766E2,4.94508E2,3.9198303E2,4.1016724E2,4.9152646E2,0E0,0E0,0E0,0E0,0E0,0E0,0E0,0E0],"parents":[2147483647,0,0,1,1,2,2,3,3,4,4,5,5,6,6],"right_children":[2,4,6,8,10,12,14,-1,-1,-1,-1,-1,-1,-1,-1],"split_conditions":[9.9E1,1.8305912E1,3.42E2,7.070152E1,6.868041E1,1E0,6E1,-1.0346393E-4,6.5080146E-3,6.688752E-4,-1.1723312E-2,7.4176607E-4,-1.1107049E-2,1.5810272E-3,-3.9155174E-2],"split_indices":[3,5,0,4,4,8,1,0,0,0,0,0,0,0,0],"split_type":[0,0,0,0,0,0,0,0,0,0,0,0,0,0,0],"sum_hessian":[8E3,6.287E3,1.713E3,5.229E3,1.058E3,1.595E3,1.18E2,3.575E3,1.654E3,6.3E2,4.28E2,1.211E3,3.84E2,5.5E1,6.3E1],"tree_param":{"num_deleted":"0","num_feature":"21","num_nodes":"15","size_leaf_vector":"1"}},{"base_weights":[-1.7744707E-5,9.12162E-2,-3.3471963E-1,1.9688253E-1,-4.3071592E-1,-2.0949243E-1,-2.0114243E0,-1.0239611E-4,6.4429753E-3,6.62172E-4,-1.1606321E-2,7.3437166E-4,-1.0996253E-2,1.5655162E-3,-3.8769748E-2],"categories":[],"categories_nodes":[],"categories_segments":[],"categories_sizes":[],"default_left":[0,0,0,0,0,0,0,0,0,0,0,0,0,0,0],"id":29,"left_children":[1,3,5,7,9,11,13,-1,-1,-1,-1,-1,-1,-1,-1],"loss_changes":[2.4435043E2,3.468721E2,3.594655E2,4.846684E2,3.841969E2,4.0202536E2,4.8189874E2,0E0,0E0,0E0,0E0,0E0,0E0,0E0,0E0],"parents":[2147483647,0,0,1,1,2,2,3,3,4,4,5,5,6,6],"right_children":[2,4,6,8,10,12,14,-1,-1,-1,-1,-1,-1,-1,-1],"split_conditions":[9.9E1,1.8305912E1,3.42E2,7.070152E1,6.868041E1,1E0,6E1,-1.0239611E-4,6.4429753E-3,6.62172E-4,-1.1606321E-2,7.3437166E-4,-1.0996253E-2,1.5655162E-3,-3.8769748E-2],"split_indices":[3,5,0,4,4,8,1,0,0,0,0,0,0,0,0],"split_type":[0,0,0,0,0,0,0,0,0,0,0,0,0,0,0],"sum_hessian":[8E3,6.287E3,1.713E3,5.229E3,1.058E3,1.595E3,1.18E2,3.575E3,1.654E3,6.3E2,4.28E2,1.211E3,3.84E2,5.5E1,6.3E1],"tree_param":{"num_deleted":"0","num_feature":"21","num_nodes":"15","size_leaf_vector":"1"}},{"base_weights":[-2.4747616E-5,1.0608207E0,-2.8755123E-2,2.6171827E0,-7.9528713E-1,-2.0733498E-1,1.9871199E-1,3.5787012E-2,-8.1181275E-3,-3.3014275E-2,1.1785188E-2,-1.0593936E-3,-1.1184929E-2,4.533224E-3,-5.376005E-3],"categories":[],"categories_nodes":[],"categories_segments":[],"categories_sizes":[],"default_left":[0,0,0,0,0,0,0,0,0,0,0,0,0,0,0],"id":30,"left_children":[1,3,5,7,9,11,13,-1,-1,-1,-1,-1,-1,-1,-1],"loss_changes":[2.438889E2,6.116131E2,3.1651974E2,3.820653E2,4.8371436E2,4.0315265E2,6.42713E2,0E0,0E0,0E0,0E0,0E0,0E0,0E0,0E0],"parents":[2147483647,0,0,1,1,2,2,3,3,4,4,5,5,6,6],"right_children":[2,4,6,8,10,12,14,-1,-1,-1,-1,-1,-1,-1,-1],"split_conditions":[1.51E2,6.6160576E1,2.63E2,8E1,8.6E1,8.5E1,1E0,3.5787012E-2,-8.1181275E-3,-3.3014275E-2,1.1785188E-2,-1.0593936E-3,-1.1184929E-2,4.533224E-3,-5.376005E-3],"split_indices":[0,4,0,1,3,1,7,0,0,0,0,0,0,0,0],"split_type":[0,0,0,0,0,0,0,0,0,0,0,0,0,0,0],"sum_hessian":[8E3,2.1E2,7.79E3,1.14E2,9.6E1,4.364E3,3.426E3,8.9E1,2.5E1,4.2E1,5.4E1,3.928E3,4.36E2,2.546E3,8.8E2],"tree_param":{"num_deleted":"0","num_feature":"21","num_nodes":"15","size_leaf_vector":"1"}},{"base_weights":[-2.4128758E-5,1.0828024E-1,-2.7741247E-1,3.4941298E-1,-1.198461E-1,-4.532608E-1,3.9929196E-1,5.691661E-4,8.195894E-3,2.8646905E-2,-1.5863164E-3,-7.5995526E-3,2.063637E-3,2.2440435E-2,-2.801E-3],"categories":[],"categories_nodes":[],"categories_segments":[],"categories_sizes":[],"default_left":[0,0,0,0,0,0,0,0,0,0,0,0,0,0,0],"id":31,"left_children":[1,3,5,7,9,11,13,-1,-1,-1,-1,-1,-1,-1,-1],"loss_changes":[2.4039905E2,3.1661713E2,2.6756802E2,3.8474808E2,3.4286316E2,3.6106573E2,5.821641E2,0E0,0E0,0E0,0E0,0E0,0E0,0E0,0E0],"parents":[2147483647,0,0,1,1,2,2,3,3,4,4,5,5,6,6],"right_children":[2,4,6,8,10,12,14,-1,-1,-1,-1,-1,-1,-1,-1],"split_conditions":[9.7E1,1.4829477E1,1E0,7.1E1,5.036854E1,1E0,5.4E1,5.691661E-4,8.195894E-3,2.8646905E-2,-1.5863164E-3,-7.5995526E-3,2.063637E-3,2.2440435E-2,-2.801E-3],"split_indices":[3,5,13,1,4,19,1,0,0,0,0,0,0,0,0],"split_type":[0,0,0,0,0,0,0,0,0,0,0,0,0,0,0],"sum_hessian":[8E3,5.754E3,2.246E3,2.797E3,2.957E3,1.783E3,4.63E2,1.725E3,1.072E3,3.7E1,2.92E3,1.217E3,5.66E2,1.24E2,3.39E2],"tree_param":{"num_deleted":"0","num_feature":"21","num_nodes":"15","size_leaf_vector":"1"}},{"base_weights":[-1.7679866E-5,1.0501426E0,-2.8458677E-2,2.5905175E0,-7.869011E-1,-2.0518406E-1,1.9664629E-1,3.2674994E-2,-2.1405283E-2,-3.2700285E-2,1.1687604E-2,-1.045818E-3,-1.109214E-2,4.4874307E-3,-5.32397E-3],"categories":[],"categories_nodes":[],"categories_segments":[],"categories_sizes":[],"default_left":[0,0,0,0,0,0,0,0,0,0,0,0,0,0,0],"id":32,"left_children":[1,3,5,7,9,11,13,-1,-1,-1,-1,-1,-1,-1,-1],"loss_changes":[2.3900063E2,5.991128E2,3.0998007E2,3.753199E2,4.748691E2,3.9686963E2,6.300854E2,0E0,0E0,0E0,0E0,0E0,0E0,0E0,0E0],"parents":[2147483647,0,0,1,1,2,2,3,3,4,4,5,5,6,6],"right_children":[2,4,6,8,10,12,14,-1,-1,-1,-1,-1,-1,-1,-1],"split_conditions":[1.51E2,6.6160576E1,2.63E2,8.5E1,8.6E1,8.5E1,1E0,3.2674994E-2,-2.1405283E-2,-3.2700285E-2,1.1687604E-2,-1.045818E-3,-1.109214E-2,4.4874307E-3,-5.32397E-3],"split_indices":[0,4,0,1,3,1,7,0,0,0,0,0,0,0,0],"split_type":[0,0,0,0,0,0,0,0,0,0,0,0,0,0,0],"sum_hessian":[8E3,2.1E2,7.79E3,1.14E2,9.6E1,4.364E3,3.426E3,1E2,1.4E1,4.2E1,5.4E1,3.928E3,4.36E2,2.546E3,8.8E2],"tree_param":{"num_deleted":"0","num_feature":"21","num_nodes":"15","size_leaf_vector":"1"}},{"base_weights":[-2.002561E-5,8.963727E-2,-3.289378E-1,1.9381355E-1,-4.2493457E-1,-2.0466124E-1,-1.9929417E0,-1.1704263E-4,6.3776392E-3,6.6227844E-4,-1.1463763E-2,7.6071185E-4,-1.0878899E-2,1.5187605E-3,-3.8385175E-2],"categories":[],"categories_nodes":[],"categories_segments":[],"categories_sizes":[],"default_left":[0,0,0,0,0,0,0,0,0,0,0,0,0,0,0],"id":33,"left_children":[1,3,5,7,9,11,13,-1,-1,-1,-1,-1,-1,-1,-1],"loss_changes":[2.35978E2,3.3715802E2,3.5404166E2,4.771911E2,3.753274E2,3.9581247E2,4.7163538E2,0E0,0E0,0E0,0E0,0E0,0E0,0E0,0E0],"parents":[2147483647,0,0,1,1,2,2,3,3,4,4,5,5,6,6],"right_children":[2,4,6,8,10,12,14,-1,-1,-1,-1,-1,-1,-1,-1],"split_conditions":[9.9E1,1.8305912E1,3.42E2,7.070152E1,6.868041E1,1E0,6E1,-1.1704263E-4,6.3776392E-3,6.6227844E-4,-1.1463763E-2,7.6071185E-4,-1.0878899E-2,1.5187605E-3,-3.8385175E-2],"split_indices":[3,5,0,4,4,8,1,0,0,0,0,0,0,0,0],"split_type":[0,0,0,0,0,0,0,0,0,0,0,0,0,0,0],"sum_hessian":[8E3,6.287E3,1.713E3,5.229E3,1.058E3,1.595E3,1.18E2,3.575E3,1.654E3,6.3E2,4.28E2,1.211E3,3.84E2,5.5E1,6.3E1],"tree_param":{"num_deleted":"0","num_feature":"21","num_nodes":"15","size_leaf_vector":"1"}},{"base_weights":[-2.7799946E-5,1.0397701E0,-2.8188156E-2,2.5650814E0,-7.7930796E-1,-2.0342602E-1,1.9502206E-1,3.511238E-2,-8.087329E-3,-3.2381684E-2,1.157243E-2,-1.0380953E-3,-1.0985969E-2,4.447827E-3,-5.2726553E-3],"categories":[],"categories_nodes":[],"categories_segments":[],"categories_sizes":[],"default_left":[0,0,0,0,0,0,0,0,0,0,0,0,0,0,0],"id":34,"left_children":[1,3,5,7,9,11,13,-1,-1,-1,-1,-1,-1,-1,-1],"loss_changes":[2.3430724E2,5.874523E2,3.0478372E2,3.6993768E2,4.656331E2,3.8912952E2,6.18462E2,0E0,0E0,0E0,0E0,0E0,0E0,0E0,0E0],"parents":[2147483647,0,0,1,1,2,2,3,3,4,4,5,5,6,6],"right_children":[2,4,6,8,10,12,14,-1,-1,-1,-1,-1,-1,-1,-1],"split_conditions":[1.51E2,6.6160576E1,2.63E2,8E1,8.6E1,8.5E1,1E0,3.511238E-2,-8.087329E-3,-3.2381684E-2,1.157243E-2,-1.0380953E-3,-1.0985969E-2,4.447827E-3,-5.2726553E-3],"split_indices":[0,4,0,1,3,1,7,0,0,0,0,0,0,0,0],"split_type":[0,0,0,0,0,0,0,0,0,0,0,0,0,0,0],"sum_hessian":[8E3,2.1E2,7.79E3,1.14E2,9.6E1,4.364E3,3.426E3,8.9E1,2.5E1,4.2E1,5.4E1,3.928E3,4.36E2,2.546E3,8.8E2],"tree_param":{"num_deleted":"0","num_feature":"21","num_nodes":"15","size_leaf_vector":"1"}},{"base_weights":[-2.8694381E-5,1.06456146E-1,-2.7275687E-1,7.387993E-1,1.9740896E-2,-1.346958E0,-1.6193499E-1,3.1896856E-2,5.6394627E-3,-2.923289E-3,3.0911367E-3,-5.725514E-2,-8.559231E-3,-6.780366E-4,-1.7210094E-2],"categories":[],"categories_nodes":[],"categories_segments":[],"categories_sizes":[],"default_left":[0,0,0,0,0,0,0,0,0,0,0,0,0,0,0],"id":35,"left_children":[1,3,5,7,9,11,13,-1,-1,-1,-1,-1,-1,-1,-1],"loss_changes":[2.3238943E2,3.1555386E2,2.67276E2,2.9561124E2,4.5721182E2,4.4660446E2,2.989756E2,0E0,0E0,0E0,0E0,0E0,0E0,0E0,0E0],"parents":[2147483647,0,0,1,1,2,2,3,3,4,4,5,5,6,6],"right_children":[2,4,6,8,10,12,14,-1,-1,-1,-1,-1,-1,-1,-1],"split_conditions":[9.7E1,4.6E1,1.0982133E1,1.57E2,6.7E1,5.3466553E1,1.9446234E1,3.1896856E-2,5.6394627E-3,-2.923289E-3,3.0911367E-3,-5.725514E-2,-8.559231E-3,-6.780366E-4,-1.7210094E-2],"split_indices":[3,1,5,0,1,4,5,0,0,0,0,0,0,0,0],"split_type":[0,0,0,0,0,0,0,0,0,0,0,0,0,0,0],"sum_hessian":[8E3,5.754E3,2.246E3,6.93E2,5.061E3,2.09E2,2.037E3,4.5E1,6.48E2,2.435E3,2.626E3,2E1,1.89E2,1.922E3,1.15E2],"tree_param":{"num_deleted":"0","num_feature":"21","num_nodes":"15","size_leaf_vector":"1"}},{"base_weights":[-3.3734872E-5,1.0269495E0,-2.7847035E-2,2.536895E0,-7.7377915E-1,-2.013147E-1,1.931084E-1,3.2025743E-2,-2.114474E-2,-3.209584E-2,1.1446458E-2,-1.0250385E-3,-1.0892473E-2,4.403731E-3,-5.219612E-3],"categories":[],"categories_nodes":[],"categories_segments":[],"categories_sizes":[],"default_left":[0,0,0,0,0,0,0,0,0,0,0,0,0,0,0],"id":36,"left_children":[1,3,5,7,9,11,13,-1,-1,-1,-1,-1,-1,-1,-1],"loss_changes":[2.285675E2,5.756724E2,2.9865717E2,3.6284882E2,4.5694598E2,3.8286206E2,6.0616284E2,0E0,0E0,0E0,0E0,0E0,0E0,0E0,0E0],"parents":[2147483647,0,0,1,1,2,2,3,3,4,4,5,5,6,6],"right_children":[2,4,6,8,10,12,14,-1,-1,-1,-1,-1,-1,-1,-1],"split_conditions":[1.51E2,6.6160576E1,2.63E2,8.5E1,8.6E1,8.5E1,1E0,3.2025743E-2,-2.114474E-2,-3.209584E-2,1.1446458E-2,-1.0250385E-3,-1.0892473E-2,4.403731E-3,-5.219612E-3],"split_indices":[0,4,0,1,3,1,7,0,0,0,0,0,0,0,0],"split_type":[0,0,0,0,0,0,0,0,0,0,0,0,0,0,0],"sum_hessian":[8E3,2.1E2,7.79E3,1.14E2,9.6E1,4.364E3,3.426E3,1E2,1.4E1,4.2E1,5.4E1,3.928E3,4.36E2,2.546E3,8.8E2],"tree_param":{"num_deleted":"0","num_feature":"21","num_nodes":"15","size_leaf_vector":"1"}},{"base_weights":[-3.7047525E-5,1.0546419E-1,-2.7024603E-1,7.308265E-1,1.9706203E-2,-4.4446465E-1,4.0017703E-1,1.0695283E-2,-5.152275E-3,-2.8987292E-3,3.067694E-3,-6.267151E-3,6.5078116E-3,2.223382E-2,-2.7129592E-3],"categories":[],"categories_nodes":[],"categories_segments":[],"categories_sizes":[],"default_left":[0,0,0,0,0,0,0,0,0,0,0,0,0,0,0],"id":37,"left_children":[1,3,5,7,9,11,13,-1,-1,-1,-1,-1,-1,-1,-1],"loss_changes":[2.2811606E2,3.0862518E2,2.6262787E2,2.9344745E2,4.499427E2,3.5651038E2,5.686472E2,0E0,0E0,0E0,0E0,0E0,0E0,0E0,0E0],"parents":[2147483647,0,0,1,1,2,2,3,3,4,4,5,5,6,6],"right_children":[2,4,6,8,10,12,14,-1,-1,-1,-1,-1,-1,-1,-1],"split_conditions":[9.7E1,4.6E1,1E0,3.07E2,6.7E1,1.04E2,5.4E1,1.0695283E-2,-5.152275E-3,-2.8987292E-3,3.067694E-3,-6.267151E-3,6.5078116E-3,2.223382E-2,-2.7129592E-3],"split_indices":[3,1,13,0,1,3,1,0,0,0,0,0,0,0,0],"split_type":[0,0,0,0,0,0,0,0,0,0,0,0,0,0,0],"sum_hessian":[8E3,5.754E3,2.246E3,6.93E2,5.061E3,1.783E3,4.63E2,5.45E2,1.48E2,2.435E3,2.626E3,1.529E3,2.54E2,1.24E2,3.39E2],"tree_param":{"num_deleted":"0","num_feature":"21","num_nodes":"15","size_leaf_vector":"1"}},{"base_weights":[-3.37549E-5,1.7279854E-1,-1.647665E-1,-7.309601E-2,6.08445E-1,-1.4578621E0,-9.136635E-2,-8.762758E-3,2.243365E-3,1.2408461E-2,1.6319631E-3,-3.221331E-2,-5.60212E-3,1.8179964E-2,-1.3617952E-3],"categories":[],"categories_nodes":[],"categories_segments":[],"categories_sizes":[],"default_left":[0,0,0,0,0,0,0,0,0,0,0,0,0,0,0],"id":38,"left_children":[1,3,5,7,9,11,13,-1,-1,-1,-1,-1,-1,-1,-1],"loss_changes":[2.2782607E2,4.1836017E2,3.887271E2,5.967094E2,3.9653778E2,3.464506E2,3.3206708E2,0E0,0E0,0E0,0E0,0E0,0E0,0E0,0E0],"parents":[2147483647,0,0,1,1,2,2,3,3,4,4,5,5,6,6],"right_children":[2,4,6,8,10,12,14,-1,-1,-1,-1,-1,-1,-1,-1],"split_conditions":[1.4857156E1,7.2E1,1.5184634E1,1.1286704E1,1.2060885E1,8.6E1,1.5E2,-8.762758E-3,2.243365E-3,1.2408461E-2,1.6319631E-3,-3.221331E-2,-5.60212E-3,1.8179964E-2,-1.3617952E-3],"split_indices":[5,1,5,5,5,3,0,0,0,0,0,0,0,0,0],"split_type":[0,0,0,0,0,0,0,0,0,0,0,0,0,0,0],"sum_hessian":[8E3,3.904E3,4.096E3,2.496E3,1.408E3,2.19E2,3.877E3,6.74E2,1.822E3,5.81E2,8.27E2,7.3E1,1.46E2,8.8E1,3.789E3],"tree_param":{"num_deleted":"0","num_feature":"21","num_nodes":"15","size_leaf_vector":"1"}},{"base_weights":[-3.6442016E-5,7.562131E-2,-3.7416568E-1,-4.7548614E-2,5.6383586E-1,4.8227093E-1,-8.4177727E-1,-1.1883753E-2,3.1043783E-5,4.7003172E-2,4.4612424E-3,1.7010875E-3,2.563965E-2,-2.660189E-2,-6.157343E-3],"categories":[],"categories_nodes":[],"categories_segments":[],"categories_sizes":[],"default_left":[0,0,0,0,0,0,0,0,0,0,0,0,0,0,0],"id":39,"left_children":[1,3,5,7,9,11,13,-1,-1,-1,-1,-1,-1,-1,-1],"loss_changes":[2.2650282E2,4.0027435E2,5.394516E2,3.0719562E2,6.508519E2,3.088811E2,3.5637714E2,0E0,0E0,0E0,0E0,0E0,0E0,0E0,0E0],"parents":[2147483647,0,0,1,1,2,2,3,3,4,4,5,5,6,6],"right_children":[2,4,6,8,10,12,14,-1,-1,-1,-1,-1,-1,-1,-1],"split_conditions":[1.8305912E1,7.391581E1,6.129655E1,1.0380721E1,1.0243761E1,1.02E2,6.300747E1,-1.1883753E-2,3.1043783E-5,4.7003172E-2,4.4612424E-3,1.7010875E-3,2.563965E-2,-2.660189E-2,-6.157343E-3],"split_indices":[5,4,4,5,5,3,4,0,0,0,0,0,0,0,0],"split_type":[0,0,0,0,0,0,0,0,0,0,0,0,0,0,0],"sum_hessian":[8E3,6.655E3,1.345E3,5.315E3,1.34E3,4.75E2,8.7E2,2.25E2,5.09E3,3.6E1,1.304E3,4.14E2,6.1E1,9.5E1,7.75E2],"tree_param":{"num_deleted":"0","num_feature":"21","num_nodes":"15","size_leaf_vector":"1"}},{"base_weights":[-3.1768643E-5,8.775609E-2,-3.220913E-1,1.896299E-1,-4.154429E-1,-1.9874719E-1,-1.9736469E0,-1.3120219E-4,6.2760254E-3,6.9859845E-4,-1.1282881E-2,7.9825317E-4,-1.0751916E-2,1.4832427E-3,-3.799533E-2],"categories":[],"categories_nodes":[],"categories_segments":[],"categories_sizes":[],"default_left":[0,0,0,0,0,0,0,0,0,0,0,0,0,0,0],"id":40,"left_children":[1,3,5,7,9,11,13,-1,-1,-1,-1,-1,-1,-1,-1],"loss_changes":[2.2623985E2,3.2241928E2,3.4876614E2,4.6442712E2,3.6643536E2,3.8975458E2,4.6162653E2,0E0,0E0,0E0,0E0,0E0,0E0,0E0,0E0],"parents":[2147483647,0,0,1,1,2,2,3,3,4,4,5,5,6,6],"right_children":[2,4,6,8,10,12,14,-1,-1,-1,-1,-1,-1,-1,-1],"split_conditions":[9.9E1,1.8305912E1,3.42E2,7.070152E1,6.868041E1,1E0,6E1,-1.3120219E-4,6.2760254E-3,6.9859845E-4,-1.1282881E-2,7.9825317E-4,-1.0751916E-2,1.4832427E-3,-3.799533E-2],"split_indices":[3,5,0,4,4,8,1,0,0,0,0,0,0,0,0],"split_type":[0,0,0,0,0,0,0,0,0,0,0,0,0,0,0],"sum_hessian":[8E3,6.287E3,1.713E3,5.229E3,1.058E3,1.595E3,1.18E2,3.575E3,1.654E3,6.3E2,4.28E2,1.211E3,3.84E2,5.5E1,6.3E1],"tree_param":{"num_deleted":"0","num_feature":"21","num_nodes":"15","size_leaf_vector":"1"}},{"base_weights":[-3.982046E-5,8.687593E-2,-3.188999E-1,6.9411594E-1,4.0148715E-3,-1.9676861E-1,-1.9542164E0,3.262447E-2,5.1901145E-3,-3.0079745E-3,2.8725842E-3,7.9024886E-4,-1.0644698E-2,1.4687061E-3,-3.7621327E-2],"categories":[],"categories_nodes":[],"categories_segments":[],"categories_sizes":[],"default_left":[0,0,0,0,0,0,0,0,0,0,0,0,0,0,0],"id":41,"left_children":[1,3,5,7,9,11,13,-1,-1,-1,-1,-1,-1,-1,-1],"loss_changes":[2.2176712E2,3.163877E2,3.4194128E2,3.378501E2,4.7787054E2,3.8201703E2,4.5258466E2,0E0,0E0,0E0,0E0,0E0,0E0,0E0,0E0],"parents":[2147483647,0,0,1,1,2,2,3,3,4,4,5,5,6,6],"right_children":[2,4,6,8,10,12,14,-1,-1,-1,-1,-1,-1,-1,-1],"split_conditions":[9.9E1,4.6E1,3.42E2,1.57E2,6.7E1,1E0,6E1,3.262447E-2,5.1901145E-3,-3.0079745E-3,2.8725842E-3,7.9024886E-4,-1.0644698E-2,1.4687061E-3,-3.7621327E-2],"split_indices":[3,1,0,0,1,8,1,0,0,0,0,0,0,0,0],"split_type":[0,0,0,0,0,0,0,0,0,0,0,0,0,0,0],"sum_hessian":[8E3,6.287E3,1.713E3,7.54E2,5.533E3,1.595E3,1.18E2,4.7E1,7.07E2,2.665E3,2.868E3,1.211E3,3.84E2,5.5E1,6.3E1],"tree_param":{"num_deleted":"0","num_feature":"21","num_nodes":"15","size_leaf_vector":"1"}},{"base_weights":[-4.285658E-5,-1.4425047E-1,1.9247243E-1,-3.561207E-2,-1.1231067E0,4.376856E-1,-5.166654E-1,8.243679E-3,-1.447464E-3,-2.489015E-2,-2.1007282E-3,-1.0686211E-4,1.0506648E-2,-2.8676358E-3,-2.7533092E-2],"categories":[],"categories_nodes":[],"categories_segments":[],"categories_sizes":[],"default_left":[0,0,0,0,0,0,0,0,0,0,0,0,0,0,0],"id":42,"left_children":[1,3,5,7,9,11,13,-1,-1,-1,-1,-1,-1,-1,-1],"loss_changes":[2.2215288E2,4.8647186E2,5.96147E2,3.8670126E2,5.6941113E2,7.000353E2,4.5222815E2,0E0,0E0,0E0,0E0,0E0,0E0,0E0,0E0],"parents":[2147483647,0,0,1,1,2,2,3,3,4,4,5,5,6,6],"right_children":[2,4,6,8,10,12,14,-1,-1,-1,-1,-1,-1,-1,-1],"split_conditions":[2.63E2,8.5E1,1E0,1.59E2,8.7E1,6.9E1,3.48E2,8.243679E-3,-1.447464E-3,-2.489015E-2,-2.1007282E-3,-1.0686211E-4,1.0506648E-2,-2.8676358E-3,-2.7533092E-2],"split_indices":[0,1,7,0,1,1,0,0,0,0,0,0,0,0,0],"split_type":[0,0,0,0,0,0,0,0,0,0,0,0,0,0,0],"sum_hessian":[8E3,4.574E3,3.426E3,4.118E3,4.56E2,2.546E3,8.8E2,4.63E2,3.655E3,1.82E2,2.74E2,1.471E3,1.075E3,7.99E2,8.1E1],"tree_param":{"num_deleted":"0","num_feature":"21","num_nodes":"15","size_leaf_vector":"1"}},{"base_weights":[-4.6620262E-5,1.6975603E-1,-1.618917E-1,-7.2707355E-2,5.99324E-1,-1.4452982E0,-8.904195E-2,-8.668107E-3,2.2136422E-3,1.2254574E-2,1.584919E-3,-3.1931195E-2,-5.556107E-3,1.7931608E-2,-1.3321794E-3],"categories":[],"categories_nodes":[],"categories_segments":[],"categories_sizes":[],"default_left":[0,0,0,0,0,0,0,0,0,0,0,0,0,0,0],"id":43,"left_children":[1,3,5,7,9,11,13,-1,-1,-1,-1,-1,-1,-1,-1],"loss_changes":[2.1990874E2,4.067669E2,3.829238E2,5.832995E2,3.8871756E2,3.4032913E2,3.2268753E2,0E0,0E0,0E0,0E0,0E0,0E0,0E0,0E0],"parents":[2147483647,0,0,1,1,2,2,3,3,4,4,5,5,6,6],"right_children":[2,4,6,8,10,12,14,-1,-1,-1,-1,-1,-1,-1,-1],"split_conditions":[1.4857156E1,7.2E1,1.5184634E1,1.1286704E1,1.2060885E1,8.6E1,1.5E2,-8.668107E-3,2.2136422E-3,1.2254574E-2,1.584919E-3,-3.1931195E-2,-5.556107E-3,1.7931608E-2,-1.3321794E-3],"split_indices":[5,1,5,5,5,3,0,0,0,0,0,0,0,0,0],"split_type":[0,0,0,0,0,0,0,0,0,0,0,0,0,0,0],"sum_hessian":[8E3,3.904E3,4.096E3,2.496E3,1.408E3,2.19E2,3.877E3,6.74E2,1.822E3,5.81E2,8.27E2,7.3E1,1.46E2,8.8E1,3.789E3],"tree_param":{"num_deleted":"0","num_feature":"21","num_nodes":"15","size_leaf_vector":"1"}},{"base_weights":[-4.6381876E-5,-1.4298189E-1,1.9077066E-1,-3.515212E-2,-1.1145526E0,4.3348727E-1,-5.111476E-1,8.131228E-3,-1.4280103E-3,-2.4674602E-2,-2.1020134E-3,-9.292229E-5,1.0388199E-2,-2.835634E-3,-2.7252479E-2],"categories":[],"categories_nodes":[],"categories_segments":[],"categories_sizes":[],"default_left":[0,0,0,0,0,0,0,0,0,0,0,0,0,0,0],"id":44,"left_children":[1,3,5,7,9,11,13,-1,-1,-1,-1,-1,-1,-1,-1],"loss_changes":[2.1825081E2,4.792573E2,5.8407007E2,3.7624625E2,5.586225E2,6.826793E2,4.4315808E2,0E0,0E0,0E0,0E0,0E0,0E0,0E0,0E0],"parents":[2147483647,0,0,1,1,2,2,3,3,4,4,5,5,6,6],"right_children":[2,4,6,8,10,12,14,-1,-1,-1,-1,-1,-1,-1,-1],"split_conditions":[2.63E2,8.5E1,1E0,1.59E2,8.7E1,6.9E1,3.48E2,8.131228E-3,-1.4280103E-3,-2.4674602E-2,-2.1020134E-3,-9.292229E-5,1.0388199E-2,-2.835634E-3,-2.7252479E-2],"split_indices":[0,1,7,0,1,1,0,0,0,0,0,0,0,0,0],"split_type":[0,0,0,0,0,0,0,0,0,0,0,0,0,0,0],"sum_hessian":[8E3,4.574E3,3.426E3,4.118E3,4.56E2,2.546E3,8.8E2,4.63E2,3.655E3,1.82E2,2.74E2,1.471E3,1.075E3,7.99E2,8.1E1],"tree_param":{"num_deleted":"0","num_feature":"21","num_nodes":"15","size_leaf_vector":"1"}},{"base_weights":[-5.1911542E-5,1.0301729E-1,-2.6403198E-1,7.1916914E-1,1.8522548E-2,-1.3216522E0,-1.549229E-1,1.0532401E-2,-5.098371E-3,-2.8030376E-3,2.956152E-3,-5.6491602E-2,-8.363926E-3,-6.20375E-4,-1.6934032E-2],"categories":[],"categories_nodes":[],"categories_segments":[],"categories_sizes":[],"default_left":[0,0,0,0,0,0,0,0,0,0,0,0,0,0,0],"id":45,"left_children":[1,3,5,7,9,11,13,-1,-1,-1,-1,-1,-1,-1,-1],"loss_changes":[2.1772014E2,2.9960114E2,2.590899E2,2.854763E2,4.1922955E2,4.362678E2,2.9112997E2,0E0,0E0,0E0,0E0,0E0,0E0,0E0,0E0],"parents":[2147483647,0,0,1,1,2,2,3,3,4,4,5,5,6,6],"right_children":[2,4,6,8,10,12,14,-1,-1,-1,-1,-1,-1,-1,-1],"split_conditions":[9.7E1,4.6E1,1.0982133E1,3.07E2,6.7E1,5.3466553E1,1.9446234E1,1.0532401E-2,-5.098371E-3,-2.8030376E-3,2.956152E-3,-5.6491602E-2,-8.363926E-3,-6.20375E-4,-1.6934032E-2],"split_indices":[3,1,5,0,1,4,5,0,0,0,0,0,0,0,0],"split_type":[0,0,0,0,0,0,0,0,0,0,0,0,0,0,0],"sum_hessian":[8E3,5.754E3,2.246E3,6.93E2,5.061E3,2.09E2,2.037E3,5.45E2,1.48E2,2.435E3,2.626E3,2E1,1.89E2,1.922E3,1.15E2],"tree_param":{"num_deleted":"0","num_feature":"21","num_nodes":"15","size_leaf_vector":"1"}},{"base_weights":[-6.163018E-5,1.6822632E-1,-1.6046299E-1,-7.054444E-2,5.912514E-1,-1.4322073E0,-8.82752E-2,-8.54462E-3,2.1975448E-3,1.2117067E-2,1.5442015E-3,-7.6421266E-3,-3.7477765E-2,1.7696448E-2,-1.3188116E-3],"categories":[],"categories_nodes":[],"categories_segments":[],"categories_sizes":[],"default_left":[0,0,0,0,0,0,0,0,0,0,0,0,0,0,0],"id":46,"left_children":[1,3,5,7,9,11,13,-1,-1,-1,-1,-1,-1,-1,-1],"loss_changes":[2.160029E2,3.944702E2,3.7599628E2,5.684311E2,3.817002E2,3.3742923E2,3.1441498E2,0E0,0E0,0E0,0E0,0E0,0E0,0E0,0E0],"parents":[2147483647,0,0,1,1,2,2,3,3,4,4,5,5,6,6],"right_children":[2,4,6,8,10,12,14,-1,-1,-1,-1,-1,-1,-1,-1],"split_conditions":[1.4857156E1,7.2E1,1.5184634E1,1.1286704E1,1.2060885E1,9.9E1,1.5E2,-8.54462E-3,2.1975448E-3,1.2117067E-2,1.5442015E-3,-7.6421266E-3,-3.7477765E-2,1.7696448E-2,-1.3188116E-3],"split_indices":[5,1,5,5,5,3,0,0,0,0,0,0,0,0,0],"split_type":[0,0,0,0,0,0,0,0,0,0,0,0,0,0,0],"sum_hessian":[8E3,3.904E3,4.096E3,2.496E3,1.408E3,2.19E2,3.877E3,6.74E2,1.822E3,5.81E2,8.27E2,1.71E2,4.8E1,8.8E1,3.789E3],"tree_param":{"num_deleted":"0","num_feature":"21","num_nodes":"15","size_leaf_vector":"1"}},{"base_weights":[-6.2662875E-5,-1.4188597E-1,1.8926962E-1,-3.4732763E-2,-1.1073612E0,4.2951772E-1,-5.0551045E-1,8.017749E-3,-1.4088836E-3,-2.4469396E-2,-2.1190573E-3,-6.3316875E-5,1.0253734E-2,-2.125911E-3,-2.1960475E-2],"categories":[],"categories_nodes":[],"categories_segments":[],"categories_sizes":[],"default_left":[0,0,0,0,0,0,0,0,0,0,0,0,0,0,0],"id":47,"left_children":[1,3,5,7,9,11,13,-1,-1,-1,-1,-1,-1,-1,-1],"loss_changes":[2.1486754E2,4.7326248E2,5.722506E2,3.6588007E2,5.4766815E2,6.6147095E2,4.3579642E2,0E0,0E0,0E0,0E0,0E0,0E0,0E0,0E0],"parents":[2147483647,0,0,1,1,2,2,3,3,4,4,5,5,6,6],"right_children":[2,4,6,8,10,12,14,-1,-1,-1,-1,-1,-1,-1,-1],"split_conditions":[2.63E2,8.5E1,1E0,1.59E2,8.7E1,6.9E1,3.42E2,8.017749E-3,-1.4088836E-3,-2.4469396E-2,-2.1190573E-3,-6.3316875E-5,1.0253734E-2,-2.125911E-3,-2.1960475E-2],"split_indices":[0,1,7,0,1,1,0,0,0,0,0,0,0,0,0],"split_type":[0,0,0,0,0,0,0,0,0,0,0,0,0,0,0],"sum_hessian":[8E3,4.574E3,3.426E3,4.118E3,4.56E2,2.546E3,8.8E2,4.63E2,3.655E3,1.82E2,2.74E2,1.471E3,1.075E3,7.51E2,1.29E2],"tree_param":{"num_deleted":"0","num_feature":"21","num_nodes":"15","size_leaf_vector":"1"}},{"base_weights":[-6.53643E-5,4.4434273E-1,-6.0434204E-2,1.018819E-1,1.5979236E0,-2.4608886E-1,1.9070017E-1,8.0723865E-3,-7.51167E-3,3.9380476E-2,6.9009033E-3,-1.2536055E-2,-1.3689228E-3,4.5014555E-3,-5.661801E-3],"categories":[],"categories_nodes":[],"categories_segments":[],"categories_sizes":[],"default_left":[0,0,0,0,0,0,0,0,0,0,0,0,0,0,0],"id":48,"left_children":[1,3,5,7,9,11,13,-1,-1,-1,-1,-1,-1,-1,-1],"loss_changes":[2.1468091E2,3.7790604E2,3.285149E2,4.452655E2,4.6253528E2,4.455088E2,5.883803E2,0E0,0E0,0E0,0E0,0E0,0E0,0E0,0E0],"parents":[2147483647,0,0,1,1,2,2,3,3,4,4,5,5,6,6],"right_children":[2,4,6,8,10,12,14,-1,-1,-1,-1,-1,-1,-1,-1],"split_conditions":[4.6E1,1E0,2.63E2,9.2E1,2.16E2,5E1,1E0,8.0723865E-3,-7.51167E-3,3.9380476E-2,6.9009033E-3,-1.2536055E-2,-1.3689228E-3,4.5014555E-3,-5.661801E-3],"split_indices":[1,9,0,3,0,1,7,0,0,0,0,0,0,0,0],"split_type":[0,0,0,0,0,0,0,0,0,0,0,0,0,0,0],"sum_hessian":[8E3,9.56E2,7.044E3,7.38E2,2.18E2,4.05E3,2.994E3,4.04E2,3.34E2,6E1,1.58E2,3.95E2,3.655E3,2.23E3,7.64E2],"tree_param":{"num_deleted":"0","num_feature":"21","num_nodes":"15","size_leaf_vector":"1"}},{"base_weights":[-6.224999E-5,7.348601E-2,-3.6376E-1,-4.7641598E-2,5.53606E-1,4.8160648E-1,-8.2533365E-1,7.611188E-6,-1.2072651E-2,4.650591E-2,4.37022E-3,1.6991002E-3,2.5601937E-2,-2.6856568E-2,-6.0751713E-3],"categories":[],"categories_nodes":[],"categories_segments":[],"categories_sizes":[],"default_left":[0,0,0,0,0,0,0,0,0,0,0,0,0,0,0],"id":49,"left_children":[1,3,5,7,9,11,13,-1,-1,-1,-1,-1,-1,-1,-1],"loss_changes":[2.1404816E2,3.8711124E2,5.256052E2,2.9838232E2,6.3848645E2,3.079598E2,3.5130554E2,0E0,0E0,0E0,0E0,0E0,0E0,0E0,0E0],"parents":[2147483647,0,0,1,1,2,2,3,3,4,4,5,5,6,6],"right_children":[2,4,6,8,10,12,14,-1,-1,-1,-1,-1,-1,-1,-1],"split_conditions":[1.8305912E1,7.391581E1,6.129655E1,7.302706E1,1.0243761E1,1.02E2,6.2894573E1,7.611188E-6,-1.2072651E-2,4.650591E-2,4.37022E-3,1.6991002E-3,2.5601937E-2,-2.6856568E-2,-6.0751713E-3],"split_indices":[5,4,4,4,5,3,4,0,0,0,0,0,0,0,0],"split_type":[0,0,0,0,0,0,0,0,0,0,0,0,0,0,0],"sum_hessian":[8E3,6.655E3,1.345E3,5.315E3,1.34E3,4.75E2,8.7E2,5.103E3,2.12E2,3.6E1,1.304E3,4.14E2,6.1E1,9E1,7.8E2],"tree_param":{"num_deleted":"0","num_feature":"21","num_nodes":"15","size_leaf_vector":"1"}}]},"name":"gbtree"},"learner_model_param":{"base_score":"8.5064835E1","boost_from_average":"1","num_class":"0","num_feature":"21","num_target":"1"},"objective":{"name":"reg:squarederror","reg_loss_param":{"scale_pos_weight":"1"}}},"version":[2,0,3]}